#Parameter# /vanilla-lstm-builder/_0 {320,200} 1024001 ZERO_GRAD
+2.44413875e-02 +6.06469065e-02 +5.54095805e-02 +5.39673585e-03 -8.43741521e-02 -1.05288953e-01 -7.36711025e-02 -2.96865422e-02 +4.02337275e-02 -1.71216223e-02 +4.74519543e-02 -8.58015008e-03 -6.00066595e-02 -9.25528929e-02 +3.51250805e-02 -4.61904630e-02 -8.25504810e-02 +9.93794352e-02 -1.81648079e-02 +3.27076279e-02 +8.09192657e-02 -8.95956457e-02 +6.77677663e-03 -7.34945461e-02 -9.90740210e-02 -4.66294819e-03 +2.33149529e-02 -6.53882176e-02 +9.98353139e-02 +8.53019804e-02 -1.72645822e-02 +7.88249373e-02 -5.56052625e-02 -3.95217426e-02 +3.28705739e-03 -9.92843732e-02 +1.07397370e-01 +1.84360947e-02 +1.03664011e-01 -8.30946416e-02 -9.89722181e-03 -2.26322785e-02 -9.17223245e-02 -9.13519263e-02 -7.90941939e-02 +7.96347782e-02 -1.05486913e-02 -8.75302404e-02 -9.65442322e-03 -6.60894290e-02 -2.24316809e-02 +9.15061980e-02 -5.54833040e-02 +8.79545212e-02 -1.04585245e-01 +7.53744021e-02 +5.38083389e-02 +2.73596961e-02 -5.99670643e-03 -1.53119527e-02 +1.01002574e-01 +2.87979469e-02 -3.98459546e-02 +7.29643479e-02 -8.01732484e-03 +9.14162993e-02 +8.06695521e-02 +5.70184700e-02 +1.80039927e-02 +2.87587903e-02 +6.53221533e-02 +3.28751765e-02 +7.04621747e-02 -7.53075108e-02 -2.46778782e-02 -9.53783765e-02 +4.36149724e-02 -9.07186698e-03 +9.72510204e-02 -6.47383332e-02 +3.76518555e-02 -3.74561958e-02 +7.32638538e-02 +8.33195448e-02 +4.75984737e-02 +5.59615977e-02 +1.38077009e-02 -3.65770161e-02 +4.58358489e-02 -4.93324809e-02 +9.16701090e-03 +2.20563468e-02 -6.74408823e-02 -1.77214649e-02 -9.21678320e-02 +1.03208348e-01 -6.77596033e-02 -3.23075540e-02 +2.54601389e-02 +4.75026742e-02 +6.83530793e-02 -7.83661529e-02 +4.96037006e-02 +5.19323722e-02 +3.89615633e-02 -7.33766407e-02 +7.52692595e-02 -7.51236826e-03 -2.15070155e-02 +4.79803467e-03 -8.19901526e-02 -1.79087687e-02 +2.05806941e-02 -3.59348729e-02 -4.99239452e-02 +1.15627646e-02 +8.62833336e-02 +2.32311897e-02 -1.82764661e-02 -5.61643541e-02 -3.22300829e-02 +1.01382667e-02 -1.31854732e-02 -1.04340002e-01 +8.70246366e-02 +3.45482980e-03 +1.05688550e-01 +9.88852158e-02 -6.66036531e-02 -1.05291568e-01 -6.41358271e-02 -1.06331803e-01 -1.07094668e-01 +3.89207862e-02 -6.45809844e-02 +7.35035958e-03 +5.71790822e-02 +8.06321874e-02 -2.70982701e-02 +5.51544316e-02 -7.66010731e-02 -2.82087196e-02 -7.81479105e-02 -1.01150043e-01 -1.01892781e-02 +4.21578549e-02 +7.78910071e-02 +1.17672700e-02 -4.14035991e-02 -8.07585120e-02 -7.84507245e-02 +8.95389840e-02 -1.33376289e-02 -9.41379741e-02 -1.02396095e-02 +4.09712084e-02 -1.58777309e-03 -2.90852152e-02 -2.71429401e-02 +8.72962624e-02 +2.21153423e-02 -5.46573922e-02 +8.41338262e-02 -1.05895773e-01 -8.75553787e-02 +1.54718580e-02 -1.46415019e-02 -9.74111855e-02 -8.43740702e-02 +5.95270731e-02 -5.25073744e-02 +9.99223515e-02 -3.72644402e-02 +8.28891341e-03 -2.82889549e-02 +8.33846480e-02 -4.52989303e-02 -3.39635871e-02 -1.09867416e-02 +1.05452508e-01 -6.02287464e-02 +8.56135227e-03 +7.32920766e-02 +4.10546809e-02 +6.25652820e-02 +5.23465723e-02 -9.78995636e-02 +1.09372009e-02 +3.22773270e-02 +6.91261841e-03 -4.92270067e-02 -1.32594214e-04 -1.80245028e-03 +4.48863357e-02 -9.85795483e-02 -1.97892599e-02 +1.63143184e-02 +6.72630817e-02 -3.33064236e-02 -2.73766611e-02 -2.28643268e-02 -1.66493692e-02 -2.97668185e-02 -2.76020989e-02 -3.05617228e-02 -7.85203371e-03 -8.57641920e-02 +7.13843331e-02 -8.08476005e-03 -3.78603563e-02 +1.90237239e-02 +1.03221148e-01 -7.28184953e-02 +1.05442189e-01 -4.17446494e-02 -9.14132595e-02 +9.80684385e-02 -4.69303280e-02 +9.06315744e-02 +8.20651352e-02 +2.57130414e-02 +5.62622808e-02 +6.47026449e-02 +2.15295292e-02 +1.33568253e-02 -3.82524333e-03 +2.70508640e-02 +1.01269886e-01 +9.14708003e-02 -1.59253683e-02 +8.96915644e-02 -7.26732891e-03 +1.39895063e-02 -2.30278936e-03 +4.25055735e-02 -8.74003246e-02 +6.63691908e-02 +9.94913578e-02 -9.38156322e-02 -3.97967026e-02 -3.86101231e-02 +9.25039500e-02 +8.70054811e-02 -8.94564763e-02 +9.17084143e-02 -2.97178775e-02 +2.29749680e-02 -3.90607342e-02 -2.75892615e-02 -6.31443113e-02 +9.52804983e-02 -4.98689227e-02 +7.32237520e-03 -8.61747116e-02 +1.01114511e-01 -1.64623894e-02 -4.37332354e-02 +1.01124411e-02 -9.77415815e-02 +6.67748377e-02 +3.97892855e-02 -4.54456285e-02 +5.57754859e-02 +7.92753547e-02 +3.11090779e-02 +8.23929757e-02 +5.08811176e-02 +7.33264163e-03 -4.56612371e-02 -4.89685908e-02 -9.58965421e-02 +3.07982955e-02 +6.53590336e-02 +3.29683237e-02 +7.88391158e-02 -9.77986753e-02 +8.94189551e-02 -1.05790179e-02 -9.18397009e-02 -7.48443604e-02 +7.90697336e-02 -1.59552880e-02 -4.06583957e-02 +6.50798827e-02 +1.10247917e-01 +1.02328500e-02 -2.68717818e-02 -9.59855691e-02 -4.00248058e-02 +6.69400021e-02 +8.43930170e-02 -3.34612578e-02 +1.08886316e-01 -8.12054873e-02 -6.28687665e-02 -9.65543985e-02 +5.72090857e-02 -4.58637718e-03 +6.99268505e-02 +3.04595418e-02 -2.70477049e-02 -5.47807477e-02 +5.63605167e-02 +3.47347520e-02 +3.94748040e-02 -2.47493107e-02 +1.45287747e-02 -2.64497530e-02 +5.17313071e-02 -7.30053484e-02 -5.71449939e-03 +9.53322276e-02 -4.67383638e-02 -2.24322453e-03 +9.04034600e-02 -1.89130306e-02 +8.02959949e-02 -1.15816873e-02 -3.16263996e-02 -8.36896375e-02 -7.44909197e-02 -8.39277655e-02 +5.69106042e-02 -9.86066088e-02 +1.06721938e-01 -1.02778129e-01 +1.24429027e-02 -4.34999950e-02 +3.59914033e-03 -4.63352306e-03 -1.88225936e-02 -5.41940629e-02 +4.44432627e-03 -8.96634161e-02 -1.83828454e-02 -1.03387535e-01 +3.79277170e-02 +4.82538994e-03 -2.63988078e-02 +3.20561193e-02 +7.63394237e-02 -2.16122866e-02 -1.35438135e-02 +9.59254056e-02 -9.23176110e-02 +1.05941154e-01 +2.84391511e-02 -5.77981733e-02 +9.52445194e-02 -5.24322502e-02 +6.73635826e-02 -5.21760546e-02 +4.43613976e-02 +2.70663854e-02 +4.07178551e-02 +8.50534886e-02 -2.87590940e-02 +9.35334191e-02 +2.48531979e-02 +1.28050521e-03 +6.27048090e-02 +1.60730369e-02 -8.54179934e-02 +9.07320008e-02 -3.54422145e-02 +3.19331922e-02 -3.73174101e-02 -8.79893675e-02 -5.05925976e-02 +8.85361731e-02 -2.33796649e-02 +3.20860445e-02 +5.54044396e-02 +1.06291018e-01 -4.72548008e-02 +2.56995764e-02 -7.67718330e-02 +4.98405993e-02 +7.06677288e-02 -2.61012632e-02 +9.62719545e-02 +6.02765493e-02 +1.80544574e-02 +4.43795770e-02 -5.32920957e-02 +5.37489578e-02 +6.93585500e-02 +9.64893436e-04 -7.34543949e-02 -2.66472548e-02 +7.69926980e-02 -2.79370006e-02 -8.95061716e-02 +9.29122940e-02 +1.56732947e-02 +1.34466337e-02 -1.22325551e-02 +2.08736807e-02 -6.18151687e-02 +2.91213784e-02 -5.65536991e-02 +4.75843661e-02 -2.75264457e-02 -2.56721061e-02 +1.86358448e-02 +8.53650346e-02 -7.68796802e-02 -1.02404147e-01 +1.01467125e-01 -7.93623626e-02 +2.13765185e-02 +7.90078789e-02 +3.03997267e-02 +4.92351018e-02 -3.49926791e-04 -3.82227078e-02 +3.75860147e-02 +1.01981841e-01 -6.50325641e-02 +3.14191841e-02 -1.04427606e-01 +4.84993309e-02 +6.66818842e-02 +4.70322631e-02 +2.50528809e-02 +7.13843703e-02 +6.20611385e-03 -1.04400866e-01 -1.84256192e-02 -1.80674214e-02 -1.60598531e-02 +2.01956145e-02 +6.91602379e-02 -3.17189209e-02 -9.02558938e-02 +5.06271096e-03 -4.43950891e-02 -9.51484963e-02 -7.21117705e-02 +7.91086629e-03 -6.39230944e-03 +3.99872325e-02 -9.65300947e-02 -5.12438007e-02 +2.12566182e-02 +1.17893210e-02 +9.56091937e-03 +5.45455068e-02 +9.92606133e-02 -1.96086727e-02 -1.23176500e-02 +6.12059683e-02 +8.59172493e-02 +7.64309242e-02 -5.13580702e-02 +2.56131263e-03 +6.36574477e-02 +1.00091293e-01 -1.47691034e-02 -1.53060229e-02 -2.87002120e-02 -5.93672059e-02 -5.25278337e-02 +3.79166044e-02 +7.53590986e-02 -7.11113885e-02 +7.78580606e-02 -1.80672924e-03 -1.19631672e-02 +2.75747459e-02 +5.09867957e-03 -2.44567972e-02 +4.37497627e-03 +4.12573703e-02 -7.85686523e-02 -9.03376043e-02 -7.46489614e-02 -2.97556370e-02 +2.09761988e-02 -9.95386541e-02 -7.68934488e-02 +6.11484908e-02 +5.04590869e-02 -6.84050992e-02 +3.91566008e-03 +5.68762161e-02 +7.97055662e-02 +7.42209330e-02 -6.75624385e-02 +2.52313763e-02 -2.91356109e-02 +6.86269104e-02 +7.84819722e-02 +3.42490412e-02 +9.02495086e-02 +8.64099562e-02 +7.27073178e-02 +1.01710260e-01 +6.48954436e-02 -7.97900259e-02 +8.50875974e-02 -9.47252735e-02 +9.15538371e-02 +4.77064550e-02 +2.68218499e-02 +4.49046027e-03 +1.04296841e-01 +1.06252871e-01 +6.98651820e-02 -4.45944779e-02 -3.65513824e-02 +5.20239696e-02 +1.66615006e-02 -3.45337838e-02 -7.77831152e-02 +1.69587638e-02 +1.01198584e-01 +3.44718732e-02 +1.40517140e-02 +8.01104307e-02 +9.35287476e-02 +5.89545704e-02 -1.91275384e-02 +1.57040767e-02 +4.65827435e-02 +8.53793100e-02 +1.59268901e-02 -9.06030610e-02 -1.34133743e-02 +9.71018896e-02 -3.56659479e-02 +5.90910092e-02 +6.84113055e-02 +9.90291610e-02 -1.85986049e-02 +4.01233360e-02 -2.04618238e-02 -6.93321079e-02 +6.43768087e-02 -3.22489552e-02 -2.66365111e-02 -5.23245297e-02 +8.73756334e-02 -6.15002699e-02 -9.52474400e-02 -3.59015949e-02 -4.02885415e-02 -5.44385165e-02 -4.85931337e-02 -3.51349525e-02 -9.31314230e-02 -9.99454968e-03 +7.32825994e-02 +1.23489546e-02 -4.38705459e-02 -2.91790720e-03 -6.56951666e-02 +7.07950220e-02 +3.93443042e-03 +6.06801100e-02 +6.84217270e-03 -8.00255537e-02 -3.81497550e-03 -3.87669168e-02 +9.15221274e-02 -4.36414313e-03 +1.56041048e-02 +5.26865609e-02 +7.11791590e-02 -1.81413293e-02 +7.11483732e-02 +6.55268952e-02 +9.03280973e-02 +6.91424171e-03 -9.34863091e-02 +8.18685070e-02 -6.99272603e-02 -5.23253623e-03 +1.00831151e-01 -9.69482064e-02 +7.22067356e-02 -3.22813094e-02 -5.32438308e-02 -7.39540532e-02 +6.38349354e-02 +1.08565584e-01 +1.03666946e-01 +6.35062009e-02 -1.98427518e-03 -1.46291098e-02 -9.08572748e-02 +3.40798311e-02 -4.87558637e-03 +1.05692092e-02 -2.74488367e-02 +3.95825170e-02 -9.41521209e-03 +5.41971289e-02 -3.34136887e-03 -3.04446053e-02 -5.34065999e-02 +9.25503299e-02 +6.49843290e-02 +8.37629214e-02 -5.98052479e-02 -1.33846486e-02 -4.91694845e-02 -9.70771387e-02 -1.69561934e-02 +2.90184561e-02 +8.54319260e-02 +4.82377671e-02 -6.48679510e-02 -3.56889777e-02 +7.09938854e-02 +3.96122709e-02 +8.14109519e-02 -3.75069752e-02 +9.71126407e-02 -7.38341063e-02 +5.65890968e-02 +4.61571552e-02 -6.96809590e-02 +1.04553282e-01 +2.32201759e-02 +1.23521988e-03 +3.68218981e-02 +7.20063969e-02 -1.08052880e-01 +7.11041614e-02 +8.59163702e-02 +6.17298111e-02 -5.71522415e-02 -1.13709047e-02 +1.00072473e-01 +9.32871997e-02 +6.78907409e-02 +1.97946597e-02 -9.18883532e-02 +1.75939985e-02 +9.77412239e-03 +1.00382857e-01 +3.39685902e-02 -1.71081424e-02 +3.72471800e-03 -4.59400713e-02 -8.58333111e-02 -8.41322467e-02 +6.04399741e-02 -2.89151818e-02 -1.33592635e-02 +4.27069113e-04 +7.50815729e-03 -7.47666731e-02 +2.33973898e-02 +1.00301564e-01 +4.63317484e-02 +8.70930403e-02 +8.33233744e-02 +4.46952283e-02 -5.55425473e-02 -1.01811074e-01 -8.15947726e-02 +7.65697733e-02 +8.17552209e-02 +8.39206278e-02 -8.36590007e-02 +1.02307107e-02 +5.67298150e-03 -6.80203810e-02 +9.75119695e-02 -6.57987967e-02 -3.23245116e-02 -3.24352160e-02 +8.26979056e-02 +4.76217866e-02 -4.77831736e-02 -1.16150724e-02 -1.00444540e-01 +1.32696086e-03 -5.21506593e-02 -5.33321649e-02 -7.53684938e-02 -6.88880235e-02 -1.58421732e-02 +1.06948297e-02 -4.50988375e-02 -9.66487899e-02 -5.51843345e-02 +5.59735559e-02 +1.00020431e-01 +1.52960215e-02 +1.66654438e-02 +9.26054418e-02 +4.83314395e-02 -6.62105531e-02 -1.55232102e-02 +9.78848040e-02 +7.11026713e-02 +2.46399753e-02 +3.56234051e-02 -7.46174380e-02 -1.44746425e-02 -7.79935420e-02 +1.24508450e-02 +5.23234457e-02 +7.10174143e-02 -8.02792702e-03 -2.33478360e-02 -3.81329581e-02 +5.29486649e-02 -8.00942183e-02 +5.00542112e-02 +2.83317268e-02 +1.02334633e-01 +8.86876285e-02 +1.86166558e-02 +1.06626190e-01 -6.73146546e-02 -9.73956138e-02 -4.95096780e-02 +5.24182022e-02 -5.00605442e-02 -6.19359361e-03 -3.95961739e-02 +5.32690585e-02 +8.67380798e-02 +1.02236762e-03 +1.02187954e-01 +1.19590210e-02 -2.46130563e-02 -5.58787249e-02 -7.83723369e-02 +5.46134226e-02 -6.82737231e-02 +3.75284255e-02 -5.95983006e-02 +8.99313837e-02 -6.39095157e-02 +6.57166764e-02 +1.01276740e-01 +8.05752128e-02 -6.81833029e-02 -7.61366114e-02 -4.71548270e-03 -6.68571591e-02 -2.43417965e-03 +4.57437336e-02 +9.03865546e-02 -9.07813236e-02 -6.57633170e-02 +8.34927037e-02 -7.28148147e-02 +5.29368408e-02 -9.91299003e-02 -4.11963426e-02 +8.70136917e-02 +6.01336360e-02 +6.81737345e-03 -1.60297472e-02 +5.19664809e-02 +1.93942562e-02 -9.38434899e-02 +4.67503183e-02 +1.89350322e-02 -6.01733923e-02 -2.45639030e-02 +1.18906135e-02 -6.40775189e-02 -7.17360200e-03 +9.92870778e-02 +3.30202915e-02 +1.00830318e-02 -4.70705926e-02 -5.94833381e-02 +5.49875014e-03 +3.09495274e-02 +5.07931262e-02 -9.27437171e-02 -7.22783105e-03 +5.94786704e-02 +4.14931029e-02 +4.89856079e-02 +1.28534241e-02 -4.57703061e-02 +1.78625602e-02 -6.20026626e-02 -2.96081062e-02 +2.09180042e-02 +1.88054144e-02 -1.02811262e-01 +5.78927323e-02 -8.92146900e-02 +6.37481883e-02 -4.24406268e-02 -1.14877699e-02 -4.75544371e-02 +5.40793948e-02 +8.41251947e-03 +5.91869317e-02 -6.83889687e-02 -5.99780008e-02 -7.89534599e-02 +8.24349467e-03 +6.21406175e-02 +4.42592688e-02 -9.40252021e-02 -9.62612554e-02 -1.03320934e-01 +7.86545649e-02 +4.57832171e-03 -1.94542669e-02 +8.44887197e-02 -5.50646521e-02 -7.68409744e-02 +5.41105727e-03 -9.59646031e-02 -2.61962134e-02 -6.77527860e-02 -6.66788267e-03 -8.22348073e-02 -3.33864056e-02 +9.30772945e-02 -3.41066979e-02 -5.43587320e-02 -7.78888837e-02 +5.68965934e-02 +5.70035391e-02 +3.06023490e-02 -3.43101658e-02 -4.21283394e-02 +2.96774153e-02 -4.56539877e-02 -9.39842314e-02 +2.11576875e-02 +5.36708198e-02 -2.68796720e-02 +5.72721697e-02 +6.64256373e-03 -8.38452652e-02 +6.55379966e-02 +1.33004077e-02 -9.35328007e-03 -2.81519461e-02 +1.09773560e-03 +2.03273688e-02 -1.05818603e-02 -4.29783128e-02 +9.26456898e-02 -5.33421673e-02 +8.30726326e-02 -6.41156062e-02 +9.72202420e-02 -4.24539857e-02 +6.60906313e-03 -4.38986160e-02 +5.69149628e-02 +2.32129972e-02 -8.29470083e-02 +2.68654339e-02 -7.50695392e-02 +4.97466773e-02 +2.11752933e-02 -6.59364387e-02 +6.70622066e-02 +2.11623660e-03 +1.23136165e-02 +9.74235311e-02 -3.37802619e-02 -4.90127020e-02 -8.42871144e-02 -5.56758344e-02 -6.67078122e-02 -9.77316201e-02 +4.22683135e-02 -4.91299154e-03 -1.66088454e-02 +5.08874515e-03 -3.84144224e-02 +3.97202894e-02 -1.16536804e-02 -7.51140565e-02 +6.27802387e-02 -3.86406854e-03 +3.88707966e-02 +7.36342221e-02 -4.90640104e-02 +9.90672410e-02 +7.45819584e-02 -1.00273322e-02 -7.62483329e-02 +6.42886292e-03 -6.68163225e-02 -8.40063393e-02 -2.52343621e-02 -4.82931249e-02 -3.84462215e-02 +1.43734841e-02 +5.00949752e-03 -5.70919178e-02 -9.53791812e-02 -5.08868657e-02 +1.74624694e-03 -4.70032766e-02 -3.43104787e-02 +5.83968759e-02 -7.06241280e-02 -3.03384326e-02 -7.59020150e-02 +2.57379171e-02 +2.57438384e-02 +3.91710103e-02 +1.61055420e-02 +2.61211544e-02 +1.56869944e-02 +8.58589336e-02 -3.77803929e-02 -8.21749195e-02 -8.91563222e-02 -8.57376605e-02 +3.07398587e-02 -1.05416216e-01 -5.58997430e-02 -4.86733131e-02 -6.31666929e-02 -1.34668881e-02 +4.22370844e-02 +5.08947782e-02 +1.88801736e-02 +2.84950119e-02 -4.41455171e-02 +8.18830281e-02 +1.00090529e-03 +9.78735313e-02 -3.10356030e-03 -2.48040631e-02 +8.68740305e-02 -4.18796204e-02 +5.28268851e-02 +2.55470220e-02 +8.91681537e-02 -2.57102214e-02 +8.82043988e-02 +5.54787479e-02 -4.83021960e-02 +2.14854050e-02 -4.24879268e-02 -4.96477820e-02 +6.82714954e-02 -7.52502074e-03 +3.39245871e-02 +6.45895377e-02 +2.56960876e-02 -9.06873047e-02 -9.85016674e-02 -2.11009406e-03 +2.21243501e-02 -8.14697146e-03 +1.04668461e-01 -7.66418055e-02 -7.42020756e-02 -5.20083681e-02 +1.01704992e-01 +3.36858891e-02 +1.17244022e-02 -1.74880549e-02 -9.16364640e-02 -6.30165860e-02 +1.56036587e-02 +4.65930998e-02 -3.50968316e-02 +8.82877335e-02 +2.55856812e-02 -1.79993473e-02 -1.84612870e-02 -3.98377934e-03 +2.80673001e-02 +4.76418138e-02 -4.72892411e-02 -8.39273185e-02 +6.38811588e-02 +6.79755658e-02 +1.03015579e-01 +3.67510244e-02 +8.53966475e-02 +9.44338068e-02 +2.01051235e-02 -1.23209767e-02 -2.89154239e-02 +4.92441691e-02 +3.97039726e-02 +4.23238762e-02 -6.69782190e-03 -8.94883554e-03 +7.35627711e-02 -1.05318524e-01 -9.99526903e-02 -5.19811548e-02 +2.91794240e-02 +8.14930722e-02 -5.03003672e-02 -5.68089560e-02 -8.33047926e-02 +6.77126423e-02 +9.60227028e-02 -7.65419155e-02 +9.90227088e-02 +2.02699453e-02 -2.83353068e-02 +3.31140198e-02 -4.19758596e-02 +8.54422674e-02 -3.71195525e-02 +6.26498610e-02 -2.69657257e-03 +4.87158634e-02 +2.18365528e-02 +8.70590955e-02 -7.43263494e-03 -3.85308675e-02 -3.39634791e-02 +8.06539878e-02 -1.00224905e-01 +2.91919187e-02 -8.07518885e-02 -5.02367038e-03 +3.25604831e-03 -6.24509715e-02 -9.42012593e-02 +8.58136937e-02 +1.09605845e-02 -5.02880616e-03 -5.51326619e-03 -2.22502761e-02 +5.45059107e-02 +6.06830940e-02 -8.69409516e-02 +8.82505327e-02 +2.70156544e-02 -4.82067950e-02 +4.79657613e-02 -3.42820063e-02 +3.23606990e-02 -8.56899917e-02 -1.04758710e-01 -5.94606660e-02 +6.39512315e-02 -1.57926027e-02 -4.48674969e-02 -7.16175511e-02 -7.76541084e-02 -9.13608670e-02 +5.71143813e-02 -8.35876316e-02 +1.00636207e-01 -4.04706001e-02 +4.45598848e-02 +2.47898083e-02 -5.88336028e-02 -8.86248648e-02 -1.10149411e-02 +5.36380000e-02 +3.91588323e-02 +3.02564185e-02 -1.00058820e-02 +8.27429630e-03 +1.02735370e-01 +5.91449738e-02 +6.59454018e-02 +5.86691797e-02 +1.16303153e-02 +5.12256809e-02 +3.18409912e-02 +4.11541909e-02 -1.06072456e-01 +5.34339398e-02 +4.74172365e-03 +9.78368707e-03 -3.31386328e-02 -3.79570164e-02 -6.64793774e-02 +8.43790844e-02 +3.62324044e-02 +5.89478128e-02 -5.31757846e-02 +8.21201876e-02 +3.21560837e-02 -3.99993323e-02 -7.20511004e-02 +8.14158618e-02 +3.71508412e-02 +4.30549346e-02 -9.69941914e-02 +6.57985136e-02 +9.56750512e-02 -1.73746217e-02 +5.81850037e-02 -6.38374165e-02 +8.72575790e-02 +3.37545224e-03 -5.10857031e-02 -9.43833441e-02 +3.29480916e-02 -1.02365158e-01 -9.91397277e-02 -3.81021351e-02 -1.02909766e-01 -4.50631417e-03 +8.61628503e-02 -8.66987854e-02 -4.13617529e-02 +5.57393916e-02 -8.67129341e-02 -6.92278594e-02 +7.39296377e-02 +1.00131474e-01 +2.91033033e-02 +6.45244941e-02 +2.42020003e-02 -3.10219638e-02 +1.05906613e-01 -2.59758737e-02 -1.06922410e-01 -6.76702410e-02 -6.96884766e-02 -2.30638422e-02 +6.88223317e-02 -1.06936812e-01 +4.21679206e-02 +5.27206250e-02 +3.24918553e-02 +5.53609105e-03 +5.20100668e-02 -9.41644907e-02 +7.74861276e-02 +5.01755700e-02 +2.09641643e-02 -7.17228204e-02 +8.93847048e-02 +8.61746669e-02 -5.95026910e-02 +5.11891618e-02 +3.21315899e-02 -6.53569251e-02 +6.02889992e-02 +6.90528750e-02 -7.90833756e-02 +6.80704564e-02 +3.47466059e-02 -3.99117693e-02 +6.33418635e-02 -2.05768016e-03 +1.59911420e-02 +7.95743987e-02 +6.42299745e-03 -7.63194039e-02 -5.05523644e-02 +1.05311871e-01 +1.01577513e-01 -8.37804675e-02 +8.56411532e-02 +3.57295410e-03 +1.81445964e-02 +6.70845136e-02 +3.61526161e-02 +6.68726116e-02 -2.15807576e-02 +6.97858408e-02 +1.06088556e-01 -2.15016492e-02 +2.08852291e-02 +9.80966985e-02 +1.04807042e-01 +9.78650376e-02 -5.08891717e-02 -8.85463804e-02 +7.06895739e-02 -3.11790835e-02 +8.17772150e-02 +4.84694690e-02 +4.45969626e-02 +1.82941016e-02 -7.31735677e-02 +1.30866291e-02 +7.28971884e-02 +6.05853908e-02 -8.26143250e-02 -3.21952477e-02 -1.83945720e-03 -1.02935277e-01 +9.86420549e-03 +1.85784288e-02 +9.00782421e-02 -3.43494415e-02 +2.67883912e-02 -7.48691186e-02 +8.17956701e-02 -5.08772358e-02 +8.02612528e-02 -8.59098695e-03 +8.32337537e-04 +7.99387544e-02 +4.73258533e-02 +3.23602520e-02 +6.21138923e-02 +9.94652733e-02 +4.37643155e-02 -4.77844803e-03 +3.09218951e-02 +5.26002347e-02 +3.98172438e-02 -5.00133298e-02 +4.10538949e-02 +8.57833549e-02 -4.20250446e-02 +3.45327817e-02 -4.49598171e-02 -4.28253375e-02 +4.48229536e-02 +4.56379019e-02 +2.38008574e-02 +3.98375653e-02 +5.99487238e-02 -4.48627882e-02 -1.06169004e-02 -8.78110826e-02 +6.68536350e-02 +1.76932700e-02 -3.02157067e-02 -2.82233302e-02 -6.39777407e-02 -7.04090819e-02 +1.78180877e-02 -4.37513087e-03 +6.42354712e-02 +2.23033782e-02 -8.93816426e-02 -3.92329730e-02 -1.70299299e-02 -3.23306359e-02 +5.51985689e-02 +7.85340741e-02 -8.61329213e-02 -6.90484419e-02 -8.12795237e-02 -1.56991556e-02 -1.03345796e-01 -7.88985416e-02 -7.90040568e-02 -5.37749566e-02 -1.05895482e-01 -6.28589988e-02 -8.93839896e-02 -5.82304783e-02 -9.81454551e-02 -1.48977460e-02 -1.29205370e-02 +8.20568949e-02 -9.80343297e-02 -2.95038112e-02 -1.02308944e-01 +1.55768739e-02 +9.24294069e-02 +2.53631026e-02 -5.10397665e-02 +3.49981263e-02 +4.70959693e-02 -7.27029890e-02 -1.24477921e-02 +5.02771586e-02 -2.94859614e-02 +7.99680594e-03 -3.35013047e-02 +8.42651259e-03 -2.17154133e-03 +1.81139205e-02 -9.75083783e-02 +1.03896841e-01 -7.80610591e-02 +6.72182664e-02 -8.19595829e-02 +3.09472866e-02 -1.03611397e-02 +1.02806300e-01 -5.96846901e-02 +7.77790928e-03 -6.30263537e-02 +2.28256434e-02 -6.34419620e-02 -1.70127917e-02 -5.84626906e-02 +4.30910196e-03 +4.05692756e-02 -1.06172793e-01 -7.28559494e-02 -1.57540087e-02 +1.04457729e-01 +9.90197659e-02 -4.90605794e-02 -5.73218092e-02 -1.69622392e-04 -5.35258539e-02 -8.48350972e-02 +9.35174972e-02 -3.10173556e-02 -6.76596211e-03 -1.46606779e-02 -8.80362913e-02 -8.21459517e-02 -8.64247419e-03 -3.46764773e-02 +9.98103023e-02 +2.44745500e-02 -8.40127915e-02 +8.98945183e-02 -9.76662412e-02 +5.10578230e-02 +5.18740639e-02 +1.93912406e-02 -5.57167307e-02 +2.26533134e-02 +9.96248145e-03 +1.01456223e-02 +2.99234465e-02 +2.83844210e-02 +5.16131707e-02 +6.21853806e-02 -2.87066121e-02 +1.66276097e-02 -6.35725260e-02 -2.59723235e-02 -5.94799332e-02 -4.20321003e-02 -2.44159065e-02 +2.51271483e-02 +3.17398161e-02 -5.83615899e-03 +4.08664905e-02 -1.41443703e-02 -6.39349297e-02 -6.32491112e-02 -1.01800472e-01 -5.35497069e-02 +5.64686954e-02 +4.06079628e-02 -7.85630345e-02 -1.03266612e-01 -7.97984749e-02 -6.04918003e-02 +8.02887455e-02 +9.58893299e-02 -1.38729915e-03 -7.53146857e-02 -6.11639321e-02 +8.88577625e-02 +4.94756252e-02 +8.23973585e-03 +5.98305687e-02 -1.06510386e-01 +1.03406362e-01 -1.04686841e-01 -1.00131994e-02 +6.04134873e-02 -1.01963736e-01 +1.05204776e-01 +9.69005935e-03 -9.81448293e-02 +4.98471446e-02 +2.78150942e-02 -7.15118647e-02 -7.38893449e-02 +6.18502349e-02 +8.77615660e-02 -2.82265097e-02 +1.59622096e-02 +8.38080570e-02 +9.14760157e-02 +3.57181616e-02 -5.32865226e-02 +8.79332870e-02 -8.69006440e-02 -3.11483573e-02 -8.50571916e-02 +9.29032173e-03 +8.29056948e-02 +4.09938432e-02 +5.35942242e-02 -6.53380379e-02 +9.34531763e-02 +4.78746109e-02 -2.81636138e-02 +5.50074056e-02 +2.83830557e-02 -5.66242151e-02 -7.54042044e-02 -3.81904468e-02 -7.15501159e-02 +2.44665463e-02 -8.98943916e-02 -1.52358171e-02 +8.56623650e-02 -5.29713482e-02 +9.07650068e-02 +3.36196460e-02 +9.92854685e-02 -8.08510706e-02 -9.05897468e-02 +2.72292923e-02 -3.32693383e-02 +6.70599267e-02 +3.34329084e-02 +2.18043867e-02 -1.06352180e-01 +1.01381876e-01 -8.37334059e-03 -1.01309814e-01 -5.84277809e-02 -5.60522713e-02 +2.42182408e-02 -5.37143573e-02 +4.04423513e-02 -3.58483605e-02 -3.73995788e-02 +5.44358343e-02 -9.96809378e-02 -2.26980150e-02 +9.35333669e-02 +2.60700770e-02 +7.44443678e-04 +1.96872223e-02 -2.65434571e-02 +1.92565918e-02 +3.64201181e-02 -1.02778926e-01 +8.38439241e-02 +9.58523601e-02 -9.92973447e-02 +4.82373051e-02 -8.74653161e-02 +1.84311960e-02 -9.41948518e-02 +9.39896107e-02 +4.31485660e-02 +1.01618785e-02 +9.13901627e-02 -1.04050329e-02 -9.10026878e-02 -5.75198010e-02 -3.37101296e-02 -9.26426575e-02 +7.28024766e-02 -9.14207101e-02 +2.51386650e-02 +9.96368527e-02 -7.22746402e-02 -4.65107784e-02 +7.03816861e-02 -6.95216134e-02 -5.81003018e-02 +9.09705758e-02 +5.67231029e-02 -4.84008938e-02 -5.09889200e-02 -8.13095048e-02 -8.58256444e-02 -1.92046277e-02 -9.08631161e-02 -4.27566431e-02 +1.02691412e-01 +8.49992186e-02 +7.97132552e-02 -6.80848509e-02 +1.37276482e-03 +2.76608095e-02 -3.31881791e-02 -6.30219951e-02 -3.47678810e-02 -1.78826544e-02 -9.15441439e-02 +2.96188556e-02 -4.74317931e-02 -2.26237476e-02 +4.52616392e-03 +1.29451286e-02 +4.74561192e-02 +9.87608656e-02 -6.87960759e-02 +1.01654835e-01 -3.17467353e-03 +3.71141322e-02 -9.05647129e-02 -5.28476648e-02 -8.33005682e-02 +9.23539046e-03 -3.73758711e-02 -4.98694368e-02 +2.83381902e-02 +8.07288364e-02 -6.91021755e-02 +2.77807433e-02 +4.78755645e-02 +1.01284720e-01 +3.67748402e-02 +1.00296602e-01 +1.26722092e-02 +4.14881259e-02 +3.35468650e-02 +2.92464271e-02 -2.06037574e-02 +5.04862808e-04 -2.42998693e-02 +8.33828151e-02 +4.65860143e-02 +9.24750343e-02 -6.95732459e-02 +7.69179165e-02 -2.98296288e-02 +9.97324288e-03 -8.63092616e-02 -5.50970994e-02 -2.51241643e-02 -1.04605384e-01 +9.37961191e-02 -6.95245862e-02 +6.24426529e-02 -1.21512171e-02 -2.58952007e-03 -3.38036418e-02 +8.69746655e-02 -9.16324481e-02 +2.70552244e-02 -8.15775394e-02 +4.51106429e-02 +1.03949338e-01 +7.19986111e-02 -9.68891755e-02 -8.58359411e-02 -4.54726815e-02 +1.05445959e-01 -5.89038283e-02 -1.96150336e-02 -9.14421678e-02 +7.74509162e-02 -9.31410566e-02 -8.84767696e-02 +8.62128139e-02 -2.98148114e-02 -3.26898992e-02 -1.42062865e-02 +7.23316297e-02 -6.79910406e-02 +8.56595114e-02 +7.53282756e-02 -8.22417140e-02 -1.11037400e-02 +9.21067148e-02 -8.47100094e-02 +7.86988661e-02 -8.36268291e-02 +7.68188387e-02 -1.06350765e-01 -2.97227595e-02 +5.68679161e-02 -2.86310725e-02 -7.13635385e-02 +9.68176574e-02 -1.04796529e-01 -3.42598595e-02 +8.27095062e-02 +4.01155651e-03 -5.04320227e-02 -4.89881225e-02 +2.95546800e-02 -2.53385790e-02 -1.03190966e-01 +7.95364603e-02 -5.77651411e-02 +1.65247191e-02 -8.32261965e-02 +9.33389813e-02 -5.42171150e-02 -1.55727379e-02 -9.87895057e-02 -1.06906138e-01 -1.89053379e-02 +5.43825775e-02 +3.40935066e-02 -1.70364957e-02 +2.03832183e-02 +9.96694416e-02 -7.29996525e-03 +6.98174462e-02 -7.47772604e-02 +4.04525585e-02 +3.35421450e-02 +4.17623622e-03 +4.91445623e-02 -3.84967476e-02 -4.41785296e-03 -2.37121582e-02 +3.86316292e-02 -8.95275176e-02 -2.07293499e-02 +7.33918473e-02 +1.81801580e-02 -1.01510182e-01 -3.70454490e-02 +8.20806324e-02 -6.36077896e-02 -3.51464488e-02 -8.51814225e-02 -4.75243889e-02 +5.91913462e-02 +2.04109419e-02 +9.94595811e-02 +4.26767208e-02 +7.45850205e-02 +9.38146487e-02 -2.19147876e-02 +8.91167670e-02 +3.39334644e-02 -7.91377015e-03 +2.89350282e-02 -8.72179195e-02 +6.55617416e-02 -7.58636966e-02 +8.50301515e-03 +9.64973792e-02 -9.91449282e-02 -8.57419074e-02 +1.04925171e-01 -2.46216599e-02 +3.19453888e-02 -2.94177458e-02 -9.56030861e-02 +2.34089624e-02 -8.74364674e-02 +2.70489622e-02 -8.44250619e-02 -1.13466093e-02 +2.47194506e-02 -3.00075747e-02 -9.79009122e-02 +1.03414990e-02 +9.99822393e-02 +7.21054077e-02 -2.04853527e-03 -1.91939231e-02 +3.44224125e-02 +7.31597245e-02 -3.60809490e-02 -9.67418700e-02 +3.26690897e-02 +1.26479790e-02 +6.73666596e-02 -9.65924263e-02 +6.85219392e-02 -6.36498109e-02 -1.90788601e-02 -6.05251715e-02 -7.93363079e-02 -2.03686561e-02 +9.08643752e-02 -2.73700114e-02 +3.51100340e-02 +7.51345903e-02 +1.02338389e-01 +5.36316782e-02 +5.86282685e-02 -2.01236755e-02 +4.72616358e-03 -1.59180872e-02 -5.53636532e-03 -5.49892858e-02 +4.19338979e-02 +7.28710964e-02 +2.57279836e-02 +8.19535255e-02 +4.08464335e-02 -7.19312951e-02 -3.92710604e-02 +8.41192454e-02 -9.78627354e-02 +2.40651518e-02 +2.61440147e-02 -4.08151150e-02 +3.88339907e-02 +9.57677290e-02 -2.45815367e-02 +3.03595010e-02 +8.25954899e-02 +4.41488437e-03 -2.43328586e-02 -2.46938188e-02 +5.60620204e-02 +3.43277343e-02 +5.84890842e-02 +9.12558213e-02 -5.63986637e-02 +1.76830143e-02 +4.40611616e-02 +4.17260975e-02 -2.87742056e-02 +8.93550888e-02 -8.09671879e-02 -9.52782780e-02 -9.49716717e-02 +7.49131590e-02 +6.47403300e-02 +1.02263898e-01 -1.10652521e-02 +3.48406881e-02 +9.43611711e-02 +5.26128747e-02 -1.06913485e-01 +2.14620531e-02 +3.54578272e-02 -8.89956057e-02 +7.37519041e-02 -9.86146852e-02 +4.16893996e-02 -7.26585761e-02 -7.36862868e-02 +6.40332252e-02 +8.58222172e-02 -6.30702376e-02 -1.05609909e-01 -4.29388834e-03 +9.57330540e-02 +8.23522061e-02 -8.65522102e-02 -3.14774476e-02 -6.09432049e-02 +4.50777709e-02 -7.30190277e-02 +5.41778840e-02 +3.68196964e-02 +6.40193895e-02 +6.87327534e-02 +8.46921057e-02 -8.82131904e-02 +8.55165198e-02 -9.13796574e-03 +1.83558594e-02 -4.76022810e-02 -1.19703449e-02 -5.80893233e-02 -1.82608906e-02 -2.96496302e-02 +1.25041222e-02 -1.03967845e-01 +2.51768343e-02 -6.56331778e-02 +7.86710456e-02 -7.68259391e-02 -2.11312976e-02 -8.54154006e-02 +3.03193070e-02 +8.66599157e-02 +9.48472023e-02 +5.07864580e-02 +2.68457141e-02 -4.10590507e-02 -1.02977216e-01 +1.15514193e-02 +9.53478459e-03 -5.27091399e-02 +7.58417696e-02 +4.36225682e-02 +9.69739109e-02 -4.40491475e-02 -4.46689129e-02 +8.98554623e-02 +8.50742534e-02 +5.48952706e-02 +1.04373507e-01 +3.04553416e-02 -5.83104827e-02 -3.06112580e-02 -2.08984921e-03 -7.23888353e-02 +5.39275445e-02 -6.66498840e-02 +2.21959362e-03 +4.27785330e-02 -1.28870197e-02 +5.67254387e-02 -1.28142978e-03 -3.89439203e-02 +6.52885735e-02 -9.33931693e-02 -4.29582745e-02 -1.00694999e-01 +8.84922445e-02 -8.17204341e-02 -3.43669280e-02 +1.80466846e-02 +3.37660909e-02 +3.19401212e-02 -1.50516480e-02 +5.73709942e-02 -6.34016916e-02 +7.99095631e-02 -6.87599555e-02 -2.17989031e-02 +7.44957626e-02 -1.64233008e-03 -9.70047936e-02 -7.96383023e-02 -7.11178333e-02 +9.24645215e-02 -1.82526149e-02 -2.79173292e-02 -4.01060432e-02 +3.49328071e-02 +6.64651319e-02 -3.37399282e-02 +5.71775362e-02 -2.72170510e-02 +1.16836494e-02 -7.35442201e-03 +7.84479734e-03 +4.39217202e-02 -4.37884405e-02 -8.98057688e-03 +8.56370553e-02 +1.50418710e-02 +1.50223114e-02 -6.76418394e-02 +1.07126888e-02 -6.71264902e-02 +1.68205015e-02 -8.79217163e-02 +1.04498044e-01 +9.26678404e-02 -4.12615240e-02 +3.35793644e-02 +1.30956955e-02 +2.28829309e-02 +8.82743150e-02 +1.06773570e-01 -9.88156423e-02 +4.83348127e-03 -3.04810256e-02 +5.83616830e-02 -6.93709850e-02 +3.69227715e-02 -2.26971526e-02 -4.19684984e-02 +3.83193158e-02 -1.79783944e-02 -4.26687747e-02 +7.02321250e-03 +1.21314917e-02 +7.68775046e-02 +3.82223763e-02 +1.14106379e-01 -1.17589878e-02 -2.25384478e-02 +7.34309778e-02 -9.00123045e-02 -8.02093074e-02 -4.25914302e-02 -6.51787743e-02 +2.35764161e-02 +6.25715479e-02 +7.27736279e-02 -6.25612587e-02 -6.95521459e-02 +2.82327365e-02 +6.57123625e-02 +1.04309075e-01 +9.03486386e-02 +7.45984539e-02 +5.17823920e-02 -4.59690578e-03 +2.52486449e-02 -4.18012589e-02 +8.01245496e-02 +1.06528290e-01 +1.81585569e-02 -6.73298091e-02 -9.46417749e-02 +2.03128364e-02 -1.36670452e-02 -6.71193972e-02 -1.01756684e-01 -1.08701803e-01 -3.22426967e-02 +5.07543795e-02 +8.68751109e-02 +3.95371132e-02 -8.39130729e-02 +5.32509312e-02 -9.20177400e-02 -9.59910676e-02 +7.07091987e-02 +5.97916218e-03 +1.93460062e-02 +9.63019282e-02 +1.03653120e-02 +5.56472354e-02 +7.69409239e-02 -8.01900625e-02 +3.26572806e-02 +6.11634031e-02 +3.39762941e-02 -7.64863566e-02 +8.15402530e-03 -6.62864000e-02 -2.25229487e-02 -2.27207933e-02 +3.77781019e-02 +6.41201138e-02 +8.08247328e-02 -8.29746500e-02 +3.71401571e-03 -4.90390733e-02 +9.05060470e-02 -8.75186175e-02 -3.25340554e-02 +7.27258027e-02 +9.16764885e-02 +4.24685292e-02 +8.90281349e-02 -9.10828710e-02 -1.00105360e-01 -3.79718617e-02 -9.47974995e-02 -9.49007347e-02 +9.83251482e-02 -4.58339900e-02 +8.18320364e-02 +2.83844378e-02 -2.74281278e-02 +5.76043166e-02 +6.12723976e-02 -5.56497164e-02 +3.85567211e-02 +1.35312025e-02 -6.83927834e-02 -5.76581135e-02 -8.73630494e-02 -4.45313379e-02 -2.55378336e-02 +6.50457740e-02 -4.55189124e-03 -7.06938580e-02 +2.41428670e-02 -3.44208628e-02 -8.63615517e-03 -3.21267396e-02 -7.30258226e-02 -1.48895439e-02 -1.87840685e-02 +4.45883609e-02 -9.43180993e-02 -2.78415196e-02 +6.55370113e-03 +5.82835004e-02 +3.34452726e-02 +1.66210905e-02 +6.10421151e-02 +2.40497030e-02 -3.94058153e-02 +2.66137682e-02 -9.58797857e-02 -9.03896242e-02 -2.22885665e-02 +9.44996253e-02 +5.14610410e-02 -8.61081704e-02 +3.59959006e-02 +7.85387531e-02 +7.80546740e-02 +2.95086280e-02 +8.85792971e-02 -2.16095410e-02 -4.84046340e-02 +1.02835469e-01 -4.71403599e-02 -4.31929417e-02 -3.53950933e-02 -1.02296799e-01 +1.03657030e-01 +2.62270793e-02 -6.65602461e-02 -2.99974829e-02 -4.38009053e-02 -3.15530673e-02 +4.28627580e-02 +1.20333824e-02 -5.02004772e-02 -2.68889666e-02 +6.53110221e-02 -1.65424924e-02 -2.02630498e-02 -1.36607308e-02 +1.88091788e-02 +5.27931787e-02 +2.90040076e-02 -4.84138280e-02 +9.03191119e-02 +5.60397990e-02 +9.56165120e-02 +7.92127326e-02 +9.94752869e-02 +5.67839406e-02 +1.01020753e-01 +2.40623895e-02 +2.09904294e-02 -3.38483006e-02 +6.68702200e-02 -3.89078520e-02 -2.38485802e-02 -7.88420886e-02 +7.68198222e-02 +5.45350276e-02 -7.24061057e-02 -5.16295023e-02 -5.46709634e-02 +5.29660992e-02 -4.28398252e-02 +6.32215515e-02 +1.02226071e-01 +3.07861790e-02 -3.35617107e-03 -1.37769654e-02 -6.74682558e-02 -9.94736403e-02 +9.66230929e-02 +1.55478260e-02 +8.32273290e-02 -7.65270889e-02 +5.22738583e-02 -7.05568492e-02 -8.70059207e-02 -2.59869844e-02 +5.36394604e-02 +9.66536179e-02 +2.88091581e-02 +2.31317021e-02 +4.40464839e-02 -2.74263769e-02 +1.37550496e-02 +2.22884975e-02 +1.02189481e-02 -4.63137478e-02 -1.75788589e-02 -8.00232440e-02 -1.06511772e-01 -5.75353913e-02 -9.82140750e-02 -8.41173306e-02 +5.82613237e-02 +3.09009738e-02 +3.35255079e-02 -7.85117745e-02 -4.93047051e-02 +7.83463046e-02 +2.75969096e-02 +9.90436599e-02 +3.17076966e-03 -1.03637397e-01 +1.21954503e-02 +8.06384906e-03 -9.95331928e-02 +6.58143684e-02 +8.96296799e-02 -9.11817029e-02 +3.50350887e-02 -7.33021870e-02 +1.09327761e-02 +9.74921435e-02 -4.96088974e-02 -2.39765383e-02 +9.78207886e-02 +6.25923350e-02 +1.80298816e-02 -8.67752805e-02 +1.05362967e-01 -6.70542568e-02 -1.02710761e-01 -4.34130877e-02 +2.24155821e-02 -6.13806807e-02 -7.70143345e-02 -7.62008652e-02 +4.27034274e-02 -6.77272528e-02 -3.99310775e-02 +3.27369682e-02 +2.96314582e-02 -9.41352546e-02 -5.34737818e-02 -6.46276772e-02 -1.01346247e-01 +4.08387743e-02 +2.22571194e-02 -8.16662535e-02 -2.19643451e-02 +3.36431265e-02 +7.15995058e-02 +7.14439750e-02 -5.19009233e-02 +1.68753807e-02 -3.76612693e-03 -5.18766865e-02 -7.63216913e-02 +4.15122434e-02 +6.83071017e-02 +6.21497184e-02 +5.74078858e-02 +2.84315664e-02 +5.11538871e-02 -1.79625284e-02 +4.73057665e-02 -9.84399021e-02 +3.69472876e-02 -1.20835947e-02 -8.70856866e-02 -9.43712518e-02 -1.00661725e-01 +3.49465907e-02 +9.42588449e-02 +6.34004781e-03 +2.77706571e-02 +4.19694707e-02 -9.69380811e-02 +5.83683737e-02 +7.00193495e-02 +4.94304188e-02 -1.56718830e-03 -6.31471053e-02 +4.98922952e-02 +5.47920503e-02 +6.23051077e-02 +3.30679342e-02 +6.64753243e-02 +9.60809141e-02 +1.01185478e-01 -7.76296929e-02 +3.36539298e-02 +6.98462129e-02 -8.08025002e-02 +8.94401297e-02 -5.55133820e-02 +6.38030395e-02 +5.75785711e-03 -9.29591954e-02 -2.54887086e-03 -8.86888802e-02 -4.00873981e-02 +2.04334431e-03 -3.88412438e-02 -8.26086402e-02 -3.89537401e-02 +8.38563517e-02 +9.34483632e-02 +1.05984189e-01 -2.02241614e-02 +8.68314579e-02 +6.48832098e-02 +1.07115813e-01 -4.38281074e-02 +3.51111405e-02 -9.19772461e-02 +2.73117628e-02 -6.26166463e-02 -5.66416048e-02 -9.42594558e-02 -3.92138306e-03 +9.41219777e-02 +8.24545473e-02 -6.29575774e-02 +8.60001147e-02 -2.56213155e-02 -6.74549490e-04 +8.50366354e-02 -1.04750171e-02 +3.34051624e-03 +6.25119433e-02 +3.76420766e-02 +1.62217524e-02 +6.60728067e-02 -4.42492142e-02 +9.19630900e-02 -2.40671057e-02 -1.35378344e-02 -2.41334680e-02 +1.07375234e-01 -3.35481614e-02 -2.81354114e-02 +2.10250970e-02 +8.90135020e-02 +6.49339333e-02 -6.86880667e-04 -3.76480371e-02 +2.56426465e-02 -8.19167122e-02 -5.06538190e-02 +4.52889763e-02 -3.07427663e-02 +4.19594049e-02 -5.53421453e-02 +8.18191245e-02 +4.98760454e-02 +4.48736735e-02 -8.97443015e-03 -7.28811547e-02 -3.76419052e-02 -6.22560382e-02 -3.18329260e-02 -1.17382128e-02 +2.17911843e-02 +6.59490302e-02 -8.66307989e-02 +1.03232749e-01 -9.62381437e-02 +2.65786983e-02 -7.02605173e-02 +5.70294745e-02 -7.76288882e-02 -1.78474542e-02 -6.91693276e-02 -6.38746016e-04 -9.87996906e-02 -9.94497910e-02 -1.01820424e-01 -3.15688401e-02 -8.91522989e-02 -8.67657065e-02 -4.85298596e-02 +2.20203139e-02 -5.62743954e-02 +1.02188759e-01 +1.11663085e-03 -8.42142198e-03 +6.93223029e-02 +1.11125587e-02 -7.37769296e-05 -9.07023698e-02 -2.77017727e-02 -4.35817353e-02 -7.07761720e-02 +8.98661688e-02 +1.67902708e-02 -9.34027508e-03 +6.35890365e-02 -2.61507258e-02 +8.08958784e-02 -8.88864174e-02 -2.82732230e-02 +3.33422199e-02 +9.54987407e-02 +8.09439516e-04 +4.30038273e-02 +5.40503226e-02 +6.10094555e-02 -5.78308925e-02 -7.28106722e-02 -9.42874327e-03 +2.95345038e-02 +4.35383990e-02 +3.73398215e-02 -4.77838330e-02 -4.55946848e-02 -4.71793255e-03 -9.07519385e-02 +1.39615275e-02 -3.45441848e-02 -3.84988599e-02 +5.67773469e-02 -4.59170416e-02 -2.92930566e-02 +2.22113281e-02 -2.17342395e-02 +8.11146498e-02 +1.61137283e-02 -9.86479074e-02 -7.77805448e-02 -8.14908221e-02 -3.14131379e-02 -4.66733314e-02 -7.98339099e-02 +1.75957084e-02 -5.72751500e-02 -9.82198343e-02 +9.48615000e-02 -9.45550576e-03 +6.67477623e-02 +1.64242201e-02 -3.61065753e-02 +2.92895045e-02 -5.28173745e-02 +7.68698081e-02 -3.08170822e-02 +2.19900273e-02 +7.12912008e-02 +2.78312596e-03 +5.11410795e-02 -9.66981649e-02 +3.34972516e-02 +3.02370824e-02 +3.52099654e-03 +2.78051458e-02 +6.08920902e-02 -1.01512350e-01 +1.06547527e-01 +6.50314018e-02 -9.92914587e-02 +2.82496363e-02 +1.06770650e-01 +9.97757539e-02 -6.62881657e-02 +7.85344653e-03 -1.10210013e-02 -6.25651926e-02 +9.39198062e-02 -6.78142980e-02 -1.60700325e-02 -7.35283643e-02 +8.12647119e-02 -9.43264291e-02 +1.06590211e-01 -3.65021005e-02 -7.94120431e-02 -2.33158469e-02 +5.20612858e-03 +1.04250439e-01 -6.86871484e-02 -6.68872669e-02 +1.04837552e-01 +4.73662280e-02 -1.03232652e-01 +7.01752752e-02 +5.24569638e-02 +1.01470863e-02 -5.15377633e-02 +9.14368778e-03 +9.92935449e-02 -1.47221740e-02 +3.12813767e-03 +4.55567800e-02 -5.52698486e-02 -1.03394732e-01 -8.03489164e-02 -8.28964487e-02 -1.87706519e-02 +8.82278383e-02 +4.07359190e-02 -3.10410131e-02 +1.08091021e-02 +8.30386952e-02 +6.97978213e-02 -5.27005531e-02 -5.04049584e-02 -3.55899222e-02 -8.30975845e-02 -8.74627382e-02 +5.53679913e-02 -1.53717841e-03 +6.38947636e-02 -6.87465305e-04 -8.77401680e-02 +8.08207020e-02 -5.72016872e-02 +4.14325520e-02 +1.04112476e-01 +3.83292362e-02 +9.43393856e-02 -1.01627953e-01 -4.30602245e-02 -5.75891370e-03 -3.18255350e-02 -4.53872904e-02 -6.65167198e-02 +7.97361508e-02 +1.05777122e-01 -2.77053025e-02 +8.08541998e-02 -9.64915678e-02 +8.65068566e-03 -1.14700682e-02 +3.42093036e-02 +5.24056032e-02 -6.76303506e-02 +3.58702578e-02 +5.43559194e-02 +5.97636402e-02 +4.09429856e-02 +4.97879907e-02 +8.60708952e-02 -7.28861149e-03 -6.59224093e-02 +1.02523781e-01 -3.56138237e-02 +9.71065983e-02 -5.14207184e-02 -9.95635018e-02 +7.34403208e-02 -3.47713269e-02 +1.05157897e-01 +1.03064790e-01 -7.71074668e-02 -4.32705246e-02 +1.05882503e-01 +7.79075315e-03 +3.68965454e-02 -1.73106659e-02 -1.03115290e-02 -6.44390360e-02 -9.90688428e-02 +2.05526743e-02 -1.59202125e-02 -1.73312463e-02 +4.28581610e-02 -4.31247812e-04 -1.04109913e-01 +4.15583067e-02 +9.02690291e-02 +5.87217249e-02 -9.56416652e-02 -2.32067034e-02 +4.47610058e-02 +5.92873730e-02 -4.52832021e-02 -7.56380484e-02 -6.32335693e-02 +5.52608557e-02 -4.22684625e-02 +7.98099637e-02 -1.66367367e-02 -1.11357700e-02 -4.47083451e-02 +1.29484078e-02 -3.60737070e-02 -5.14987074e-02 -9.70823690e-02 -7.94434454e-03 +6.62287697e-02 -6.02517975e-03 -8.11182857e-02 -2.97376756e-02 -4.71982621e-02 +7.95267969e-02 -8.82185549e-02 -3.11260764e-02 -7.96768591e-02 +2.00172924e-02 -7.97032639e-02 -7.04863220e-02 +6.38954062e-03 +4.52416204e-02 +8.43689665e-02 -3.88326123e-02 -6.51524365e-02 -3.60291451e-02 +2.58809980e-02 +1.05493471e-01 +1.42420260e-02 +1.85173973e-02 -6.24662340e-02 -3.76414098e-02 -4.67566215e-02 -8.50952566e-02 -6.17512725e-02 +4.29197960e-02 +4.64803204e-02 -1.85902137e-02 +1.16569567e-02 +5.27763925e-02 -1.08340485e-02 -8.89187306e-02 +6.49208277e-02 +9.13234502e-02 -2.02656128e-02 -3.18163931e-02 -8.34968910e-02 -9.51618794e-03 +3.34662311e-02 -4.20812964e-02 +7.88347125e-02 -2.44917870e-02 -5.43278083e-02 +3.40540806e-04 -1.73761584e-02 +3.10534965e-02 -7.95058608e-02 +1.04902852e-02 +6.92576170e-02 +8.06337371e-02 +5.56250140e-02 +5.62518872e-02 +2.56404206e-02 -8.84943530e-02 -1.62710808e-02 -8.69402960e-02 -7.05117956e-02 -1.02726638e-01 -4.81828451e-02 -5.04033528e-02 +3.70299853e-02 -6.14482351e-02 +7.70431161e-02 +1.21093197e-02 -1.33109745e-02 -8.80676210e-02 +3.00071295e-02 -9.85782687e-03 -1.01220056e-01 -7.03734756e-02 +1.26534980e-02 -2.45764852e-03 +8.98000523e-02 -1.12427780e-02 -9.43242162e-02 -9.14306045e-02 +1.00662328e-01 -3.43702249e-02 -5.51337413e-02 +2.54928023e-02 -3.36134769e-02 -6.31903782e-02 +6.68971986e-02 -1.25091868e-02 -4.67627533e-02 -4.75517102e-02 +1.94728561e-02 -9.01932195e-02 +1.00210555e-01 +5.68247847e-02 -2.67715305e-02 +7.55836368e-02 -8.61942023e-02 +6.66940063e-02 +9.90831628e-02 -1.70846600e-02 +2.96276398e-02 -1.01408355e-01 -6.43060282e-02 +2.37058476e-02 +1.01211399e-01 +2.03277711e-02 -8.09054151e-02 +2.55353819e-03 +8.73619467e-02 -8.39989632e-02 +3.62788774e-02 +7.68817440e-02 +4.17102464e-02 +9.67463106e-03 +2.31650844e-02 +8.91797128e-04 -5.69505803e-02 +5.19264825e-02 +3.53625603e-02 +5.50605729e-02 +1.87248755e-02 +9.49104130e-02 +2.32353080e-02 -2.42952369e-02 +5.80981225e-02 +5.30150346e-02 -8.49155039e-02 -6.62391484e-02 +7.67519027e-02 -2.83144377e-02 +2.52819434e-02 +9.18025225e-02 +2.98066083e-02 -7.67880231e-02 +6.23771250e-02 -9.85712931e-03 +7.97058567e-02 -7.78043866e-02 -1.03613818e-02 -6.37665465e-02 -1.43828746e-02 +5.03401570e-02 -1.53813157e-02 -9.83647481e-02 +6.89477697e-02 +5.73327802e-02 -2.59319935e-02 +1.39035555e-02 -5.80437034e-02 +7.52012581e-02 -8.43199864e-02 -9.55901667e-02 -7.19941407e-02 -1.06839702e-01 +2.21689288e-02 +8.80624950e-02 +8.51922408e-02 +6.50387332e-02 -7.02449083e-02 -7.37665892e-02 -9.35488194e-02 -7.27661103e-02 -1.04733273e-01 +4.79295366e-02 +1.04429975e-01 -9.19023007e-02 +8.70443657e-02 +1.98112279e-02 -9.03995559e-02 -9.00501311e-02 +6.39965981e-02 -4.10766667e-03 -5.20317629e-02 -2.40146462e-02 -1.83810182e-02 +4.83535081e-02 +5.01982458e-02 -6.94579035e-02 -1.04514696e-01 +6.45147637e-02 -3.11576705e-02 +1.82324015e-02 +8.33436754e-03 +3.81677113e-02 -9.26899463e-02 -8.34805146e-02 -9.31983441e-02 +1.06958784e-01 +4.52167168e-02 +4.22833972e-02 -2.22554840e-02 -5.06616607e-02 +1.01992056e-01 +8.46484527e-02 -8.62034485e-02 -4.21496592e-02 +6.17607795e-02 +8.48131031e-02 -9.83795710e-03 -6.29941672e-02 -8.68989527e-02 +1.30580012e-02 -4.24546525e-02 -3.38430889e-02 +1.66646168e-02 +7.89360492e-04 -5.00351703e-03 -3.59934419e-02 -6.69018179e-02 -3.14882770e-02 -5.63859455e-02 -6.55781031e-02 +4.95514870e-02 -9.40197185e-02 +5.83516657e-02 -1.06229477e-01 -4.36571278e-02 +5.93196414e-02 -9.79458243e-02 +6.07837923e-02 -4.10458930e-02 -6.86230808e-02 +2.95066019e-03 +9.99585465e-02 +6.79005906e-02 +5.93899786e-02 -8.91387910e-02 +3.25015304e-03 +3.13221067e-02 -3.60855870e-02 -7.56810904e-02 -6.31048530e-02 -3.78467888e-02 -5.34327254e-02 +1.47692778e-03 -1.46929920e-02 +5.58289625e-02 -1.28205735e-02 +8.73966143e-02 +5.65718599e-02 +6.04030713e-02 +6.76383600e-02 +2.05370430e-02 +2.02388931e-02 -8.87356400e-02 +2.12630257e-02 -8.66389126e-02 +8.84140804e-02 +1.02153206e-02 +2.85266005e-02 -9.00519453e-03 +1.94590706e-02 +7.57639632e-02 -1.82823483e-02 +6.81333840e-02 +1.42198848e-03 +8.30742195e-02 -6.21357672e-02 +3.76266241e-02 -2.82445606e-02 -5.68607301e-02 +3.97702120e-02 +1.00365065e-01 -2.47349292e-02 -7.22948983e-02 -3.91651317e-02 +3.73996571e-02 -3.91012914e-02 -1.73544846e-02 -7.01574460e-02 -6.43578172e-03 +7.92430565e-02 +6.69988766e-02 +2.25802623e-02 +8.22789893e-02 -1.04405306e-01 +2.03962177e-02 +6.00666925e-02 +6.95161074e-02 -6.33860603e-02 -8.04606453e-02 -1.05632029e-01 -8.00586771e-03 -7.51905069e-02 -6.42774999e-02 +6.66231811e-02 -3.61135975e-02 -4.50870246e-02 +7.45406076e-02 +9.52625796e-02 -2.69576889e-02 -1.05313212e-02 -4.92507145e-02 +2.66178250e-02 +1.03939444e-01 +3.91778201e-02 +6.26428649e-02 -1.71986930e-02 +1.00922517e-01 +9.89171490e-02 -1.03467070e-01 +7.34439492e-02 -1.92764103e-02 -7.49083087e-02 -5.07026650e-02 +9.76136103e-02 +9.31601003e-02 -1.06698185e-01 +4.95041683e-02 -6.32527918e-02 +1.05566755e-02 +6.41359240e-02 -8.22532550e-03 +3.86002380e-03 +3.37937586e-02 +8.16541687e-02 +7.12483823e-02 -6.43574446e-02 +3.58422846e-02 +4.68622185e-02 -2.91616656e-02 -3.95297743e-02 +3.86171192e-02 +9.39510837e-02 +5.05913496e-02 +7.89176896e-02 +9.00809616e-02 -5.72066233e-02 +5.17815314e-02 +9.04826298e-02 +7.55028753e-03 +1.19156763e-02 +3.21018025e-02 -3.83553505e-02 +1.95056293e-02 -8.05655867e-02 +6.24856874e-02 +3.79438177e-02 -2.19185501e-02 -1.29458643e-02 -7.45320544e-02 -2.00261008e-02 -4.60185809e-03 +3.51802930e-02 +6.92135766e-02 +8.21772404e-03 +6.08207211e-02 -3.17649990e-02 +1.01887351e-02 +2.25297231e-02 -6.66977763e-02 +7.93863162e-02 -1.40746795e-02 +7.43921995e-02 -9.42190737e-02 +5.69637120e-02 -4.93403524e-03 -6.10255152e-02 +8.79687667e-02 -8.00949559e-02 -5.42400628e-02 -4.37195115e-02 +4.71725967e-03 +9.14027244e-02 -4.04051580e-02 -6.63326681e-02 +6.13319911e-02 +6.58516586e-02 -1.23761417e-02 -9.53624919e-02 -7.81560540e-02 -4.17066179e-02 -2.17688587e-02 -4.45570424e-02 -6.91158697e-02 +3.24947126e-02 -2.50427751e-03 -2.38269847e-02 +7.13488311e-02 -2.64371186e-02 -3.87534685e-03 +9.09855589e-02 +9.83619392e-02 +7.90651143e-02 -7.72232637e-02 -3.89596261e-02 -3.42919119e-02 +1.01298928e-01 -3.15033435e-03 +1.12110004e-02 -8.00529122e-02 +8.51959512e-02 +1.29926112e-02 +7.30468407e-02 -1.34662306e-02 +7.34806955e-02 -1.05371095e-01 +7.50753880e-02 -1.02604099e-01 -7.86993951e-02 -9.49228704e-02 +8.23435262e-02 +2.90905517e-02 -7.20839500e-02 +7.67144635e-02 -5.29060373e-03 -1.86743941e-02 -6.94542238e-03 -6.44771829e-02 +9.59406495e-02 +6.91899424e-03 -5.26429042e-02 -8.90389085e-03 +5.84257059e-02 +9.31051653e-03 +3.84144951e-05 +5.09474240e-02 +1.66338254e-02 -1.77369602e-02 -6.28869832e-02 +8.55416730e-02 -8.08586478e-02 +7.94858206e-03 +1.02693945e-01 -1.04004614e-01 -3.34813669e-02 +6.68063462e-02 -1.38058094e-03 -6.54705688e-02 -2.51418836e-02 +5.25335707e-02 +9.44114625e-02 +9.99698415e-02 -7.23364279e-02 -1.61355864e-02 -7.01194815e-03 -5.52912690e-02 +6.18150458e-02 -1.41675184e-02 +1.00306898e-01 +4.01875004e-02 +9.47659239e-02 +3.73109095e-02 -1.00730203e-01 +6.90193549e-02 -7.06044436e-02 -2.62766931e-04 +5.90847619e-03 +6.19602017e-02 -1.62597094e-02 +7.50520751e-02 +2.89089065e-02 -1.03998214e-01 +1.13537367e-02 -2.14205720e-02 -1.16380565e-02 +9.52284560e-02 -5.60200103e-02 +1.84959620e-02 +6.94952235e-02 +5.64086549e-02 -9.42716599e-02 -9.84530151e-02 -4.55652028e-02 -4.55565117e-02 +1.82721727e-02 -6.51288852e-02 +7.33099505e-02 -3.38113643e-02 +9.62135196e-02 -5.90529516e-02 -1.64679792e-02 -6.07731566e-02 -1.33237839e-02 -6.61159530e-02 -1.88719966e-02 -3.51062417e-02 -7.12811016e-03 -7.65449228e-03 -7.99998194e-02 -1.37257949e-03 -9.36462954e-02 -9.10282433e-02 -9.94710177e-02 -9.65722054e-02 -6.08873330e-02 +7.42549747e-02 +1.87219530e-02 -8.79942179e-02 -3.47845182e-02 +5.52592650e-02 +5.59410453e-03 +2.24538823e-03 +5.66610042e-03 -8.81103799e-02 +8.03027675e-02 -5.73340170e-02 -1.01235732e-01 +2.73107663e-02 +5.54649383e-02 +9.53316391e-02 -5.59501760e-02 +7.31920823e-02 +1.01949200e-01 -1.14819268e-02 -2.74357051e-02 -2.62650680e-02 +7.78801143e-02 +6.55677095e-02 +5.64874411e-02 +6.53762668e-02 +9.90133509e-02 +2.41646711e-02 +5.36084399e-02 +4.05100435e-02 -3.52958068e-02 +5.71899824e-02 +1.01636872e-02 -9.20740329e-03 +8.75023101e-03 +8.90730396e-02 -3.26911286e-02 -9.91880670e-02 -4.77764942e-02 -2.49568615e-02 +1.02106752e-02 -8.49332288e-02 -9.20436531e-02 -7.85069838e-02 -8.88459235e-02 +4.55883183e-02 -1.85237825e-02 -8.55999887e-02 +5.76028600e-02 +8.48376006e-02 -1.52464714e-02 -4.82931584e-02 +4.69161980e-02 -6.16461746e-02 +8.64319876e-02 +8.18633065e-02 +6.45405725e-02 -9.48182046e-02 -7.87790492e-02 +1.67108290e-02 -1.11464867e-02 +8.99476707e-02 -9.61893648e-02 -8.19223896e-02 +2.96642222e-02 -1.00104526e-01 +5.54186404e-02 -2.22708602e-02 +8.53633806e-02 +1.94859188e-02 +4.41261828e-02 -6.48812354e-02 +7.81372860e-02 -2.73213405e-02 +9.69534963e-02 -7.06489012e-02 +6.81974739e-02 -6.38090149e-02 +2.07391717e-02 +9.80105437e-03 -5.26846834e-02 -8.07247758e-02 +6.73903748e-02 +3.09372153e-02 +7.70360976e-02 +5.93839996e-02 -8.78399163e-02 -1.07364617e-01 -9.67195407e-02 -5.34007698e-02 -9.73014981e-02 -3.53358872e-02 +5.25979772e-02 +4.48029563e-02 -9.98826176e-02 +1.70563553e-02 -4.00959030e-02 -4.58442159e-02 +9.03592855e-02 +9.82702672e-02 +6.37641083e-03 +9.37708542e-02 -2.48027220e-03 +8.70352685e-02 -6.67383820e-02 +1.83220729e-02 +8.00442025e-02 -8.01109448e-02 +3.31977345e-02 +4.33079265e-02 +5.12140915e-02 -2.08183229e-02 -6.17681770e-03 +8.14848766e-02 +5.43874539e-02 +8.72180462e-02 +7.25314161e-03 +7.49973133e-02 +7.26853088e-02 +7.07553551e-02 +9.48008075e-02 +6.72725290e-02 -3.81363891e-02 -1.03195563e-01 -3.80419719e-04 +5.80685362e-02 -4.20007035e-02 +1.06147952e-01 +3.37492637e-02 -7.24818334e-02 -7.98863769e-02 +2.08397713e-02 -4.92686145e-02 -2.66682282e-02 +6.88929185e-02 -8.43961313e-02 +1.01626683e-02 +1.05932370e-01 +1.73349977e-02 -6.37284219e-02 +9.73578393e-02 -9.69733894e-02 -1.16529725e-02 +6.65405914e-02 -2.05701906e-02 -9.19027161e-03 +5.30394688e-02 -7.38134310e-02 +1.01289243e-01 -3.66682857e-02 -8.14409778e-02 -8.10425878e-02 -5.93396127e-02 +7.29473978e-02 -9.30231810e-02 -1.56865455e-02 -3.17164660e-02 -1.04452027e-02 -3.85312624e-02 +5.88009730e-02 +9.51662511e-02 +9.26687494e-02 +5.02337962e-02 +1.92428939e-02 +2.34061312e-02 +1.02916196e-01 -4.38603759e-02 -4.10962477e-02 -5.05806990e-02 -8.57215896e-02 +7.30825141e-02 -9.80395004e-02 -2.51205750e-02 -1.06234424e-01 -6.02623336e-02 +3.30575854e-02 +3.97241004e-02 +1.17181391e-02 +6.30515963e-02 +7.15709701e-02 +3.75733934e-02 +7.16682449e-02 -5.49429804e-02 +8.60065892e-02 -4.86712977e-02 -2.91485079e-02 +3.86614799e-02 -5.89067154e-02 +6.65190667e-02 +2.09883209e-02 -5.21306805e-02 +6.21133670e-02 +9.36082453e-02 +3.88264470e-02 -7.41259987e-03 +6.60683438e-02 +2.56333780e-02 -5.57147600e-02 +5.02669550e-02 -6.07011886e-03 -8.01985487e-02 +5.87347895e-02 -6.55763745e-02 -4.05488163e-02 -6.35430962e-02 +7.10421428e-02 +1.79108698e-02 +1.07474901e-01 -9.93649289e-02 +2.95541547e-02 +2.45190393e-02 -9.61403921e-02 -5.90906180e-02 -3.78832147e-02 -2.89082956e-02 +1.03916951e-01 -1.25623448e-02 -1.14960581e-01 -1.00514740e-01 -2.01209448e-02 +5.44446036e-02 -5.20881824e-03 -1.00190751e-01 +1.91474464e-02 +7.46884048e-02 -2.63479538e-02 +7.65003264e-02 -2.71860622e-02 +9.80909318e-02 +8.49722177e-02 -2.81970389e-02 +9.31422338e-02 -6.06691130e-02 +5.24148457e-02 -7.45856836e-02 -1.03527377e-03 +4.45645861e-02 -4.38581519e-02 -8.33451599e-02 -7.93143660e-02 +2.34491508e-02 +4.90144677e-02 -1.47897145e-02 +5.26019791e-03 +1.27179939e-02 -6.64515123e-02 -3.58723067e-02 -8.38927329e-02 -1.77165419e-02 -4.22648415e-02 -8.94151703e-02 +6.71582073e-02 +4.28718552e-02 -1.02161124e-01 -9.41189826e-02 +5.17732743e-03 -4.42868844e-02 +3.93467695e-02 -1.19610569e-02 +3.96874659e-02 +9.77182910e-02 -1.60407908e-02 +7.09485561e-02 +5.20315114e-03 -1.02169998e-01 -3.87273394e-02 +9.94523615e-02 +3.26368287e-02 +9.74998251e-02 -6.08295687e-02 -7.88441598e-02 -5.08277037e-04 -4.59317267e-02 +6.23742007e-02 -1.11154981e-01 +7.43765235e-02 -1.33816330e-02 -7.90335685e-02 +9.00453180e-02 +9.95042697e-02 +1.41021851e-02 -2.26553734e-02 +1.24898879e-02 -3.91204171e-02 +1.24494629e-02 +1.23398351e-02 +9.81634930e-02 -1.54057350e-02 +2.79081222e-02 +5.26490547e-02 +2.89472397e-02 +9.15201604e-02 +2.66819913e-02 -1.13282865e-02 +6.16884278e-03 +1.93073638e-02 +1.80606861e-02 -6.24740645e-02 +5.32632619e-02 +2.14549582e-02 -7.39613399e-02 +3.93856503e-02 +7.70013183e-02 +3.16546746e-02 +1.04960516e-01 +3.07489894e-02 -6.24681935e-02 -9.58959460e-02 +7.29129538e-02 -8.11584964e-02 -7.71398470e-02 +5.01385927e-02 -5.35433181e-02 -4.58285138e-02 +1.60456486e-02 +6.18607961e-02 +5.70677631e-02 -7.20196664e-02 +7.23579079e-02 +9.55227762e-02 -5.90158664e-02 -8.03725943e-02 +1.03538580e-01 -5.70916086e-02 +7.18307942e-02 -6.27707876e-03 -1.69181265e-02 +4.61722538e-02 +6.80099055e-02 +3.33858952e-02 -1.02645103e-02 +7.10790455e-02 -8.16044956e-03 -4.89066020e-02 -1.39798606e-02 -3.99120972e-02 +4.01782207e-02 +5.18203601e-02 -3.23889852e-02 -5.85307963e-02 +9.36599970e-02 -6.75981492e-02 -8.98819491e-02 -7.17665553e-02 -5.34129180e-02 +9.32722166e-02 +2.25707516e-02 +7.22012892e-02 -9.11386758e-02 -1.01594441e-01 -1.32806692e-02 +5.97490668e-02 +6.32519834e-03 +6.34644472e-04 -7.95500644e-04 -4.54346314e-02 +8.01258832e-02 -7.39843920e-02 +7.04838336e-02 +3.22641507e-02 +5.83478324e-02 +7.30892271e-02 -2.56276764e-02 -7.21526667e-02 -4.90999073e-02 +5.38746305e-02 -7.32542500e-02 -1.46782799e-02 -5.67082241e-02 -6.46379814e-02 +3.27172987e-02 +9.76436213e-03 +4.56081098e-03 -5.18241003e-02 -6.88821450e-02 -7.17223883e-02 +1.67677477e-02 -1.05250590e-01 -5.44989668e-02 +9.76235047e-02 +1.01358190e-01 -6.20492063e-02 +1.93541404e-02 -3.37706879e-02 -9.46425498e-02 +9.34384465e-02 +5.51266409e-02 +1.68262664e-02 +9.56689417e-02 +6.37009963e-02 -2.02133339e-02 +8.72433111e-02 -1.46316830e-02 +8.36923122e-02 +9.85611230e-02 -7.00328723e-02 -8.25448185e-02 +6.52589351e-02 -6.53302670e-02 +1.33647621e-02 +4.57276478e-02 +5.91100119e-02 +8.40027109e-02 -5.42149618e-02 +6.95551485e-02 +1.02764830e-01 -3.20444182e-02 -1.44272391e-02 +1.80885270e-02 -6.20895140e-02 -5.50525077e-02 +4.46737483e-02 +1.40725495e-02 +3.99789885e-02 +5.62830158e-02 +7.85630271e-02 +9.83957723e-02 +2.13581733e-02 +3.68903950e-02 -2.89424211e-02 +5.56904040e-02 +1.07348062e-01 +6.37289882e-02 -1.99103598e-02 +7.75546804e-02 +9.64969546e-02 -1.02109835e-01 +6.21068291e-02 +8.69733915e-02 +8.42311755e-02 +3.44252102e-02 +2.67182328e-02 +1.92988552e-02 +6.41646832e-02 -5.15435413e-02 +9.15139765e-02 +7.11383671e-02 -8.23275372e-02 -2.61941459e-02 -3.37717906e-02 +9.37523916e-02 -1.92463100e-02 -7.31898025e-02 -4.05052491e-02 +3.77117842e-02 -2.04471070e-02 +8.71076435e-02 +2.29525212e-02 -3.67293209e-02 -4.32962179e-02 -4.47710194e-02 -2.48525273e-02 -2.76737344e-02 +9.28767696e-02 +4.59126243e-03 +5.39806001e-02 +9.04060975e-02 -8.12011138e-02 -1.20759280e-02 +7.72948265e-02 +1.02999434e-02 +8.48294199e-02 +6.34695068e-02 +8.77722651e-02 +8.80406238e-03 +5.40583916e-02 +3.33975740e-02 +4.05027233e-02 +3.43221240e-02 -8.93622041e-02 +1.86066260e-03 +3.46796848e-02 +7.99019039e-02 -7.11870240e-03 -5.42375958e-03 +9.97134224e-02 +4.58469838e-02 +8.89935121e-02 -7.85790682e-02 +3.24518830e-02 -5.61306886e-02 +8.07652622e-02 +8.78662542e-02 +2.53021568e-02 +1.57234706e-02 -3.45158502e-02 +4.56313901e-02 -3.89345214e-02 +8.54622126e-02 -3.51305455e-02 +9.57462490e-02 -7.81765133e-02 +5.76355048e-02 -8.53791535e-02 -8.59811828e-02 +1.01414151e-01 +1.76714193e-02 -1.83386225e-02 -1.00143917e-01 +4.51834388e-02 +7.30901584e-02 -1.05095886e-01 -8.51596147e-02 -1.04448460e-01 +9.21117608e-03 -4.23178039e-02 +3.81798148e-02 +4.48319912e-02 -7.31679099e-03 +3.19807455e-02 +9.69053805e-02 +5.01889214e-02 -6.60607144e-02 +5.69865620e-03 -6.22959509e-02 -7.37350667e-03 +5.04626753e-03 -2.08214074e-02 +1.04365349e-01 -6.39542341e-02 -2.28221132e-03 +2.29844381e-03 -1.03762060e-01 +7.44692236e-02 -1.01572357e-01 -5.54381125e-02 +9.25324187e-02 -2.88885478e-02 +9.93190333e-02 -7.24854246e-02 +1.57298390e-02 +3.39877559e-03 +8.23087245e-02 +4.20870483e-02 -9.59516540e-02 +5.22355624e-02 -4.74982485e-02 +7.63899833e-02 +4.74019721e-02 +2.72365380e-03 -8.85947570e-02 +7.19259828e-02 +6.37293831e-02 +8.06545094e-02 -5.19527867e-02 +5.64942472e-02 +7.51090422e-02 -4.72918861e-02 -4.59870324e-02 -8.68477300e-02 +8.18006247e-02 -2.87411101e-02 +5.49605265e-02 +9.53913704e-02 -8.50992575e-02 +7.28153735e-02 -8.82724151e-02 -2.27384083e-02 -9.73346923e-03 +7.98040107e-02 -4.67987619e-02 +8.51103738e-02 +5.30133508e-02 -1.02749996e-01 -3.25055160e-02 -1.07182659e-01 +2.92747915e-02 +2.22134683e-02 +2.08412632e-02 +6.45184144e-02 -7.88294449e-02 -6.75291568e-02 +6.13587573e-02 -1.98298655e-02 +6.56884685e-02 +7.35047236e-02 +1.78457052e-02 -3.85715775e-02 -4.29294519e-02 +3.66999283e-02 -1.03747897e-01 +1.92131139e-02 -1.04358070e-01 +7.43218213e-02 +7.89990127e-02 -6.34471923e-02 +3.74750756e-02 -8.63691568e-02 -1.07491678e-02 +6.17242493e-02 +4.55006100e-02 +6.08084463e-02 -1.22250412e-02 -3.81440334e-02 -4.96092997e-02 -3.05217374e-02 +5.86672239e-02 -5.40693030e-02 +3.71363573e-02 -2.09177495e-03 -4.18564342e-02 +3.24560739e-02 +3.54857221e-02 +7.22627863e-02 +2.18200460e-02 +4.13039662e-02 -5.45439795e-02 -7.04157725e-02 +6.38338253e-02 +2.95256339e-02 -2.94268001e-02 -2.29739379e-02 +1.61217973e-02 +9.31919515e-02 +8.64783749e-02 -7.21154064e-02 -4.55245040e-02 -8.54328647e-02 +1.06956214e-01 -9.93262455e-02 +7.47820660e-02 +1.30949719e-02 +3.36204879e-02 -2.65999627e-03 +4.75159511e-02 +5.87437935e-02 -8.28586817e-02 +3.81274298e-02 +1.35509681e-03 -1.01636223e-01 +1.04638040e-01 -5.71155362e-02 +3.05356402e-02 +8.31635222e-02 -9.40518603e-02 +7.10076690e-02 +3.29641290e-02 +5.07857464e-02 -9.87842083e-02 -5.78323519e-03 -1.06031343e-01 -6.19156137e-02 +6.32127896e-02 +7.52411634e-02 -2.45194528e-02 +5.98187521e-02 +9.09745041e-03 -7.26932287e-02 +1.31797474e-02 -3.11803091e-02 +3.22353691e-02 -6.66559413e-02 +3.31462175e-02 +7.51581267e-02 -8.73811170e-02 -2.29034536e-02 +8.19365010e-02 -6.44519329e-02 +6.58414140e-02 +4.57933173e-02 +7.67978504e-02 +8.25016722e-02 -3.47971059e-02 +1.93168987e-02 +4.05962765e-02 -5.87650463e-02 +7.35466182e-02 -7.95946345e-02 -5.72970696e-02 +2.49068532e-02 -1.26159359e-02 -1.04474612e-01 +3.22634317e-02 -1.43870497e-02 +1.03546958e-03 +4.15170901e-02 +7.54246563e-02 -7.31053799e-02 -2.76236050e-02 -2.23336183e-02 +7.82594904e-02 +1.34167960e-02 -1.02390073e-01 +7.46270865e-02 +3.77537012e-02 -8.89777765e-02 +4.71496070e-03 +8.27291608e-02 +8.31609145e-02 -5.13761714e-02 -9.52754095e-02 +2.69553233e-02 -1.01391457e-01 -4.81788926e-02 +6.41756982e-04 -5.56165501e-02 +7.05963299e-02 +9.34975818e-02 -6.81403503e-02 +9.13626403e-02 -1.03419304e-01 +1.18716899e-02 -8.61631632e-02 -8.77824053e-02 -6.83778059e-03 +8.59519914e-02 +1.00371346e-01 -8.92663449e-02 +1.06500044e-01 -1.51206870e-02 -3.15466262e-02 -2.69580376e-03 +8.83325264e-02 -4.16264199e-02 +9.20123011e-02 +7.20652118e-02 +3.12657617e-02 +8.00450668e-02 +8.94365013e-02 -4.41446900e-02 +1.62551086e-02 -1.01428121e-01 +6.86003640e-02 -1.16769690e-02 -1.65372118e-02 -9.13784355e-02 -1.00206390e-01 -5.35463654e-02 +5.51031902e-02 -5.20066312e-03 -7.78199881e-02 +9.94762480e-02 +2.82685217e-02 +2.26408942e-04 -6.85375407e-02 -5.07482104e-02 +2.64169406e-02 -9.06258225e-02 -3.28808948e-02 -3.17546539e-02 +3.06970421e-02 -1.09880585e-02 -2.45614862e-03 -1.02017643e-02 +6.24155290e-02 -8.21041837e-02 -5.83711155e-02 -9.95353311e-02 +2.34415364e-02 +4.82183173e-02 +9.93364528e-02 -6.69594333e-02 -1.25505598e-02 +1.15787126e-02 -6.48352206e-02 +8.98990184e-02 -4.17079963e-02 -2.25553848e-02 +2.62873340e-02 +1.00342639e-01 -6.20529763e-02 -6.08949624e-02 -9.18121040e-02 +3.45897749e-02 +2.24115700e-02 +8.18879530e-02 +8.96552503e-02 +8.07042643e-02 -2.52888091e-02 +2.89506968e-02 -6.11597393e-03 -8.50959644e-02 -8.85873362e-02 -1.96711104e-02 +3.66022252e-02 -4.83925380e-02 +1.06085278e-01 -3.16518880e-02 +8.91734585e-02 +5.24021573e-02 +7.50048831e-02 +5.86274341e-02 +7.41154626e-02 +9.15134549e-02 -2.33883001e-02 -4.81498726e-02 +8.37726146e-02 -9.56638530e-02 -6.96636215e-02 +1.05835639e-01 -8.71301442e-02 +7.32352510e-02 -7.64329359e-02 -2.40372308e-02 +1.11032883e-02 -8.54498614e-03 +8.84394571e-02 +4.07310054e-02 +1.15995333e-02 +9.90806744e-02 +7.67884543e-03 +8.11997503e-02 -2.20960025e-02 +3.47915031e-02 +4.65323403e-02 -1.04238549e-02 -9.90352184e-02 +7.90687092e-03 +4.25659269e-02 -4.33592498e-03 -7.23781884e-02 +9.20113698e-02 +3.32157016e-02 -3.28023955e-02 -9.40387100e-02 +2.38234214e-02 -6.32234588e-02 -6.37156442e-02 +5.28417714e-02 +8.79546478e-02 +3.26523744e-02 +1.02593690e-01 +6.79131746e-02 -8.17357004e-03 +3.96971628e-02 +9.79092419e-02 +1.15771964e-02 -1.94793493e-02 -6.02103136e-02 -6.40476588e-03 +9.62588340e-02 +8.56960565e-02 +1.01719193e-01 -3.16981482e-03 -2.68759616e-02 +8.53301436e-02 -4.17006277e-02 +3.52790467e-02 +7.18618482e-02 -1.83323864e-02 +5.13690189e-02 +2.61927117e-02 +1.84512418e-02 +1.31342281e-02 +8.43078494e-02 -9.48413387e-02 +5.93903698e-02 -6.28838912e-02 -5.93786836e-02 +4.20710668e-02 -7.66024217e-02 +4.44649570e-02 -4.62663025e-02 +9.10553429e-03 -1.49465781e-02 +9.42819472e-03 -9.72016528e-02 +5.08240098e-03 -5.39897243e-03 -8.27697515e-02 -6.08927943e-02 +6.29024953e-02 +7.29224756e-02 -6.45414442e-02 +1.03078466e-02 +6.70623705e-02 +6.25792816e-02 -8.26657489e-02 -1.86988637e-02 +8.97778720e-02 +5.68048209e-02 -2.66459733e-02 +2.44841445e-02 +6.63033798e-02 +9.73556715e-04 -1.00022085e-01 -3.44187282e-02 +4.37732749e-02 +7.06212968e-02 -2.14718040e-02 +1.01167850e-01 -6.34965748e-02 +8.87037069e-02 -8.02483410e-02 +1.50047317e-02 +9.18787420e-02 +9.61953253e-02 -1.01799868e-01 -6.45098686e-02 +7.64680877e-02 -8.77731964e-02 +4.92789224e-02 -6.15128167e-02 +1.73628815e-02 -2.26920191e-02 +6.17167875e-02 -1.90943908e-02 -7.36712739e-02 -7.84807950e-02 -1.05373383e-01 +1.30744732e-03 -9.49565247e-02 +8.16391781e-02 +3.20058726e-02 +6.38301522e-02 -9.21648666e-02 +2.61883792e-02 +1.88911054e-02 +7.75739774e-02 +6.93092356e-03 -3.54028977e-02 +7.85087496e-02 -3.63814421e-02 +3.99385840e-02 +2.14814059e-02 +1.46084512e-02 -9.91561934e-02 -2.86913142e-02 -2.19772328e-02 -3.19781643e-03 +7.14514405e-02 -4.61394899e-02 +3.08895502e-02 +7.72188082e-02 -8.41002241e-02 +1.01368362e-02 +3.69239561e-02 +4.33003157e-02 -9.07500535e-02 +3.08310743e-02 -6.37793094e-02 +7.89002627e-02 -5.72734401e-02 -2.67359577e-02 +8.77130032e-02 +6.66971877e-02 +2.53264308e-02 -3.29799242e-02 +7.99077153e-02 -3.98618393e-02 +8.14417601e-02 -5.95736504e-02 +8.34523067e-02 -5.45718782e-02 -3.33405584e-02 +9.82141867e-03 +7.49810562e-02 -1.12428460e-02 -1.91230997e-02 +2.25600600e-02 +4.34154570e-02 -5.70426621e-02 -5.11298664e-02 -8.38658661e-02 +4.57604937e-02 +9.98661444e-02 -2.79275398e-03 +8.48297328e-02 +3.16530243e-02 +2.27868389e-02 -8.72056633e-02 +4.66895103e-02 +3.14710774e-02 +3.34427576e-03 -4.45994064e-02 +3.45029049e-02 -1.02676004e-01 +3.10537443e-02 +5.94962351e-02 -8.47080871e-02 +6.19361103e-02 -4.67109829e-02 +8.58676285e-02 +8.41825455e-02 -4.56553362e-02 -6.50890693e-02 +7.91977122e-02 +2.18818039e-02 -4.61985283e-02 +6.06845990e-02 -7.06907958e-02 +3.70140225e-02 -7.37068104e-03 +6.78922161e-02 -1.03693381e-01 -5.93922846e-02 -2.97825653e-02 -9.31109488e-02 +3.54568698e-02 +7.56393597e-02 -4.60547246e-02 -8.71937051e-02 +9.29896757e-02 +9.91120860e-02 +7.88603798e-02 -3.82803716e-02 -5.42336255e-02 +9.85793844e-02 +8.97699371e-02 -2.47802790e-02 -2.37621590e-02 -1.82465501e-02 +3.39521617e-02 -8.25438499e-02 +9.58524421e-02 +4.86598955e-03 -4.82943095e-02 +1.32976789e-02 +6.32798523e-02 +7.35030696e-02 -6.91804290e-03 +8.41465145e-02 -8.57638121e-02 +8.01368803e-02 -7.92480260e-02 -7.69353285e-02 +7.25394934e-02 +7.16457590e-02 +3.69360372e-02 +9.54658240e-02 -9.03645232e-02 -6.92199469e-02 +2.60381550e-02 -3.11917998e-02 -4.19608578e-02 +8.92121121e-02 +7.67736956e-02 +9.91094112e-03 +5.54028004e-02 +4.55935933e-02 -3.94784212e-02 +6.13183081e-02 -6.51277080e-02 +5.52553870e-02 -2.15327330e-02 +9.91318896e-02 +1.90624539e-02 -7.03837574e-02 -9.50468332e-02 +9.12035257e-02 +6.42225668e-02 +9.63678136e-02 +3.02921198e-02 +7.06548765e-02 +6.60017207e-02 -7.89738894e-02 -1.04556449e-01 -7.21333250e-02 +7.97620043e-02 +3.86424027e-02 +7.98408166e-02 +7.20668212e-03 +9.23355967e-02 -1.74863134e-02 -3.62912938e-02 +1.01207510e-01 -5.07925786e-02 -1.92783456e-02 +3.81376781e-02 +5.50078191e-02 -4.75469641e-02 +7.74743259e-02 +3.25735733e-02 -9.94471908e-02 -1.56593733e-02 +3.28245610e-02 -4.21233363e-02 +6.12725802e-02 -6.81438744e-02 +1.03350878e-01 +4.61838841e-02 -8.62628520e-02 +2.78015882e-02 +8.83072764e-02 -5.63222468e-02 -3.67507413e-02 -1.52169575e-03 -6.77052215e-02 +7.74584478e-03 +6.36489093e-02 +2.87111290e-02 -5.82929049e-03 -5.29845022e-02 -8.44072551e-02 -6.50538057e-02 -9.10079330e-02 -3.66591127e-03 +1.01354383e-02 +3.52685563e-02 +3.76363359e-02 +6.12659287e-03 +6.06370829e-02 -9.06793252e-02 +5.33918589e-02 +7.64237791e-02 -4.59125675e-02 -1.06176242e-01 +1.02448046e-01 -5.68574220e-02 +3.05989757e-02 -7.03256950e-02 -1.01511762e-01 -1.01947129e-01 +5.04957698e-02 +8.15683231e-02 +6.79832473e-02 -8.49117339e-02 -3.03249992e-02 +2.56649218e-02 -3.50979492e-02 -9.80404094e-02 +5.49384058e-02 +1.04418151e-01 +9.25638974e-02 +8.86587799e-02 -2.75467299e-02 -5.91731183e-02 -2.68867370e-02 +5.66313080e-02 -2.54601482e-02 -8.55127051e-02 -6.39669150e-02 -1.06181033e-01 -9.44994614e-02 -2.58297380e-02 -2.35069767e-02 -2.70140171e-02 +5.98065369e-02 -9.49495360e-02 +2.91678123e-02 +5.64935394e-02 +3.07345744e-02 -4.23147269e-02 +5.29679731e-02 -7.69813955e-02 -2.64950190e-02 -9.24288556e-02 +1.74285173e-02 -6.42668381e-02 -2.69690994e-03 -1.01456523e-01 +1.44450099e-03 -7.26219043e-02 +2.73002554e-02 -4.92187738e-02 -4.91054915e-02 +1.61772082e-03 +5.50341234e-02 +3.39437164e-02 +5.98473251e-02 -3.32641117e-02 +6.86993748e-02 +5.08481860e-02 -9.99847706e-03 -9.07568187e-02 +9.66449752e-02 -8.66149887e-02 +1.02738872e-01 -6.55801296e-02 -9.65737924e-02 +6.72910642e-03 +9.63914469e-02 +9.38513055e-02 -2.66723726e-02 +1.02913015e-01 -7.63280839e-02 +7.32814670e-02 -6.74785897e-02 +2.78124381e-02 -2.30125599e-02 -6.88412115e-02 -2.79777143e-02 +9.31003615e-02 +5.72812296e-02 -7.50460755e-03 +2.42239386e-02 +2.43726429e-02 +3.88249382e-02 +5.11058699e-03 +2.82330960e-02 -3.83454794e-03 +4.61458452e-02 +7.66434660e-03 -1.05741575e-01 -2.49491874e-02 -7.63050839e-02 -9.00918767e-02 +9.27440524e-02 +3.31010483e-02 -6.65073022e-02 -7.61193782e-02 +7.69272372e-02 -6.79157525e-02 -2.24496983e-02 -9.22731012e-02 -3.41679677e-02 -9.31964368e-02 -1.07529186e-01 +9.30533782e-02 -5.51246144e-02 +3.57108451e-02 -7.89357200e-02 -3.96589041e-02 +3.39074023e-02 -4.39928807e-02 +5.34708463e-02 +2.11849157e-02 -2.59800255e-03 +6.26154616e-02 +9.19177309e-02 +2.83490345e-02 -1.00565121e-01 -8.82230550e-02 -7.10832775e-02 -6.75445050e-02 +1.29852034e-02 -7.58217201e-02 -9.66959745e-02 -9.44017246e-02 -1.61920581e-02 +8.47726613e-02 +4.67147306e-02 -4.65867954e-04 -5.22173150e-03 -2.47648768e-02 -2.36160960e-02 -4.87080291e-02 -5.01947440e-02 -5.43585978e-02 -6.47301301e-02 -6.03246689e-02 +8.57277289e-02 +4.38710377e-02 -6.09896332e-02 -9.03270915e-02 -3.77590246e-02 -1.39203724e-02 +1.69384398e-03 -5.05139455e-02 -3.24730985e-02 +4.97325398e-02 -2.21389197e-02 +5.50034307e-02 +5.91230653e-02 +3.25615378e-03 +6.26386702e-02 -4.77858866e-03 +9.60491076e-02 +4.69145253e-02 +2.75711548e-02 +7.05864131e-02 -7.97306672e-02 +5.78921214e-02 -7.41301700e-02 -4.05967087e-02 +9.49677676e-02 -7.42993057e-02 -1.90534163e-02 -2.38443892e-02 -9.94250625e-02 -1.88521799e-02 +7.77107999e-02 -4.57823873e-02 +3.62540521e-02 -8.94044265e-02 +1.71480235e-02 +8.12267661e-02 +7.59746730e-02 -1.80068295e-02 -5.58378585e-02 +3.19688432e-02 -5.49120307e-02 +8.23436305e-03 -4.98753823e-02 -8.77564773e-02 -2.59706900e-02 -9.86760631e-02 -5.57930209e-02 +1.97073445e-02 -8.29379782e-02 +8.47218335e-02 +4.33860794e-02 -8.22388288e-03 +8.14248025e-02 -9.21849012e-02 +8.08926895e-02 +1.92099679e-02 +2.43546050e-02 -4.67217900e-02 -1.86076167e-03 -6.76873401e-02 -9.20832604e-02 -9.61318016e-02 +8.74723345e-02 -8.99743587e-02 +7.96220526e-02 -2.77226362e-02 -8.69284868e-02 -3.66940582e-03 -7.24282190e-02 -9.89375785e-02 -3.37741314e-03 +8.45224112e-02 -9.90324393e-02 +5.59979863e-02 -4.33036946e-02 +1.03172526e-01 -5.97070307e-02 +4.19711769e-02 -2.46762205e-02 -6.61809742e-02 +1.16150631e-02 +7.54904374e-02 -7.91250914e-03 -2.37427037e-02 -6.50544018e-02 +3.12946588e-02 +5.16084395e-02 +7.29660317e-02 +1.10578854e-02 -5.17525487e-02 -7.02278391e-02 +1.03373609e-01 +8.11467990e-02 -5.39938062e-02 +9.71426163e-03 -4.54346370e-03 +4.75588515e-02 +7.70266429e-02 -4.54347134e-02 -4.57380749e-02 -7.69922510e-02 -4.89421003e-02 -6.58502281e-02 +3.03811412e-02 -9.51680392e-02 -5.22284433e-02 -1.82079095e-02 +7.05941394e-02 +7.01470450e-02 +2.58972850e-02 +3.41879167e-02 -5.49959317e-02 -6.48579150e-02 +7.95774907e-02 -9.08040255e-02 -5.41392453e-02 +4.89210784e-02 +5.66315465e-03 -2.57360935e-02 -4.29852679e-02 -1.00402594e-01 +7.60053918e-02 +1.22451633e-02 -1.02371760e-01 -8.95072296e-02 -1.06905848e-01 +7.51986206e-02 +2.34789606e-02 -5.44119552e-02 -7.71531388e-02 -7.74851143e-02 -1.02430396e-02 +1.04345620e-01 -2.39422154e-02 +2.24548392e-02 +5.89224398e-02 +1.20592210e-02 -4.17199731e-02 +1.92504656e-02 +7.17639774e-02 -3.53088230e-02 -3.82198766e-02 -1.80511903e-02 +2.85980459e-02 +8.32385942e-02 +2.71497499e-02 -5.98505475e-02 +4.16476317e-02 -9.92937088e-02 -1.01771973e-01 +1.11697102e-03 +5.70307523e-02 -6.39962852e-02 +3.12999450e-02 -9.11344141e-02 +5.29703237e-02 -9.87051651e-02 +4.37731110e-02 +9.85047668e-02 -4.34612073e-02 -1.39081664e-02 +3.35959457e-02 -1.03772178e-01 -3.69796976e-02 +3.66902165e-03 +4.94210459e-02 -5.83236776e-02 +8.22271258e-02 +8.97879228e-02 -4.96948510e-03 +8.19690228e-02 -1.57734752e-02 +2.68486273e-02 -6.58622161e-02 +7.68057033e-02 -9.95658115e-02 -1.81841254e-02 -2.49605216e-02 +6.76284060e-02 +6.85662031e-02 +1.01758122e-01 +5.62678054e-02 +6.64694235e-02 +1.00727767e-01 +1.56439859e-02 -1.92033574e-02 -7.91587979e-02 -8.23697820e-02 +1.03508316e-01 +6.81042299e-03 +8.34965110e-02 +8.17159042e-02 +4.92030270e-02 -5.06658964e-02 -5.34437643e-03 -2.06584726e-02 -2.96594128e-02 -2.76011974e-02 +3.06967665e-02 +4.21905890e-03 +7.92747736e-02 -9.32965800e-02 -3.73805873e-02 +3.22743431e-02 +2.73910426e-02 -9.75192338e-02 +8.92323852e-02 -9.16041881e-02 -9.21869650e-02 +1.29470965e-02 +7.96511620e-02 -8.03535804e-02 -6.29203096e-02 -4.64759953e-02 -3.33257429e-02 +8.31087455e-02 +7.07329288e-02 -5.32893874e-02 +8.63357335e-02 -8.67060013e-03 +4.06702794e-02 +1.01532070e-02 -1.05865095e-02 -1.77417155e-02 +6.94951266e-02 +4.78952415e-02 +2.17995476e-02 +9.18969065e-02 +2.11426895e-02 +4.59339283e-02 +9.13169906e-02 -2.17802972e-02 +4.84828912e-02 +5.69755584e-02 -6.64875209e-02 -2.42618541e-03 -1.52943609e-02 +8.05390850e-02 +5.51325493e-02 -8.49159583e-02 +2.74591451e-03 +1.05351992e-01 -4.56088744e-02 -1.32696703e-02 +6.90431818e-02 -3.08864168e-03 +2.89453901e-02 -7.04773813e-02 -3.61429118e-02 +7.10333660e-02 -7.04027116e-02 -9.09963697e-02 +5.91366971e-03 -9.34907701e-03 -9.80103910e-02 -1.02710702e-01 +6.74492940e-02 -6.00651205e-02 -6.70752525e-02 +1.02394529e-01 +9.51891318e-02 +2.22143512e-02 +2.71623507e-02 +8.09238479e-02 +3.21853608e-02 +2.86286082e-02 -9.79122147e-02 -6.45399541e-02 +8.14089254e-02 +7.22928718e-02 +1.83664891e-03 -8.08787867e-02 +6.65679798e-02 +5.88157848e-02 -1.05059780e-01 -7.34411627e-02 -3.79967764e-02 +2.56759170e-02 +8.40129629e-02 +6.64112344e-03 -1.02012850e-01 -6.20796047e-02 +3.14045623e-02 -4.15692888e-02 -3.03384177e-02 +8.30349401e-02 +9.77371857e-02 +4.54456657e-02 -6.86065629e-02 -4.28531170e-02 -3.05761341e-02 -3.42705194e-03 +2.38772817e-02 -6.26228899e-02 -3.07248849e-02 +9.22185183e-02 +6.51614666e-02 -1.21535221e-03 -1.89580899e-02 +5.63431643e-02 +2.14414801e-02 +5.50201349e-03 +8.65964666e-02 -3.67142521e-02 -5.23816459e-02 -9.66412574e-02 -9.31460485e-02 +3.80244665e-02 -8.31627995e-02 +4.90084328e-02 +7.39742145e-02 +2.55555194e-02 +7.03016892e-02 -4.03962173e-02 -1.56221548e-02 -6.23621941e-02 -4.28726003e-02 +7.34909102e-02 -8.20535123e-02 +4.11920510e-02 -1.00738987e-01 +5.04300781e-02 +2.74703465e-02 -3.93632539e-02 -6.96000829e-02 +2.07466390e-02 +9.31488574e-02 +6.97061792e-02 -9.95209813e-02 +7.89719820e-02 -9.77457315e-02 -8.08241889e-02 -8.32259059e-02 -1.01976544e-01 +6.20936938e-02 +5.32500781e-02 +7.19261123e-04 -3.25070083e-04 +3.97245102e-02 +2.74651349e-02 +3.26835103e-02 -1.05873875e-01 +5.94864599e-02 -2.54299790e-02 -1.99051313e-02 -6.42455742e-02 +1.00219816e-01 -1.04465134e-01 -5.61613813e-02 -1.08080758e-02 +3.90149727e-02 +1.50867999e-02 +4.01982944e-03 +1.78541522e-02 +5.26089631e-02 +9.85874534e-02 -3.92199308e-02 +2.00764760e-02 +1.98596995e-02 -5.54695539e-02 -7.24849403e-02 -6.95737749e-02 +6.49476796e-02 -4.13775109e-02 +9.18655396e-02 -2.11557699e-03 -8.80378336e-02 -9.66782570e-02 -6.34153485e-02 +5.88094592e-02 +1.05070407e-02 -5.21875657e-02 +7.22168982e-02 +4.28107828e-02 +4.17524874e-02 +5.06907031e-02 -1.02172449e-01 -4.79357988e-02 -6.01286776e-02 +3.12941298e-02 +6.96329176e-02 +9.22458842e-02 -1.81336757e-02 -4.44297493e-02 -6.98978230e-02 +1.94763578e-02 -7.58829191e-02 +5.36101647e-02 +3.04153152e-02 -9.54973996e-02 +1.02290541e-01 +7.51795769e-02 +6.80817291e-02 -7.37752672e-03 -7.54627166e-03 +1.39204571e-02 +6.57785460e-02 -4.12020348e-02 +8.64205509e-02 +3.66478488e-02 -5.74364252e-02 -8.69898945e-02 +7.21118525e-02 +4.82195914e-02 -9.65748802e-02 -6.20732233e-02 +7.47047067e-02 -3.49037871e-02 -6.74132258e-02 -1.67778209e-02 -1.77135039e-02 +9.05411541e-02 +5.80703244e-02 +6.87254816e-02 +1.67608354e-02 -2.81274077e-02 +9.10163224e-02 +9.63018164e-02 +4.55254316e-02 +5.97637035e-02 -5.93494326e-02 -6.01373985e-02 -4.82436903e-02 +9.81505066e-02 -5.14234304e-02 -1.04857810e-01 -3.40289809e-03 -7.53078312e-02 +6.59055710e-02 +8.08542371e-02 -2.45580263e-02 -6.62176087e-02 +5.23525383e-03 -8.52272585e-02 +6.63220808e-02 +8.13043937e-02 -9.13291201e-02 -9.68743116e-03 +8.06057453e-02 +4.67221066e-02 +6.68700933e-02 +7.77659714e-02 +1.00792944e-01 +5.16862310e-02 +1.00584574e-01 +4.01527695e-02 +7.13203624e-02 +6.06569164e-02 -8.56813863e-02 +1.76847111e-02 -1.59992427e-02 +8.73623565e-02 +8.40041414e-02 +7.09009692e-02 +8.51179063e-02 +2.70745018e-03 -9.10592377e-02 -3.54010686e-02 -9.43190157e-02 -6.31091073e-02 +6.44470528e-02 +6.07015528e-02 -8.03473312e-03 -9.93281826e-02 -8.54457989e-02 +3.69455665e-02 +8.15706477e-02 -2.71387119e-03 -5.65061532e-02 +6.54704943e-02 -1.00584589e-01 +2.80815568e-02 -4.36956733e-02 +1.00567952e-01 +9.67091247e-02 +6.13127686e-02 +2.69923527e-02 -2.05320083e-02 +2.64146682e-02 -7.98741505e-02 -5.53742936e-03 +7.41231441e-03 -3.45629491e-02 +7.86300898e-02 +5.59684113e-02 -2.09885873e-02 -1.03305198e-01 +5.61285615e-02 -4.39449959e-02 +5.47293834e-02 -1.05630063e-01 -3.04377284e-02 +1.07179649e-01 -2.17029415e-02 +9.26634297e-02 +3.69172841e-02 +4.79694344e-02 -7.32542872e-02 +9.91814211e-02 +2.10246239e-02 -4.97967601e-02 +7.35216439e-02 -2.88188476e-02 -8.27010255e-03 +7.96607062e-02 +9.75716412e-02 -4.65255082e-02 -4.61999141e-02 -1.22295711e-02 +3.69252190e-02 +6.97894692e-02 +5.14569394e-02 -4.70223539e-02 +2.68031135e-02 -3.86189371e-02 -4.72919643e-02 -9.73404646e-02 +4.32722941e-02 +1.01219982e-01 +1.00862123e-01 +6.24247380e-02 +7.55402446e-02 +5.32322489e-02 -7.09116608e-02 -3.38119790e-02 +6.11109212e-02 +1.31344865e-03 -4.50512953e-02 +2.71686409e-02 -9.04496685e-02 -5.34002902e-03 +8.70031565e-02 +1.23393815e-02 -1.00713238e-01 +7.12504312e-02 +2.97318343e-02 +4.92742099e-02 -6.79146349e-02 -3.57119329e-02 -6.99105933e-02 -4.21577953e-02 +4.09573577e-02 +1.54355820e-02 +3.93098630e-02 +5.73478080e-02 -8.60770494e-02 +8.56572986e-02 +8.79104286e-02 +9.49416906e-02 +9.09491722e-03 -2.79094130e-02 +4.15076017e-02 +6.05032407e-02 +1.02715539e-02 -1.87998451e-02 +5.15576042e-02 +3.62679996e-02 -9.91646498e-02 -1.68176983e-02 -6.80073127e-02 +1.05413690e-01 -1.25983637e-02 +9.26949605e-02 -3.26434821e-02 +8.40079039e-02 +6.50750995e-02 -2.48508919e-02 +5.71345277e-02 +9.41804945e-02 -6.07088841e-02 +4.16537188e-02 -3.05269640e-02 +1.25592835e-02 -8.71034786e-02 +1.97269097e-02 -2.22747382e-02 +9.08881575e-02 +3.27786580e-02 +2.87579950e-02 +1.79504547e-02 -1.87693126e-02 +4.69549093e-03 -8.17967430e-02 -1.61581747e-02 +1.04134955e-01 -9.82304215e-02 -2.95801684e-02 +5.92892431e-02 +8.82695541e-02 -2.33314149e-02 -1.08349755e-01 -1.96380541e-02 -7.65061453e-02 -6.12502508e-02 +7.89553951e-03 +6.28323331e-02 +2.73324288e-02 +7.81305805e-02 +5.54804690e-02 +9.83686820e-02 +9.97950584e-02 +5.07185310e-02 -8.80001113e-02 +1.07859252e-02 -1.12068728e-01 -7.53369927e-02 +1.09222587e-02 +3.11209150e-02 +9.46596116e-02 -9.54721123e-02 +3.44166160e-02 -9.33206379e-02 +1.04245059e-01 +5.69390282e-02 -7.28771091e-02 -1.28113301e-02 +7.70361051e-02 -6.13006614e-02 +4.76510599e-02 -7.69307911e-02 +1.22487582e-02 -6.92088008e-02 -8.42102021e-02 +3.16889361e-02 +3.81198861e-02 +1.06001601e-01 +2.63691843e-02 +2.46832147e-02 -4.03840467e-02 +4.42875363e-02 +9.83605608e-02 +7.69890919e-02 +1.58861671e-02 +2.96265222e-02 +8.92836452e-02 -2.90064961e-02 +8.28667656e-02 +9.18871686e-02 +3.11707873e-02 -3.65236811e-02 -9.08461660e-02 -6.74652979e-02 +1.08929537e-01 -6.23849668e-02 +1.85633358e-03 +1.75015833e-02 -5.52796237e-02 -5.18576317e-02 -2.33776048e-02 +9.89187956e-02 +1.99031876e-03 +9.33065563e-02 -5.53789027e-02 -3.44506688e-02 +7.88138285e-02 -8.07034969e-02 -7.57298470e-02 -5.89181557e-02 +7.63842687e-02 +6.12997524e-02 +8.05535242e-02 -2.77454890e-02 -4.07849886e-02 +6.18534721e-03 +8.27770308e-02 -6.94654584e-02 +2.36024316e-02 -8.15383494e-02 -3.00496947e-02 -8.73655379e-02 +1.46607915e-02 -7.82895908e-02 -5.02186641e-03 -2.78310440e-02 -7.60740861e-02 -1.05103128e-01 +5.74787473e-03 -1.27748977e-02 +8.65527615e-02 +6.39653131e-02 +1.67082939e-02 +6.91507980e-02 +7.91207552e-02 +5.89360297e-02 +7.41281509e-02 -2.80517153e-02 -3.38735506e-02 -8.19991082e-02 +1.15289809e-02 +8.00521150e-02 -9.55614261e-03 -5.60408719e-02 +8.43665078e-02 -9.93653461e-02 -1.69496126e-02 -4.40987386e-02 -9.45993662e-02 +9.06258821e-02 +3.69707383e-02 +7.54771829e-02 -9.76895094e-02 -1.17236911e-03 -4.27052118e-02 +8.36963300e-03 -7.86476955e-02 +7.10272044e-02 -3.60698104e-02 +7.05867186e-02 +1.03865810e-01 -6.43139780e-02 -9.02871937e-02 -2.25706715e-02 -9.71497521e-02 +2.09758524e-02 -4.01008166e-02 +5.32632954e-02 -4.42952402e-02 +7.48515576e-02 +9.17835832e-02 -2.24032942e-02 +6.30807877e-02 +4.23162542e-02 +9.89724100e-02 -3.76206450e-02 -4.69824597e-02 +9.14446712e-02 -6.38927296e-02 -4.32004668e-02 -8.04609656e-02 +8.40211660e-02 +9.60907936e-02 +2.54703369e-02 -1.05859615e-01 +9.83941928e-02 -5.73811382e-02 +6.01957589e-02 +2.42677163e-02 +1.07648456e-02 -3.86750400e-02 +5.43672219e-02 +5.07033728e-02 +7.23619461e-02 -1.06863908e-01 -8.99282917e-02 -5.94940968e-02 +7.67149106e-02 -5.27701117e-02 -3.90174687e-02 +7.38589615e-02 -9.16633010e-02 -8.30835029e-02 -3.75275090e-02 +5.11084124e-02 -2.13346928e-02 -1.50786396e-02 -3.94639261e-02 -4.44969945e-02 -5.47961034e-02 -9.90927741e-02 +8.13595429e-02 -3.57828401e-02 -4.08458076e-02 +2.67603695e-02 +8.86312947e-02 +7.43990811e-03 +8.89000893e-02 -4.38837335e-03 -3.34034264e-02 +3.16249207e-02 -4.11631651e-02 +8.40875655e-02 -3.68752331e-02 -1.06862955e-01 +3.29031795e-02 -8.74888003e-02 +5.39577715e-02 +1.03798598e-01 -7.64654130e-02 +9.71894860e-02 -4.75839600e-02 -6.79963753e-02 -4.33160439e-02 -7.12895319e-02 +4.09083627e-03 +8.88677686e-02 -5.93750961e-02 -7.87294507e-02 +1.15081882e-02 -1.04868479e-01 +1.04759090e-01 -7.05749393e-02 +5.47528677e-02 +6.56895638e-02 -1.02800667e-01 -3.57735343e-02 +9.36531350e-02 -1.00256592e-01 +9.04188305e-03 +3.77472676e-02 -5.05620129e-02 -2.89398730e-02 +8.81006494e-02 +1.89999789e-02 +1.01720542e-01 +8.73278826e-02 -2.31647193e-02 -3.31527591e-02 +5.06522469e-02 -5.16991655e-04 +1.01983614e-01 -9.99269411e-02 +1.05398953e-01 +9.56928208e-02 -9.46509838e-03 +3.01558319e-02 -8.99669342e-03 +7.52278268e-02 -3.65983471e-02 -7.54017010e-02 +3.81826311e-02 +9.64567289e-02 -3.22538503e-02 -2.13260110e-02 -8.00589621e-02 -5.92657737e-03 -1.15087430e-03 -7.16148913e-02 -1.48253480e-03 -3.78028899e-02 -7.18008354e-02 -1.52832158e-02 -8.95544589e-02 +7.40973726e-02 +5.83844595e-02 -7.58054405e-02 -1.04631037e-02 +9.98594463e-02 -3.60841081e-02 -9.63260233e-02 -6.45732880e-02 -7.77834132e-02 -1.35532133e-02 -3.96880955e-02 +4.97205295e-02 +3.88011076e-02 -7.23153800e-02 -4.30344604e-02 +8.57661590e-02 +1.01193236e-02 -9.93519425e-02 +5.00546023e-02 -7.90936053e-02 +4.52738553e-02 -9.67358500e-02 +2.98200026e-02 -6.71732984e-03 -4.27400544e-02 -7.92829543e-02 -7.55076855e-02 +6.31228685e-02 +5.48217148e-02 +2.99119856e-02 -2.94356830e-02 +4.71155979e-02 +9.04868990e-02 -6.20725788e-02 -3.78787629e-02 +6.62805960e-02 +2.54225526e-02 -4.25836109e-02 +2.46368665e-02 +4.54449002e-03 +4.56709303e-02 -8.56299847e-02 -4.54053134e-02 -7.11470172e-02 -7.77982026e-02 +1.97474919e-02 +1.06626943e-01 -5.42545319e-02 +4.06531952e-02 +4.73264158e-02 +9.31053795e-03 +2.49750260e-02 -2.45227735e-03 +4.45598848e-02 +4.11601402e-02 -4.41840068e-02 -2.41356641e-02 -3.67544852e-02 -2.31414512e-02 -2.90778447e-02 -3.81197892e-02 -9.12132263e-02 -3.16815749e-02 +4.69822437e-02 -9.56213917e-04 +6.48204461e-02 +6.03628717e-02 +7.68198147e-02 +7.54205808e-02 -6.90380409e-02 +5.69986589e-02 +5.14127240e-02 -6.45037442e-02 +3.57608981e-02 +7.00681731e-02 -8.58574584e-02 +7.03293160e-02 -5.33956885e-02 +1.02618104e-02 -4.38290797e-02 +9.79461595e-02 -1.25534926e-02 +1.11267060e-01 +1.00258645e-02 -7.58105069e-02 -7.03691244e-02 +3.55680548e-02 -1.04570985e-02 +5.69468774e-02 -4.38545533e-02 +7.58762136e-02 -1.04281749e-03 +1.86052918e-02 +4.06137444e-02 +7.59694651e-02 -8.55616555e-02 -8.46332312e-02 +4.58659567e-02 +8.77442583e-02 -1.22068357e-02 +8.96089077e-02 -1.11241192e-01 +6.54022098e-02 -1.97896864e-02 +8.34946632e-02 +3.03364042e-02 +2.56936401e-02 -6.92737922e-02 -2.47485302e-02 +5.21144345e-02 +6.09300844e-02 +8.16414412e-03 +3.54201756e-02 +1.00907655e-02 -2.26997994e-02 +9.72027406e-02 +5.02736829e-02 +6.15452453e-02 -2.14948296e-03 -1.08586010e-02 -9.10010263e-02 +8.75285268e-02 -1.52989919e-03 -9.66998637e-02 +9.08017457e-02 +1.83990728e-02 +5.24234362e-02 +3.99474613e-02 +4.62230928e-02 +7.62841031e-02 -9.80660692e-02 +1.80632435e-02 -5.28355986e-02 +3.46019454e-02 -5.62257990e-02 +9.38014835e-02 -2.67896522e-03 -9.69840139e-02 -6.65281937e-02 -5.81697263e-02 +8.61139148e-02 +8.90110880e-02 +8.41164663e-02 -4.77859750e-02 +1.25975870e-02 +4.02876586e-02 +1.80436559e-02 -4.37972732e-02 -5.84449433e-02 +9.61098149e-02 +1.00985296e-01 -8.16510320e-02 +8.15055817e-02 -2.12053861e-02 +6.62340075e-02 -1.02516145e-01 +9.01569948e-02 -1.40178353e-02 -2.18653884e-02 -8.35207328e-02 -9.25896466e-02 +5.07985614e-02 +6.76128939e-02 +2.41306853e-02 -1.96059179e-02 +5.64514883e-02 -1.86202880e-02 +6.57922179e-02 -3.81456316e-02 +6.00887239e-02 +3.90627980e-02 -1.57345627e-02 -1.18752541e-02 +3.69619355e-02 -8.11211020e-02 -5.99955656e-02 -1.66444089e-02 -5.45066372e-02 +7.73489550e-02 -7.60557875e-02 +1.59540586e-02 -1.00913659e-01 -5.01659773e-02 +6.05093352e-02 -6.79138005e-02 -7.64371231e-02 +7.05993623e-02 +1.51333855e-02 +3.10068429e-02 +9.19390172e-02 -8.06157216e-02 +1.08365631e-02 -3.01285870e-02 -1.06279552e-01 -4.19780612e-02 +1.22448253e-02 -2.05037817e-02 -8.20230767e-02 +4.26457748e-02 -8.18717480e-02 +1.03598975e-01 -2.57025864e-02 -4.03637178e-02 -6.95731491e-02 +3.46331634e-02 -3.65667529e-02 -2.91142669e-02 -6.86557442e-02 -1.10721672e-02 +2.17519328e-02 +9.46724415e-02 +2.67886873e-02 -1.00721173e-01 -5.60139716e-02 -9.84015465e-02 -4.40944359e-02 +1.01149276e-01 -6.18300177e-02 +6.84684664e-02 +9.06298161e-02 +9.86344442e-02 -1.06491046e-02 +5.73598184e-02 +4.16834280e-02 +3.67955603e-02 +7.52712935e-02 -6.90749511e-02 +9.21284184e-02 +6.60435408e-02 +8.57151020e-03 +1.03808902e-01 +3.34917046e-02 +6.16339967e-02 -8.88268054e-02 +3.89826484e-02 -1.87649243e-02 +8.33031088e-02 -1.27515430e-02 -7.98769221e-02 +6.81864247e-02 +1.41662732e-02 +6.12336472e-02 +3.45885456e-02 +3.93391587e-02 -1.63496509e-02 +3.20675001e-02 +1.06185563e-02 -6.41035959e-02 -9.59039852e-02 -9.15467739e-02 +5.48800034e-03 +6.50779065e-03 +2.83758696e-02 -9.15757716e-02 -7.64045417e-02 +1.00669429e-01 -2.34247837e-02 -1.50166322e-02 -2.07011737e-02 -3.55674792e-03 -7.76358396e-02 +2.00398993e-02 +6.99237138e-02 -8.70326683e-02 -8.24891999e-02 +3.88431288e-02 +1.79929901e-02 -5.10994717e-02 +6.05770946e-02 +8.68423507e-02 -6.55518323e-02 -7.51471147e-02 +2.60287262e-02 -1.59618892e-02 +8.39817747e-02 +1.57183614e-02 +2.19124760e-02 +7.77343437e-02 -5.08049615e-02 -9.52994451e-02 -4.53965403e-02 -4.35660034e-02 +2.36264598e-02 +9.41658840e-02 -8.93584862e-02 -4.65640686e-02 +1.00872576e-01 +9.22568589e-02 -5.53512275e-02 +2.36010365e-02 -2.01473646e-02 -7.94906244e-02 -5.37573360e-03 -6.68222979e-02 -5.59069477e-02 -9.71681625e-02 +3.80666405e-02 -6.07197732e-02 +4.30725552e-02 -8.41182619e-02 -6.19748011e-02 -4.52236608e-02 -2.14608177e-03 +8.86671171e-02 -9.98343825e-02 +1.54165654e-02 -8.49413350e-02 -1.06016822e-01 +7.28519782e-02 +5.66853769e-02 -8.69071186e-02 -8.78608897e-02 +1.73822660e-02 -8.31001848e-02 -1.24363452e-02 -5.40475100e-02 +2.25291848e-02 +7.84836635e-02 +4.58926931e-02 -5.75295743e-03 +6.35820627e-02 +6.22818060e-02 -1.95541568e-02 -6.04810379e-03 -1.01089492e-01 +7.60452673e-02 -7.04265013e-02 +8.05464908e-02 -7.29231909e-02 -3.00594848e-02 +2.53859106e-02 +9.74338129e-02 +2.66874842e-02 -6.38696877e-03 +5.79065606e-02 +2.53931377e-02 +6.11683428e-02 -5.31576015e-03 -4.23184559e-02 -7.61702061e-02 +2.10840534e-02 -2.35970672e-02 -8.96404311e-02 +1.05289511e-01 -3.08076553e-02 +6.98139966e-02 -1.92618482e-02 -2.41825618e-02 -9.00796428e-03 +1.52726984e-02 -6.22733012e-02 -6.33637467e-03 +7.43351728e-02 -7.77154267e-02 +4.26739231e-02 -8.23759586e-02 -6.72485903e-02 -2.79098772e-03 +1.05529174e-01 -1.30405230e-03 -5.72743267e-02 -6.21690974e-02 +4.71781794e-04 -5.89263961e-02 +1.87249221e-02 +8.27637240e-02 +2.31646467e-02 +8.68714526e-02 +1.00483254e-01 -4.67927679e-02 +7.36415526e-03 +3.54608931e-02 +4.92649972e-02 -6.32578507e-02 -5.64748198e-02 +9.57584903e-02 +7.01040700e-02 +5.09485379e-02 +1.03864834e-01 -8.11566859e-02 +1.99358482e-02 +5.96537441e-02 +3.45334001e-02 +1.05523262e-02 -5.30844815e-02 -3.13074812e-02 +2.55868882e-02 +7.59777650e-02 -8.11461434e-02 -6.74001053e-02 +5.23538142e-02 -4.23388779e-02 +9.08940583e-02 -1.58566833e-02 +8.94272998e-02 -7.87681788e-02 +4.00678031e-02 +1.31533910e-02 -1.04132399e-01 +1.59318876e-02 +7.43552968e-02 +3.92426923e-02 -3.32571492e-02 +2.70742700e-02 -8.61433670e-02 +7.88440108e-02 -8.70646536e-02 -4.33879942e-02 +8.36708397e-02 -8.56478815e-04 +9.76173878e-02 +8.60610418e-03 -1.98586397e-02 -4.07821909e-02 +6.86734319e-02 +4.40120809e-02 -3.60013880e-02 +2.58505139e-02 -5.85092269e-02 +1.21001350e-02 +1.02983505e-01 +1.07715964e-01 -1.95981674e-02 -2.78665926e-02 +1.01878025e-01 -1.48808230e-02 -1.07652113e-01 -1.11610405e-02 -3.01173469e-03 +7.90425837e-02 -8.47902149e-02 +9.01516080e-02 +9.99991298e-02 -2.43446901e-02 +5.62464893e-02 -1.68033794e-03 -7.24408170e-03 -8.80823433e-02 +7.78066292e-02 +7.86941573e-02 -7.77627304e-02 +8.91485810e-02 -1.76622178e-02 +6.30088598e-02 -5.13941087e-02 +9.98181775e-02 +2.17242306e-03 +1.09679915e-01 +7.25104585e-02 +4.32816073e-02 +8.82015005e-02 -8.79848227e-02 -4.48426791e-02 +1.08471876e-02 -9.58327800e-02 +7.60633871e-02 +6.16521649e-02 -4.60907631e-02 -5.41872084e-02 +6.98840097e-02 +2.63516977e-02 -3.78177054e-02 -1.00944616e-01 -4.02253047e-02 +8.36665109e-02 +9.97664258e-02 -1.00559615e-01 +9.55395997e-02 -6.83624819e-02 -3.42728123e-02 -2.16183942e-02 +3.04297339e-02 +3.76599492e-03 -8.39984640e-02 -5.95558546e-02 +4.75564115e-02 -1.02942057e-01 -8.80419612e-02 -1.86421834e-02 +2.65290719e-02 -1.91826969e-02 +8.14175010e-02 +5.26562966e-02 +8.73657688e-02 -6.13494553e-02 -5.30898012e-02 +2.84893978e-02 -2.35502385e-02 -2.78077237e-02 -7.04589635e-02 +9.32747871e-02 -6.76835179e-02 -6.01992719e-02 +7.73861036e-02 -2.52475664e-02 -6.15621125e-03 +3.61485183e-02 -8.39979574e-02 -5.23424260e-02 +1.53296944e-02 -8.28944147e-03 -1.03868045e-01 +7.79224113e-02 -3.27642225e-02 -9.69473645e-02 -2.49947198e-02 +7.85010457e-02 +2.21044738e-02 -7.34584080e-03 -4.31543635e-03 -7.40229785e-02 +1.03923967e-02 -9.23005790e-02 -8.05198923e-02 +4.71058935e-02 +7.03416467e-02 -3.86509895e-02 -1.00363217e-01 -7.64357969e-02 +2.95962091e-03 -4.43054438e-02 +1.19288014e-02 +8.60582367e-02 -9.56419781e-02 -4.48353998e-02 -3.34174559e-02 +6.59911409e-02 +6.53176755e-02 +3.44683379e-02 -1.02090329e-01 +8.57704729e-02 -3.02631743e-02 +5.00525348e-02 +8.95550568e-03 +1.06279194e-01 -1.02759697e-01 +8.73367563e-02 -8.86423513e-02 +7.35434517e-02 -8.89765918e-02 -8.77981540e-03 -1.02007367e-01 -3.12692635e-02 -6.12644330e-02 +4.18579988e-02 +1.85602345e-02 +4.10253108e-02 -8.04616585e-02 +7.81318173e-02 -2.79586725e-02 -2.05209162e-02 +9.76882204e-02 +1.02738172e-01 +2.75753718e-02 +5.83621440e-03 -1.04193911e-01 +1.99959576e-02 +7.71968439e-02 -8.23767036e-02 +2.82692444e-02 +9.17504951e-02 -8.43513086e-02 -9.07598361e-02 +1.00194708e-01 +4.66933288e-02 +6.49298448e-03 +3.10633276e-02 -3.20941545e-02 -6.80152848e-02 -1.32303117e-02 +7.47363130e-03 -8.86275396e-02 -2.42608879e-02 -5.53703643e-02 -3.75608653e-02 -1.04451351e-01 +6.59915358e-02 -6.33453727e-02 -7.51387402e-02 -6.27911389e-02 +6.02466464e-02 +5.95852099e-02 +6.61552846e-02 +1.68088116e-02 -9.16238595e-03 +1.69667676e-02 -5.44626378e-02 -4.14020792e-02 +5.29828668e-03 -3.74611542e-02 -4.50359210e-02 +8.01727995e-02 -7.63167888e-02 +3.96634229e-02 -7.91756958e-02 +9.88686159e-02 +1.59269087e-02 -1.33271646e-02 +1.74470351e-03 +1.04132406e-01 +4.32891250e-02 +2.09124628e-02 -7.46796727e-02 -9.17028412e-02 -8.55852365e-02 +6.83884397e-02 -2.76474794e-03 +9.99870300e-02 -5.91242127e-02 +3.78722064e-02 +1.08140698e-02 +8.07628110e-02 -7.67154023e-02 -8.72683898e-02 -7.56607354e-02 +9.20727924e-02 +5.98875172e-02 -3.63358147e-02 -5.65118343e-02 -7.29495212e-02 -4.77615446e-02 -1.02476910e-01 +5.29280417e-02 -7.87451267e-02 +3.08008399e-02 -1.68388076e-02 -9.75491256e-02 -5.09492755e-02 -1.05696321e-02 -2.17859820e-02 -8.48288983e-02 -1.01808846e-01 -8.74650702e-02 +9.94706824e-02 -1.55711276e-02 +8.79718214e-02 -1.03076875e-01 +6.38056546e-02 +7.28114024e-02 +9.06075090e-02 +3.95894684e-02 +5.94608150e-02 +7.30597526e-02 -4.64721434e-02 -8.61003529e-03 +3.03355996e-02 -1.75880082e-02 -4.52398509e-02 +2.39052381e-02 +6.23388365e-02 -5.39123453e-02 -1.70518626e-02 +8.17970634e-02 -3.47691923e-02 -1.04940265e-01 -2.10807770e-02 +6.27227426e-02 -3.86690646e-02 -3.57985198e-02 -9.84306857e-02 +6.50564805e-02 +6.18273467e-02 -7.24359229e-02 +5.63928187e-02 +6.36988282e-02 +1.07632220e-01 +1.01919174e-01 +7.85864219e-02 +8.89018700e-02 -4.44126651e-02 -4.05280851e-02 +8.65284875e-02 +6.05813786e-02 -8.91688764e-02 +8.33546668e-02 +4.25885357e-02 +2.00047102e-02 -9.19401795e-02 -8.32306594e-03 +1.96091589e-02 -1.47902863e-02 +2.56754421e-02 -6.95676953e-02 +8.08212757e-02 -9.76428017e-02 +1.34829311e-02 +8.94438475e-02 +7.19142631e-02 +1.93929002e-02 -7.78344125e-02 +1.33784367e-02 -3.41701917e-02 +7.33457282e-02 +8.54118839e-02 -1.06617987e-01 +9.51503962e-02 -7.93791842e-03 +2.94604339e-03 +8.55769366e-02 -6.05611764e-02 -8.05778503e-02 +8.11730176e-02 -5.81829064e-02 -4.19528224e-02 -2.49335002e-02 +1.97648611e-02 +2.78949142e-02 +9.61921513e-02 +3.52495387e-02 -2.52111051e-02 -5.47816977e-02 +8.13323930e-02 +5.80884404e-02 +9.11886692e-02 -5.60956113e-02 +9.11138803e-02 +6.28194911e-03 +8.54437426e-02 -7.05569535e-02 -8.58580321e-02 +8.22412521e-02 -2.77387090e-02 -4.89861071e-02 -8.32337514e-02 -8.82611200e-02 -5.29212467e-02 -8.18382576e-02 +4.00268994e-02 +7.63615174e-03 +2.45336648e-02 -4.22525667e-02 +4.46826443e-02 +2.58264598e-03 +1.33985300e-02 +2.33431589e-02 +5.76413125e-02 -3.02752219e-02 +8.44765455e-02 +5.59706986e-02 +7.92755261e-02 -9.32957698e-03 +1.66352978e-03 -1.01103164e-01 -6.07683770e-02 +8.69436562e-02 +1.13977499e-01 +1.22489920e-02 -7.73648098e-02 +1.31266415e-02 -8.87691379e-02 +4.59531210e-02 -1.06905885e-02 +4.83410507e-02 -7.65554085e-02 -7.70612359e-02 -1.77326333e-02 +1.68524459e-02 +3.31936684e-03 -2.90568974e-02 +8.62613767e-02 -2.48027723e-02 -2.45878324e-02 +8.43472108e-02 -2.09862273e-02 +1.85794234e-02 +3.27341594e-02 +1.77502558e-02 +3.43181007e-02 +9.24192443e-02 -3.52998003e-02 -4.35885973e-02 +3.04354932e-02 +8.38272497e-02 -9.78834406e-02 +1.00910597e-01 -5.06772920e-02 -1.01246238e-01 -6.76755235e-02 -5.18923905e-03 +1.62141193e-02 +3.02394945e-02 -1.71242971e-02 -2.89765350e-03 -2.83240750e-02 -2.41449401e-02 -1.45661961e-02 -9.59239155e-02 +2.10919026e-02 +8.97906795e-02 +8.58162064e-03 -5.20787686e-02 +8.23546275e-02 +8.74082148e-02 -7.16183037e-02 -5.31426370e-02 -1.34662688e-02 -2.04716511e-02 +1.91202096e-03 -7.38258362e-02 -8.76234844e-02 +5.36767468e-02 +6.08970076e-02 +9.86213014e-02 -3.85456756e-02 +6.03502244e-02 +2.85116173e-02 +7.20961690e-02 +6.65689483e-02 -7.41945580e-02 +5.03695793e-02 +6.65615723e-02 -3.80556993e-02 -8.48657936e-02 +8.52782726e-02 +7.46326223e-02 -5.25169075e-02 -8.55370313e-02 -4.48341966e-02 +9.05049294e-02 +6.97037429e-02 +1.22370804e-02 +9.95346680e-02 +4.22584154e-02 +1.07194185e-02 -6.99952394e-02 +4.11210023e-02 +7.61197731e-02 +8.37186072e-03 +1.29484022e-02 -3.42150815e-02 -8.55289102e-02 +7.51591995e-02 +9.50530171e-02 -8.54975507e-02 +4.04656380e-02 -9.24243964e-03 +5.34276739e-02 -3.21450420e-02 +2.33415514e-02 +6.25652224e-02 +8.23332742e-02 +1.07229196e-01 +8.83050729e-03 +3.30163613e-02 +9.47726294e-02 -1.32347457e-02 -8.00760835e-02 +9.28531066e-02 +7.45196417e-02 -4.74520512e-02 -8.52131471e-02 +9.17755663e-02 +7.62176588e-02 -7.38428114e-03 +9.92066190e-02 -4.85088443e-03 +9.72356647e-02 +6.37541041e-02 -6.51919022e-02 +3.62801962e-02 +4.20687906e-03 +1.00287318e-01 -1.46106575e-02 +6.99855462e-02 -5.85356504e-02 +8.53079930e-02 -5.11456542e-02 -8.54181498e-02 +8.55922773e-02 +1.03604764e-01 -9.72575992e-02 -9.47432145e-02 +5.09439409e-02 -2.32654158e-02 +1.24109294e-02 +7.15115145e-02 -1.81159452e-02 -1.11261569e-02 +9.35469121e-02 -8.34484920e-02 +2.01702397e-02 +9.10267085e-02 +2.42090579e-02 +1.61267426e-02 +3.88074387e-03 -6.19915389e-02 -6.32898957e-02 -1.68249272e-02 -2.93509178e-02 -4.72235754e-02 +7.42935687e-02 +1.05051205e-01 +5.00175804e-02 -5.25514074e-02 -1.05530210e-01 -1.83950532e-02 +4.31366973e-02 +5.36128283e-02 -8.35910663e-02 +8.61881953e-03 +7.43909776e-02 -2.76167430e-02 +3.79044525e-02 -4.36917432e-02 +4.90663899e-03 -9.36771482e-02 -1.96977295e-02 -6.10445477e-02 +1.04755629e-02 +6.57616481e-02 -7.21145701e-03 -1.69685087e-03 -8.07516836e-03 +1.46849023e-04 +8.30216184e-02 -2.04778221e-02 +1.06947027e-01 -8.62674266e-02 -2.69947480e-02 -2.55638529e-02 -7.74626657e-02 +7.20079988e-02 +2.56195422e-02 +4.01643142e-02 +8.90995041e-02 +6.50866553e-02 -8.08057096e-03 +5.70648955e-03 -4.28516679e-02 +6.13147430e-02 -1.09494179e-02 +8.79588351e-02 +9.32491478e-03 +3.91383609e-03 -3.71041261e-02 +3.36072892e-02 +4.50489018e-03 -8.32548141e-02 +5.21521121e-02 -6.37281239e-02 +2.14037951e-02 -3.97722460e-02 -1.00435056e-01 -5.94770201e-02 -7.03727975e-02 +7.91047662e-02 -4.08198638e-03 -8.97238478e-02 -7.54866078e-02 +1.32092712e-02 +9.19289440e-02 -8.69371742e-02 +2.05221828e-02 +1.01452552e-01 -9.68011916e-02 -2.36352682e-02 -2.70785261e-02 -5.96314967e-02 +8.46464783e-02 +6.71396405e-02 +2.58301757e-02 -8.06431696e-02 -9.89059359e-02 -7.62911886e-02 +3.47035788e-02 +6.51130974e-02 +1.02366442e-02 +5.36841117e-02 +1.17229633e-02 +2.75418106e-02 +6.13734918e-03 +7.63069764e-02 -7.31447414e-02 +1.48191806e-02 +2.45484542e-02 -1.04305461e-01 +5.44872247e-02 -9.22268927e-02 -1.55159459e-02 +8.30493420e-02 -7.11745322e-02 +2.43138839e-02 -6.89930841e-02 +1.05611630e-01 +9.65293124e-02 +1.45677123e-02 +1.08752921e-01 -8.61865357e-02 -9.05437320e-02 -8.92797671e-03 -4.67772670e-02 +1.83150768e-02 +5.25736846e-02 -9.65063553e-03 +6.78945258e-02 +5.36283590e-02 +3.75480093e-02 +1.06220171e-01 +6.00607321e-02 -8.77651945e-02 +1.49739059e-02 +6.70842081e-02 -7.00280666e-02 -4.99780290e-02 -1.10154087e-02 +1.05900683e-01 +1.77350896e-03 -2.78464202e-02 +8.85663107e-02 -9.24349949e-02 +7.16757849e-02 -9.70263928e-02 +2.70726141e-02 +8.15899670e-02 +7.86418095e-02 -1.23473387e-02 -1.08612217e-01 +7.56182298e-02 -6.87909052e-02 +8.11726321e-03 -5.83619736e-02 -3.96085866e-02 -1.55500909e-02 +5.89500032e-02 -2.52113938e-02 -6.23623878e-02 -7.11114407e-02 -7.90930316e-02 -5.15838750e-02 +8.12682360e-02 +2.17434336e-02 -6.51771799e-02 +7.64373643e-03 +3.55943330e-02 -2.79566199e-02 -5.07977884e-03 +6.74377158e-02 -7.84879103e-02 +9.73896086e-02 -5.44885509e-02 +9.18825567e-02 -9.00426582e-02 -5.24755605e-02 -1.13153331e-01 -6.41972646e-02 +4.73315120e-02 -6.54764399e-02 -6.28075898e-02 -8.17275271e-02 +5.24499156e-02 -4.74648317e-04 +8.17344114e-02 -9.31764022e-02 -3.05894539e-02 -6.42509758e-02 +1.02066971e-01 +1.13322102e-02 -1.03365272e-01 +4.58095521e-02 -2.12068968e-02 +8.36926997e-02 -1.06233535e-02 +5.31909335e-03 +4.89064008e-02 -7.84901902e-02 +3.92403780e-03 +5.16492911e-02 +6.13938756e-02 -6.32767752e-02 +1.00601658e-01 +4.20542434e-02 +8.22104290e-02 +5.04505150e-02 -5.79961464e-02 -4.40111607e-02 -9.68199670e-02 +3.21979597e-02 -4.82507274e-02 +6.70539737e-02 -1.20596029e-04 -2.49656960e-02 +1.68969873e-02 +2.95438594e-03 +4.92863506e-02 -5.77957183e-02 -1.72349403e-03 -1.71399638e-02 +6.17839545e-02 +1.29280509e-02 -6.36846339e-03 -5.48650697e-02 +3.35588604e-02 -3.40848789e-02 +7.34132603e-02 -5.05866893e-02 +1.00926131e-01 -5.33490553e-02 +7.17631355e-02 -6.19734265e-02 -8.36548582e-02 +5.33637293e-02 -3.45295528e-03 -6.41441196e-02 +1.00966796e-01 +4.51337593e-03 -5.08772656e-02 -7.60427937e-02 +8.89614969e-03 +8.31894726e-02 -6.94813803e-02 -9.92352664e-02 +1.72970444e-02 +8.53055939e-02 +7.89422542e-02 +9.36016142e-02 -1.64647563e-03 +6.18742444e-02 +2.15126127e-02 +7.28798211e-02 +5.93454875e-02 +1.00859404e-01 +2.90377159e-02 +1.06191091e-01 -4.97566536e-02 +8.79246444e-02 -4.96162213e-02 -1.04099952e-01 +3.22337635e-02 -4.88363765e-03 +1.42148957e-02 +3.09915710e-02 -9.74548534e-02 -6.43588901e-02 -1.06401972e-01 +8.22708085e-02 -5.75401969e-02 +1.03261657e-01 +6.57953620e-02 +1.84978161e-03 -5.63259758e-02 +6.93975464e-02 -5.65717965e-02 +7.97689110e-02 -5.56248333e-03 -8.23981017e-02 -1.00745320e-01 +6.47109672e-02 -5.43617867e-02 +9.37782750e-02 -9.73528624e-03 +6.05280418e-03 -8.23236033e-02 +1.06913097e-01 +1.30751627e-02 +5.54355346e-02 +3.87078077e-02 +1.85545478e-02 -1.01368926e-01 +4.52181278e-03 +9.28640068e-02 +1.86099056e-02 -9.80074257e-02 -4.08270247e-02 -8.25802162e-02 +8.44731331e-02 +5.60013391e-02 +9.50244144e-02 +8.34317133e-02 +4.76116389e-02 +9.41511840e-02 -9.39957798e-02 +1.04061566e-01 -9.44716930e-02 -7.71828294e-02 +6.23732433e-02 +7.77652860e-02 -4.12595272e-03 +8.71466547e-02 +4.92604747e-02 -2.69043054e-02 -1.05282687e-01 -5.95894232e-02 +8.07567984e-02 +5.36371488e-03 -9.08460394e-02 -8.52475688e-02 +5.99376671e-02 -5.38284071e-02 +5.06707951e-02 +7.24132285e-02 +1.39480340e-03 +1.26587516e-02 -3.35802399e-02 -8.70960504e-02 -4.53414693e-02 -9.62681845e-02 +6.47930875e-02 -8.33366141e-02 -4.99164201e-02 -5.79551347e-02 +7.71716759e-02 +1.96088105e-02 +3.99949066e-02 +9.15353447e-02 +8.38408619e-02 -6.92847883e-03 +6.45520762e-02 -7.10023800e-03 +2.07763314e-02 -5.59365526e-02 -1.00728184e-01 +6.67424425e-02 +2.30397210e-02 +6.43986335e-04 +3.40213925e-02 +4.28621806e-02 +7.17247277e-02 -5.99983968e-02 -2.32639574e-02 -7.15688020e-02 +6.84974045e-02 -4.54405360e-02 -7.85932913e-02 +8.64058062e-02 -5.34746721e-02 -1.07353650e-01 +1.09270168e-02 +2.24639829e-02 +1.06004521e-01 -9.68657583e-02 -1.61978789e-02 +6.49153292e-02 +4.24574763e-02 -4.41166200e-02 +5.92396557e-02 -1.21356715e-02 -1.11803990e-02 -3.77381220e-02 +3.50590087e-02 +6.56215176e-02 +1.25201102e-02 +1.02630807e-02 -1.86030399e-02 -1.64288320e-02 -8.56346563e-02 +9.04857814e-02 +2.19633020e-02 -7.76898935e-02 -7.19543248e-02 +1.13673992e-02 -4.50008325e-02 +1.03505716e-01 -8.46866965e-02 -2.59236544e-02 +5.66979311e-02 -8.51942152e-02 +2.59751324e-02 +9.51902568e-02 -3.31663676e-02 