#Parameter# /vanilla-lstm-builder_1/_0 {320,200} 1024001 ZERO_GRAD
-4.44180146e-02 -9.32245106e-02 +8.60642269e-02 -1.04681402e-02 -1.05279811e-01 +6.31006435e-02 -8.06780234e-02 +6.14493266e-02 +2.67719105e-02 +8.07485506e-02 -3.21319997e-02 +5.93484417e-02 +9.81007516e-03 -9.92458984e-02 -3.48571464e-02 -5.79243861e-02 -5.23105711e-02 -5.06942384e-02 +5.70379570e-02 +3.75092253e-02 -6.02459088e-02 +5.69030270e-02 +5.44951931e-02 -6.79730326e-02 -4.55055460e-02 -6.04113899e-02 -1.41210109e-02 +1.48091465e-02 -6.70429468e-02 -9.84474197e-02 +8.83003101e-02 +9.39497128e-02 +6.03651330e-02 +1.06663115e-01 +9.45299640e-02 -8.23824704e-02 +1.14585683e-02 -1.00470394e-01 +3.52345183e-02 +6.40316233e-02 -1.16251633e-02 +8.47758278e-02 +9.81045738e-02 +4.67750803e-02 -1.01386920e-01 -5.68745136e-02 +5.49760461e-03 +4.09438983e-02 -2.11845189e-02 -9.68433022e-02 +9.65727046e-02 -1.03966415e-01 +1.05649196e-01 -5.23511581e-02 -9.63995382e-02 -7.97173753e-02 -2.03396454e-02 +5.83361834e-03 -2.39226595e-02 +8.96554962e-02 +9.42411646e-02 +7.99282864e-02 -1.14722326e-02 +3.07477787e-02 +3.67448851e-02 +8.45436379e-02 +7.47326687e-02 -7.27112889e-02 +4.91955951e-02 +2.61060372e-02 +1.01411097e-01 +2.76705399e-02 +8.80935788e-03 +1.44423172e-02 -1.96633935e-02 -3.16064954e-02 +1.01041265e-01 +3.21480408e-02 +5.86808249e-02 -8.58669356e-02 -8.44282433e-02 -9.26745459e-02 -8.60034227e-02 -9.19557586e-02 -1.72968507e-02 +6.76766038e-04 +7.28695914e-02 +7.24142715e-02 +8.98847654e-02 +3.63204107e-02 +4.92220894e-02 -2.14403719e-02 +5.35078719e-02 -7.49943331e-02 -7.93457925e-02 -7.50149041e-02 +6.43050596e-02 -5.98969646e-02 -4.13772389e-02 +3.25471684e-02 -9.66697112e-02 +2.70936862e-02 +5.73257431e-02 +9.18774307e-03 -6.01822957e-02 +1.04380026e-02 +6.50666282e-02 -7.41845518e-02 -1.16351992e-03 -5.55547066e-02 -5.31588718e-02 -1.04738899e-01 +3.73474434e-02 +1.80725083e-02 +1.36936158e-02 -7.66549855e-02 +5.55220246e-03 -5.90815917e-02 +2.17250213e-02 +9.97097269e-02 +9.48226228e-02 -6.21881448e-02 -4.14192677e-04 +8.65599588e-02 -5.36412559e-02 -4.80950847e-02 -7.45614395e-02 -4.83895764e-02 +7.82811716e-02 -7.28896409e-02 -9.72545892e-02 +3.12130153e-03 +2.49522999e-02 +3.65422592e-02 -2.57733464e-02 +2.99578086e-02 -1.18385330e-02 -8.02590251e-02 +2.00510770e-03 +2.31365338e-02 +9.32573751e-02 +3.88759002e-02 +1.01949163e-01 +1.15762204e-02 -9.77475792e-02 -1.25163943e-02 -9.17534009e-02 -5.06746583e-02 +8.78740624e-02 +3.14487442e-02 +7.76407644e-02 -5.89925162e-02 +2.15068236e-02 +8.26863423e-02 +4.42722365e-02 +4.40228730e-03 +9.26419869e-02 -1.01841688e-01 -1.00190766e-01 +1.51708722e-03 +8.10656324e-02 -2.77266726e-02 +8.11792985e-02 +2.10179612e-02 -5.95639646e-02 +3.03521678e-02 -4.41876799e-02 +6.91875890e-02 -1.82822347e-03 -6.50564283e-02 +6.74667731e-02 -9.83395427e-02 +2.02658698e-02 +1.06751911e-01 +8.38058665e-02 -4.40358073e-02 -3.35260481e-03 +1.62857100e-02 -9.60295126e-02 -4.06183377e-02 -4.98563796e-03 +1.03730924e-01 -1.20763108e-02 -9.45847183e-02 -5.67739457e-03 +1.04735099e-01 +7.72996992e-03 +1.32655278e-02 -8.73005390e-02 +2.63738260e-02 +7.58064017e-02 +2.68324837e-02 +8.39410797e-02 -1.01306483e-01 -2.83970460e-02 -1.45031810e-02 +4.23129126e-02 +8.03880468e-02 -7.94991553e-02 +1.54765621e-02 +1.06503181e-01 +4.70290557e-02 -4.72824760e-02 -7.19762743e-02 +6.62718043e-02 -9.56258923e-02 -8.68738145e-02 -1.16541162e-02 +2.58251503e-02 -5.45761138e-02 -8.75203907e-02 +6.98223710e-04 +4.69796732e-02 -8.64776298e-02 -8.89054015e-02 +2.11932436e-02 +1.40901431e-02 -7.18468800e-02 -3.20508778e-02 +4.17921469e-02 -5.64209260e-02 -1.17053539e-02 +1.65244490e-02 -1.00090273e-01 +2.61714533e-02 +8.31741467e-02 +6.30649999e-02 +2.74631605e-02 -2.53544748e-02 +6.57018647e-02 -1.06669523e-01 -7.08956346e-02 -6.75134808e-02 -2.86039412e-02 +4.72750887e-02 +4.61399630e-02 +1.06334165e-02 +1.42530948e-02 -3.95679697e-02 -6.85997382e-02 +3.74227762e-03 +5.52197769e-02 +3.93024161e-02 -5.97178936e-04 +6.74677268e-02 +4.58961055e-02 -1.97210908e-02 +5.36409393e-02 -8.51145983e-02 +2.15070918e-02 -7.21590072e-02 -3.26734781e-02 -2.99013779e-02 -1.06029443e-01 +5.48304692e-02 +4.15775403e-02 -8.02938938e-02 -3.63044962e-02 +1.09204575e-02 -1.20261908e-02 -2.71462128e-02 -2.11000815e-02 +3.76353189e-02 -1.05480440e-01 -7.84919709e-02 -2.35024020e-02 +9.53261331e-02 +6.66912124e-02 -9.27545875e-03 -9.02410597e-03 -3.97225544e-02 -5.80753013e-02 -4.88615148e-02 -5.98004349e-02 -6.30913451e-02 -9.39215273e-02 +6.90578893e-02 -2.47802660e-02 -5.22318259e-02 -9.71553624e-02 -1.55907422e-02 -1.61074325e-02 -7.46669769e-02 +6.36538938e-02 +1.96282491e-02 +5.93111739e-02 +1.08356923e-02 +6.39050454e-03 -3.86626422e-02 -9.66059417e-02 -5.33313192e-02 -2.34758407e-02 -2.97337472e-02 +8.92682895e-02 -2.43200809e-02 +6.32546172e-02 +1.56759769e-02 +6.46231696e-02 -8.33290890e-02 +5.21232933e-03 +6.11574575e-02 +3.49346474e-02 +1.83152929e-02 -1.00951269e-01 +9.63097140e-02 +3.69856879e-02 -1.58331841e-02 +6.48168400e-02 +4.95914742e-02 +1.14233568e-02 +3.10942754e-02 -4.47596684e-02 -6.52134567e-02 -7.13758916e-02 -9.17802900e-02 +3.72363701e-02 -9.35709849e-02 +9.17519405e-02 +7.09345415e-02 +3.74898314e-03 +4.11965623e-02 +2.42675468e-02 +1.02718525e-01 -5.93863912e-02 +4.39058915e-02 -4.76635583e-02 +9.09228846e-02 -1.70608386e-02 -1.39119923e-02 +6.61444142e-02 -7.29820877e-03 +1.04471616e-01 -8.15306753e-02 +8.48225579e-02 +9.62489322e-02 +4.92149368e-02 +7.89560154e-02 +5.92836365e-02 -2.00593248e-02 +2.45530084e-02 +8.36372152e-02 +3.97585705e-02 -1.63957402e-02 -7.85164908e-02 -1.06216900e-01 +8.81579444e-02 +1.06923990e-01 +5.98743334e-02 -7.70540908e-02 -7.76273534e-02 -7.52830356e-02 +2.23952308e-02 -6.60295933e-02 -1.03237025e-01 -3.70927677e-02 +5.34834787e-02 +6.44119903e-02 -1.67126730e-02 -1.44427195e-02 -8.80859420e-02 +3.99895385e-02 +1.25959218e-02 -8.17945153e-02 +2.14354172e-02 -3.97149846e-02 -2.78759748e-03 +4.94682714e-02 +2.64525786e-02 +9.55686048e-02 -2.10751519e-02 +7.35525563e-02 +7.86524042e-02 -1.60558224e-02 +5.46397492e-02 +6.04282692e-02 +2.54143402e-02 +1.00866325e-01 -3.23953182e-02 +3.65040824e-02 -3.10031995e-02 -8.86708498e-02 -8.55230242e-02 -1.81904286e-02 -6.93840533e-02 +1.68688893e-02 +1.49532557e-02 -6.78131431e-02 +3.80405709e-02 +7.88652375e-02 -9.90110710e-02 +1.21848285e-02 -1.03484407e-01 -9.53808725e-02 +7.77181759e-02 -6.70215786e-02 +2.86606327e-02 +8.64757225e-02 +2.35233083e-02 -9.04190540e-03 +1.01789840e-01 -7.38388002e-02 +7.31389299e-02 -5.92915565e-02 +7.09660351e-04 -3.52778584e-02 +2.11492181e-03 -6.29267693e-02 +4.91776392e-02 +7.71379396e-02 -3.79704535e-02 +8.56246725e-02 +1.01681583e-01 +9.21166167e-02 +7.56377056e-02 +4.46470156e-02 +8.95919278e-02 -2.21933722e-02 -6.93395734e-03 -6.53964505e-02 -4.30293232e-02 -2.99366862e-02 +5.35291433e-03 -7.01101124e-03 -4.37044427e-02 +1.42945647e-02 -7.15230182e-02 +8.93666670e-02 +9.89869460e-02 -6.79820403e-02 -6.98299706e-03 +7.00782016e-02 -4.24596891e-02 +4.84744459e-03 +6.47920296e-02 -1.92595273e-03 +8.06806013e-02 -9.61361304e-02 -1.30654275e-02 -7.83653185e-02 -7.71498531e-02 -6.17139675e-02 +5.79433218e-02 -7.45507777e-02 +9.43751112e-02 -1.42311081e-02 -5.17842472e-02 +1.35569274e-03 +7.37890676e-02 +2.60771438e-02 -5.40675335e-02 -7.99720362e-02 +3.36745307e-02 +7.94871077e-02 +6.18127212e-02 +1.47301033e-02 +7.35743418e-02 -6.97688758e-02 +7.27878883e-02 +2.41571888e-02 +7.66254887e-02 +2.37134919e-02 +5.76796606e-02 +3.02690044e-02 +3.15861627e-02 -4.28038239e-02 +8.07172284e-02 -2.35320926e-02 -2.24431455e-02 +8.78387466e-02 +5.06401062e-04 +1.62967071e-02 -7.79863223e-02 +8.12562630e-02 -2.03457251e-02 +8.45653936e-02 -7.40808249e-02 -1.06188476e-01 -2.40987763e-02 +1.34645328e-02 -3.35970446e-02 -8.93486962e-02 -3.48317251e-02 -9.41302255e-02 +1.03839852e-01 -1.87039301e-02 -5.77400066e-02 +1.24711767e-02 +9.78844985e-02 -7.95499980e-02 -9.11429524e-05 +4.12651971e-02 -2.87481174e-02 -8.28457475e-02 -5.84714115e-04 -8.48405212e-02 +4.57850322e-02 -5.16009815e-02 +5.22918254e-03 -2.52917111e-02 +4.20857295e-02 -4.49268557e-02 +6.71491995e-02 -1.10594332e-02 +5.93402907e-02 +9.70842689e-03 +5.57168797e-02 -4.85324822e-02 +1.03477158e-01 -1.02494262e-01 -6.09953478e-02 +1.46289915e-02 +3.98515165e-03 +1.01840056e-01 +6.03653416e-02 +1.04746483e-01 -9.51574743e-03 +5.85883632e-02 -5.65292649e-02 +3.31166610e-02 -4.71559875e-02 +6.03944287e-02 -6.09642714e-02 +4.98143658e-02 +7.00960085e-02 -9.53478664e-02 -3.23825330e-03 -1.05087616e-01 +7.54871890e-02 -5.37226349e-03 -8.46613199e-03 +3.76492515e-02 +4.44234684e-02 -2.34954357e-02 -6.82757646e-02 +7.32766613e-02 +3.76386717e-02 +6.01367727e-02 +5.36134318e-02 -4.99188080e-02 -2.42530704e-02 -5.67896031e-02 +4.43347767e-02 +5.36316261e-02 +8.32800642e-02 +8.17307457e-02 +5.45580164e-02 -8.04371163e-02 -2.78118998e-03 +5.52325025e-02 -9.25132111e-02 +3.18753347e-02 -6.12527877e-02 -7.76038468e-02 +5.33207282e-02 -3.84865776e-02 -9.33737606e-02 +6.61725625e-02 -4.24852669e-02 -6.93102181e-02 -3.00774053e-02 +8.27481523e-02 -7.51280040e-03 -1.80796012e-02 -8.89816731e-02 +3.82219926e-02 -7.81924948e-02 -9.06809121e-02 +6.92010894e-02 -9.59208459e-02 +1.34379491e-02 -3.52901071e-02 -3.72939035e-02 +1.06371842e-01 +7.26323798e-02 +3.92539725e-02 +6.84225932e-02 +1.47886053e-02 +9.12256762e-02 -6.97837174e-02 +4.37845513e-02 -1.77662745e-02 -4.18861285e-02 -7.90806040e-02 -3.86248305e-02 +8.22000206e-04 -3.23050097e-02 -7.61343613e-02 -4.61431146e-02 +2.53055170e-02 -7.62171075e-02 -6.77027553e-02 +1.88779458e-02 -1.21934637e-02 -3.77597809e-02 +9.22202691e-02 +2.23452523e-02 +4.81954142e-02 +1.99800208e-02 -8.38934109e-02 +1.92649588e-02 +4.37355414e-02 -7.94969946e-02 +4.50106636e-02 -1.21153891e-03 -9.61702317e-02 +3.26811001e-02 +8.70476142e-02 -4.70439158e-02 -2.81036943e-02 +6.02051541e-02 +8.19905847e-03 -8.30231979e-02 +1.80668309e-02 +3.58127132e-02 -2.81234384e-02 +6.61693290e-02 +1.03384562e-01 +8.18205252e-02 -5.09393476e-02 -6.31938130e-03 -9.03336108e-02 +7.95118585e-02 -6.44753277e-02 -5.52564636e-02 -6.38843030e-02 +9.14964601e-02 +5.88785782e-02 +3.17932293e-02 -1.96557343e-02 -1.27101317e-02 -8.44813809e-02 -6.60151541e-02 -1.01540685e-02 +7.61518851e-02 +6.74186721e-02 -7.17004836e-02 -2.32255086e-02 -5.40863723e-03 -8.04431289e-02 +8.15068185e-03 -3.86072397e-02 -4.91409190e-02 -5.28840236e-02 -5.90813048e-02 -8.50907639e-02 +6.63979352e-03 -5.39795831e-02 -4.17406484e-02 +1.07276656e-01 -6.96675330e-02 +7.65512511e-02 -5.70622906e-02 -1.56849846e-02 -1.36927143e-02 +2.17690989e-02 -6.86262101e-02 -8.61913785e-02 +8.58153328e-02 +4.26342562e-02 +1.05419137e-01 +3.86930332e-02 +4.22985926e-02 -4.48090360e-02 +3.74430940e-02 +6.29505739e-02 +3.70804444e-02 -8.54717717e-02 +8.48738179e-02 +7.70580247e-02 +1.43085942e-02 -4.02974859e-02 +6.43543229e-02 -1.09552741e-02 -2.69618109e-02 -3.79151329e-02 +6.60175756e-02 -6.23006336e-02 +5.25959209e-02 +8.76956210e-02 +3.70386466e-02 +7.45706260e-04 -3.17298099e-02 -9.57910866e-02 -4.96840738e-02 -5.14322482e-02 +8.74914899e-02 +2.31209770e-02 +1.04831569e-01 -1.26866177e-02 -2.54434869e-02 -5.39614037e-02 -5.18985465e-02 +9.75203738e-02 +5.02350852e-02 +1.59159824e-02 +2.58674249e-02 +4.50951532e-02 -1.88452005e-03 +7.79280886e-02 +4.03126702e-02 -1.74685717e-02 +2.99174264e-02 -4.97117266e-02 -6.17292039e-02 +2.54965350e-02 -2.13634074e-02 -4.41632122e-02 -7.12617487e-03 -5.68865351e-02 -7.98394829e-02 +5.35785481e-02 +6.89717606e-02 -1.07162982e-01 -6.24413602e-02 -8.00312310e-02 -2.87412331e-02 -1.86988786e-02 -3.73511463e-02 +1.04350634e-01 -2.75303498e-02 -1.18994862e-02 -1.99104026e-02 -3.12182754e-02 -8.28031152e-02 -5.68757579e-02 +1.06289081e-01 +5.14846221e-02 +8.44493136e-02 +1.61845461e-02 +4.89762947e-02 +9.76138487e-02 -1.84534714e-02 -6.34806603e-02 +5.04557565e-02 -5.97911328e-02 -2.84048095e-02 +1.00907542e-01 +4.10005450e-04 -4.31640372e-02 +1.00233220e-01 -8.35727155e-02 +9.30162892e-02 +1.00287355e-01 -8.79063457e-03 -4.16967422e-02 +8.80302265e-02 -6.41854852e-02 -1.28640234e-02 +7.57110864e-03 -5.91378361e-02 +5.85998595e-03 +5.88994250e-02 +2.83008590e-02 -6.92010820e-02 +5.70332780e-02 +9.25263688e-02 +7.63099417e-02 -3.16571891e-02 -1.19881257e-02 +2.75218561e-02 +4.59469333e-02 +8.17444250e-02 +1.07232191e-01 +9.62139294e-02 +4.17300388e-02 +1.33697987e-02 +1.10515058e-02 +9.31519493e-02 -2.26862505e-02 +5.50246164e-02 -4.71288078e-02 -1.04954772e-01 -9.66654643e-02 -1.22325346e-02 +5.66899404e-02 -2.30242014e-02 -5.86018078e-02 -2.32532695e-02 -7.92206228e-02 -4.59091365e-03 +1.01901673e-01 +5.72763383e-03 -6.07100613e-02 +7.10263029e-02 -7.46446773e-02 -1.20799989e-03 +2.21274570e-02 +2.59579346e-02 -1.94174498e-02 -1.03855923e-01 -2.16237456e-02 -2.64225230e-02 +4.68033478e-02 -7.65241385e-02 -2.37227008e-02 +4.50966731e-02 +3.71062383e-02 +3.04444954e-02 -4.22797874e-02 -1.06368192e-01 -5.30678853e-02 -5.60805798e-02 -5.16522862e-02 -7.82838017e-02 -7.27614611e-02 +3.59011963e-02 -5.33461086e-02 +4.64215651e-02 +6.85632303e-02 -1.63478255e-02 +1.06702380e-01 +5.21769300e-02 -4.28969488e-02 +7.57028088e-02 +5.87528720e-02 +4.59460244e-02 -3.65827531e-02 -3.76729667e-02 +8.04032013e-02 -3.44635174e-02 -1.07364379e-01 -1.94856152e-02 +3.24130878e-02 -8.95723104e-02 +8.50323588e-03 +9.95761380e-02 +8.03727284e-02 +6.99834749e-02 -2.17881277e-02 +3.77516523e-02 -2.06000209e-02 +3.38448584e-03 +4.11694869e-02 -8.40342343e-02 -2.63291746e-02 -1.02136977e-01 -1.00647546e-01 -9.21129063e-02 +5.13452217e-02 +8.54267552e-02 -9.26284492e-02 -6.42296374e-02 -7.53910094e-03 +2.47967467e-02 -1.04074650e-01 +7.35366866e-02 +7.30056241e-02 -5.91525510e-02 -8.51483643e-03 +9.52289626e-02 -3.70656550e-02 -1.97331980e-02 -9.62168798e-02 -2.56893635e-02 -7.96841905e-02 +8.09383914e-02 -8.62143785e-02 -1.02007903e-01 -9.89049077e-02 -2.34889761e-02 -9.56306309e-02 +4.32187095e-02 -6.21855669e-02 +2.49493197e-02 +3.25868800e-02 +7.80450627e-02 -1.07596740e-02 -1.05519682e-01 -5.69262020e-02 +3.53845283e-02 +1.17958561e-02 -3.46286595e-03 +7.55540803e-02 -2.15446427e-02 +4.28552106e-02 +2.68687531e-02 +9.48315039e-02 +8.67262110e-02 +7.02550188e-02 -3.20813879e-02 +1.72277689e-02 +4.26164046e-02 -1.03647411e-01 +1.64779276e-02 +5.06048277e-02 +8.37162659e-02 +5.80928698e-02 +8.45182166e-02 -8.35159495e-02 +8.76196548e-02 +3.45493183e-02 -3.59920487e-02 +1.08790621e-02 -7.68186897e-03 +7.12746903e-02 -1.06499866e-02 -6.94491565e-02 -4.06848937e-02 +3.85458842e-02 -7.11990520e-02 -1.33000538e-02 +1.70410424e-02 -2.18479857e-02 -6.45595863e-02 +6.13123551e-02 +8.93780068e-02 -9.79318321e-02 +3.68131474e-02 -7.97069818e-03 +1.03564687e-01 +3.09315547e-02 -8.44737887e-03 +6.15969226e-02 -3.29762250e-02 +4.54485193e-02 +5.21902516e-02 +7.55215213e-02 +9.82194319e-02 +3.35485116e-02 +6.81883842e-03 -4.54191864e-03 -1.19636059e-02 -6.75857142e-02 +3.94359753e-02 +7.19731078e-02 -5.77757061e-02 -9.86959636e-02 +1.04260750e-01 +1.04070701e-01 -9.50421840e-02 -4.69048284e-02 +5.42620793e-02 +5.17873988e-02 -7.31825829e-03 -3.87280062e-02 -8.21482092e-02 -7.80864358e-02 +4.87208366e-04 -2.00677663e-02 +7.94527009e-02 -1.07169159e-01 +4.70907167e-02 +9.05456468e-02 -8.61961097e-02 +2.97834724e-03 -6.99527785e-02 -5.44940084e-02 +5.00043407e-02 -1.88830346e-02 -6.47626594e-02 +9.02989507e-03 -3.78946215e-03 -3.75781655e-02 -2.57020220e-02 -6.32990897e-02 +5.17919660e-04 -1.47458017e-02 +1.66445598e-02 -3.09801474e-02 +2.04289183e-02 +7.11922571e-02 -1.03604048e-02 -9.06693563e-02 +3.60254273e-02 +6.93535060e-03 -7.24558085e-02 +1.06253169e-01 +5.81700876e-02 +1.93890408e-02 +5.20751104e-02 +3.43015566e-02 -2.08399817e-02 +5.87191507e-02 -6.69488311e-03 -1.88800916e-02 -7.41662681e-02 -5.35672046e-02 -6.30961657e-02 +5.51829487e-03 -6.33724630e-02 +1.04106076e-01 -1.06301814e-01 +3.08729783e-02 -3.84055227e-02 -6.36458397e-02 -3.72862890e-02 -3.51905525e-02 -5.14101908e-02 +4.88893017e-02 -5.54423183e-02 -8.19636285e-02 -1.04297720e-01 -6.25961125e-02 +6.58179745e-02 -2.63667628e-02 +3.41434702e-02 +1.82743594e-02 +5.47518358e-02 -5.33553921e-02 +1.18795037e-02 -9.76236016e-02 -5.92830777e-02 +9.44624171e-02 +1.83094367e-02 +9.07567888e-03 +8.12111720e-02 -4.66592833e-02 -1.01839826e-01 +7.92308897e-03 +6.92577437e-02 +9.22625139e-02 -3.45323458e-02 -1.04481019e-01 +1.57290846e-02 -9.37431678e-02 -5.59197739e-02 +9.36457887e-02 -2.69145817e-02 -5.53636812e-02 -5.09293079e-02 -3.50610390e-02 -4.40409780e-02 +1.05469450e-02 -8.14753026e-02 -6.37174547e-02 +8.25868621e-02 +1.06554769e-01 +2.51943618e-03 +7.09843114e-02 +5.61252162e-02 -2.50446796e-02 -1.01838447e-01 +4.89597991e-02 +3.04307789e-03 +2.72160843e-02 +5.03028929e-03 -5.52394837e-02 +9.83571485e-02 -8.98077115e-02 +9.96608287e-03 +4.99327704e-02 +9.96086970e-02 +9.01677087e-02 -9.70375016e-02 -1.11482441e-02 -8.44584778e-02 -9.43689421e-02 +9.23401490e-02 -3.95424664e-03 +6.50945231e-02 -4.54121195e-02 +2.53107175e-02 -2.14070082e-02 -5.36479838e-02 +2.18686536e-02 -4.29833606e-02 +5.39081916e-02 +4.48544696e-02 +9.37662348e-02 +5.44402972e-02 -1.14929006e-02 -7.60223120e-02 +4.27385643e-02 -1.05045997e-01 -6.31268471e-02 +4.53600213e-02 -6.21580631e-02 -4.37551215e-02 +1.15921795e-02 +6.94325790e-02 +1.67669356e-03 -2.12137103e-02 +1.60244554e-02 +4.13711444e-02 -2.70625427e-02 +2.00979412e-04 +7.29115084e-02 -1.30795762e-02 -6.27742112e-02 +3.05706188e-02 -7.11579174e-02 +8.50167200e-02 +6.22313544e-02 -1.05378993e-01 +9.04879048e-02 -1.01436697e-01 -9.89777595e-02 -9.72775295e-02 +1.03086829e-02 +1.43829584e-02 +2.63997242e-02 +6.86860010e-02 +1.95963159e-02 -2.94604748e-02 +8.69426206e-02 +5.51954433e-02 +9.60828587e-02 -9.12187994e-02 +3.28369364e-02 -8.63373503e-02 +9.54081342e-02 -5.51311783e-02 +1.02231614e-01 -8.28540549e-02 -1.19509622e-02 -7.38596544e-02 -1.91703364e-02 +3.32671776e-02 +5.77313676e-02 +1.05094902e-01 -9.42559987e-02 +8.40669498e-02 +8.06196034e-03 -2.46901065e-02 +5.14448509e-02 +6.82727322e-02 +8.14104155e-02 +7.01873749e-03 -2.55017877e-02 +5.31048998e-02 -5.33201844e-02 -8.96088481e-02 -7.63729885e-02 -9.19619054e-02 +4.27760407e-02 -1.05233513e-01 +8.90857801e-02 +6.46504387e-02 +6.72449991e-02 -7.84141049e-02 +7.53779486e-02 +1.03968672e-01 -7.73170888e-02 +2.27103308e-02 -1.49181113e-02 +7.90498778e-02 +8.27148557e-03 -2.39170715e-02 +8.38205889e-02 +9.74437520e-02 -3.72827053e-04 +6.81566820e-02 +9.46734324e-02 +8.36735293e-02 +8.42753723e-02 +9.69357267e-02 -4.37448695e-02 +1.07265554e-01 -4.70867008e-03 +9.64777246e-02 +9.40591097e-03 -1.45362616e-02 -6.57434016e-02 -4.52332199e-03 +8.93361047e-02 +1.84620544e-02 +9.48646739e-02 -4.22729999e-02 +7.13702813e-02 +6.43070415e-02 -9.82841253e-02 +7.11371526e-02 +4.26146612e-02 -7.00965002e-02 -6.54609650e-02 -7.20539838e-02 -6.16049021e-03 +6.93438947e-03 +4.18955907e-02 -4.20958251e-02 +6.92732856e-02 +2.45062932e-02 +2.72426754e-03 -4.32518795e-02 +8.36726353e-02 -1.03687786e-01 +7.54783973e-02 -1.61414668e-02 +4.73167077e-02 +3.32091823e-02 +1.03294052e-01 +3.29324976e-02 -1.00258395e-01 +7.39884749e-02 +9.34043154e-02 +3.05164680e-02 -7.95785040e-02 +9.62583944e-02 -8.88944417e-02 +7.11018369e-02 +3.53270769e-03 -1.70299709e-02 +3.41087803e-02 -4.21017036e-02 -4.40706089e-02 +5.40584326e-04 +2.37720981e-02 +6.45374283e-02 -7.70152733e-02 +1.03967361e-01 +8.59183297e-02 -1.50431544e-02 +9.88124385e-02 +2.02272311e-02 +9.53525379e-02 -1.23616979e-02 +5.62115833e-02 -8.93194675e-02 -8.53750780e-02 -6.35888502e-02 -7.97213316e-02 +1.88284293e-02 +5.97448722e-02 +2.96270773e-02 +1.04349397e-01 +5.25011197e-02 +1.41321272e-02 +7.19540566e-03 -9.14654806e-02 -1.17389932e-02 -4.66168448e-02 +4.53087017e-02 +9.17260572e-02 -8.86140168e-02 -4.57046479e-02 -7.66933262e-02 -8.91100168e-02 -1.34352371e-02 +3.08417454e-02 -9.14346650e-02 +5.09657934e-02 +7.93605968e-02 -7.46182650e-02 -4.43745032e-02 -5.58864735e-02 -4.11239713e-02 +2.98059657e-02 +3.61889228e-02 -9.48586613e-02 -1.00560799e-01 -2.30262503e-02 -6.29033893e-03 +6.08254224e-03 -3.75272036e-02 -7.76518583e-02 +1.06793784e-01 -2.83435658e-02 -6.72111660e-03 -6.12834096e-03 -4.54519689e-02 -8.44925568e-02 +1.05494402e-01 -8.43405724e-02 +7.64488056e-02 +2.75979936e-03 -4.28047702e-02 -8.07407126e-02 +1.79104581e-02 -8.88591856e-02 +6.97245672e-02 -4.76329774e-03 +8.88326243e-02 -1.05015881e-01 -6.06627129e-02 +8.00616518e-02 +4.52201739e-02 +5.64414039e-02 -9.66434106e-02 -4.54460271e-02 +3.61431390e-03 -5.16930521e-02 -7.65293390e-02 +4.88357022e-02 +4.13539261e-03 -2.58880034e-02 +1.88663080e-02 -6.73520863e-02 -1.03127748e-01 +1.97064653e-02 -8.11750814e-02 +5.80441728e-02 -6.10321015e-03 -8.39700103e-02 +1.05311327e-01 +7.58042410e-02 -1.80505887e-02 -7.01272190e-02 -5.42272851e-02 +1.28079131e-02 -1.86510012e-02 +7.16498867e-02 +3.09579596e-02 +4.08002809e-02 +1.62577704e-02 +3.34010795e-02 +4.62381467e-02 -5.88402152e-04 +3.52829769e-02 -7.03203753e-02 +2.21898779e-02 -5.32509387e-03 -8.70834440e-02 -8.79009664e-02 -4.51643281e-02 +5.03013954e-02 +3.17559615e-02 +4.28896919e-02 -4.90536764e-02 -6.79486841e-02 -2.21336484e-02 -5.02255894e-02 +4.77065369e-02 +2.70552561e-02 +7.35990927e-02 +8.73789266e-02 +4.16466519e-02 -6.45644665e-02 +3.79053876e-02 -1.25163496e-02 +4.00571004e-02 +5.47091886e-02 +1.16282925e-02 -9.85325798e-02 +6.14674464e-02 -5.85271716e-02 -2.50240564e-02 -8.08505714e-02 -7.84880072e-02 +6.82738796e-02 -1.03180297e-01 -8.21115822e-03 +3.42256650e-02 +7.08966181e-02 +5.78760281e-02 +5.45225516e-02 +5.18422350e-02 +5.35597429e-02 +3.66198197e-02 +9.56918374e-02 +1.06041506e-02 +4.74826992e-03 +9.70381126e-02 -8.35232735e-02 -7.76149333e-02 +3.39205787e-02 -2.76264101e-02 +3.33830342e-02 +9.01053324e-02 -6.98683485e-02 -5.64383194e-02 -1.04094647e-01 +9.00211707e-02 +7.77674392e-02 +8.96849260e-02 -1.09405667e-02 -8.07599947e-02 +8.45126584e-02 +7.08847865e-02 +3.75292227e-02 -2.04623342e-02 -6.95349872e-02 -1.56359375e-03 +7.04976246e-02 -8.44466016e-02 -7.28668272e-03 -1.06601223e-01 +8.05438533e-02 +5.12322709e-02 -9.77289900e-02 +3.40319201e-02 -1.93448737e-02 +1.67049766e-02 -5.96311502e-02 +9.27819982e-02 +2.70919427e-02 -2.96330079e-02 +3.06323543e-02 +6.44758716e-02 +1.00285225e-01 +6.68158010e-02 -6.27132356e-02 -2.67943069e-02 +4.75189313e-02 +1.40533522e-02 -6.01553991e-02 -8.56258571e-02 +7.04499111e-02 -9.04469267e-02 +7.22148940e-02 -1.46869496e-02 -2.03780532e-02 -9.61597264e-03 -9.41375047e-02 -8.75286683e-02 +1.56948045e-02 +9.52148512e-02 +5.23504093e-02 -7.29329363e-02 -4.58648726e-02 -6.34304583e-02 -7.69399479e-02 +1.76243261e-02 +1.02845706e-01 -7.80591667e-02 -5.58839925e-02 -2.92116329e-02 +4.91883382e-02 +5.31488657e-03 -3.79321352e-02 -7.31013566e-02 +4.00698259e-02 +4.94217873e-03 -2.78397575e-02 -8.27028826e-02 -9.64221880e-02 -9.12725180e-02 -4.22587842e-02 +2.82037780e-02 -7.08004236e-02 +9.22042951e-02 +2.16254592e-03 -7.10984319e-02 +7.46834055e-02 +7.05865845e-02 +4.28028777e-02 +4.96119931e-02 +5.10751978e-02 -7.49640018e-02 -5.57252057e-02 -8.73160511e-02 -9.69044864e-02 +9.33110937e-02 -3.31311822e-02 -5.22409678e-02 +1.05159707e-01 +8.00777301e-02 -8.66895765e-02 -9.17287022e-02 -9.76569355e-02 -6.52790144e-02 -1.07240073e-01 +9.51841474e-03 -5.30519038e-02 +3.85390446e-02 +9.93013456e-02 +4.73300293e-02 +9.58361253e-02 +3.37770060e-02 +6.12007901e-02 -2.90894359e-02 -4.72905375e-02 +7.94426873e-02 -1.63909048e-02 +1.02676295e-01 -5.78944050e-02 -9.98123437e-02 +4.55230847e-02 +9.87011567e-02 +5.20706177e-04 -7.61346146e-02 -5.03046066e-03 -9.61389095e-02 -1.00774556e-01 +9.13837925e-02 +1.89086720e-02 +1.01423301e-01 +9.16641280e-02 -1.19285285e-03 -7.40127265e-03 +5.65567687e-02 -9.41009745e-02 +5.03174737e-02 +3.22826281e-02 +6.82865828e-03 -4.13231552e-03 +8.95987526e-02 -8.89488533e-02 -9.63210762e-02 +7.90584460e-02 +7.13421330e-02 -5.25996163e-02 +9.90033969e-02 +4.62185815e-02 -3.16855535e-02 -8.83985758e-02 -3.51814926e-03 -3.75057086e-02 +3.60384583e-04 +5.96595034e-02 +6.09462708e-03 +1.01650663e-01 +2.42879018e-02 +6.59571066e-02 +1.74188986e-02 +9.48240533e-02 +3.90342101e-02 +7.07601085e-02 +3.93145755e-02 -3.49360630e-02 -9.58095193e-02 -6.77530468e-02 +5.42649403e-02 -3.80859524e-03 +3.29664424e-02 +7.25170225e-03 +9.14348885e-02 +4.48492691e-02 +9.39732417e-02 -3.04722860e-02 +3.70493755e-02 +4.97849062e-02 -7.46622980e-02 -4.91030924e-02 -9.06397626e-02 +4.74408194e-02 -9.79271457e-02 -2.82256454e-02 +1.23390779e-02 -5.91029972e-03 +1.78150758e-02 +4.82372195e-03 -1.06428243e-01 +1.08715072e-02 +3.81540731e-02 +5.61844185e-02 +2.16602311e-02 -6.58454895e-02 -8.79392624e-02 +9.98789892e-02 -2.79908404e-02 -8.84247646e-02 -9.15647745e-02 -6.28862008e-02 -3.85781601e-02 -7.83348531e-02 +3.15091833e-02 +9.81514528e-02 +4.66452166e-02 -8.84234086e-02 -7.33787641e-02 +6.57370314e-02 -4.96734753e-02 +5.05777821e-02 -7.64386803e-02 -5.81636876e-02 -6.54933900e-02 +1.07224591e-01 -8.00045133e-02 -2.96650678e-02 -7.61350691e-02 +5.24832308e-03 -9.16805118e-03 -3.53089720e-03 +6.98792562e-02 -2.95974016e-02 +6.85973540e-02 +1.81256607e-02 -1.01900391e-01 -3.99131551e-02 -8.55114460e-02 -5.98606430e-02 -2.16178820e-02 -8.73514116e-02 -1.03968047e-01 -6.54590130e-02 -8.86363313e-02 +1.74841508e-02 +8.13590959e-02 +1.04871966e-01 +8.62330720e-02 -6.04547299e-02 -1.01533458e-02 +1.00973837e-01 -3.71901467e-02 +1.06295198e-03 -8.27422068e-02 -8.08004439e-02 +1.57087743e-02 -9.45736021e-02 -1.02799349e-01 +6.85419217e-02 -2.14601755e-02 -3.35087031e-02 +3.62481102e-02 -2.20491737e-02 +3.09179351e-02 +4.78020236e-02 -7.23086447e-02 +1.46605670e-02 -9.93298888e-02 -1.07158817e-01 -5.25899976e-02 -9.51046199e-02 +8.41090158e-02 +8.15454200e-02 -3.38574201e-02 -8.44837502e-02 -8.98034275e-02 +4.92051914e-02 +2.24980712e-03 -3.61572430e-02 -5.83117492e-02 -6.26434386e-03 +6.46032915e-02 -7.44919628e-02 +8.96254554e-02 +1.94962323e-03 +7.63228014e-02 -7.58361816e-02 +8.45459923e-02 -5.25077209e-02 +1.02271177e-01 -6.74427599e-02 +1.02217667e-01 +9.41804796e-03 -4.27992642e-03 +7.54519552e-03 -2.88546011e-02 +8.67858455e-02 +5.88416234e-02 -7.68239051e-02 -8.24090689e-02 +3.31377611e-02 +5.11509255e-02 +5.56573346e-02 +2.75277719e-02 -1.07328691e-01 -4.97006178e-02 +2.06202939e-02 +4.43319976e-03 -7.76883438e-02 -9.03321430e-02 -7.47463554e-02 +9.74906161e-02 +9.43168625e-02 -1.88718438e-02 -5.06867208e-02 -7.38576800e-02 +9.07659009e-02 +2.09060088e-02 -5.49316332e-02 +8.02243426e-02 -6.32096827e-03 +1.65280849e-02 -8.06850865e-02 -7.75382817e-02 -8.79874006e-02 +1.16285682e-02 +2.96861306e-02 -5.77389151e-02 +5.31415269e-02 -1.48499236e-02 -5.42640649e-02 -9.25851464e-02 -5.15014715e-02 -1.62692890e-02 -1.17432252e-02 +5.43199405e-02 +2.31575891e-02 -8.78955051e-02 -3.87627259e-02 +4.10709530e-03 -3.63873839e-02 +3.99563238e-02 +1.46429762e-02 +1.28691196e-02 -2.92223245e-02 +7.96396285e-03 +1.02934889e-01 +5.19370064e-02 +8.07803869e-03 +7.68319294e-02 +6.98245987e-02 +2.77855620e-02 -6.12749085e-02 +6.77855685e-02 -1.03641517e-01 -8.39203447e-02 +5.35355881e-02 +9.90197882e-02 +5.54330871e-02 -8.30478668e-02 +9.95290279e-03 -1.48891211e-02 -8.24234709e-02 -2.11198479e-02 +2.53551677e-02 -4.91788276e-02 +1.01725034e-01 -9.93318036e-02 +9.49916765e-02 -9.09196287e-02 -4.73952964e-02 +5.09610027e-03 -9.13447291e-02 -8.43756497e-02 +9.49642137e-02 +3.95773128e-02 -9.59655046e-02 +2.87337229e-02 +1.07957497e-02 -7.80642033e-03 +5.02946898e-02 +2.75233611e-02 -6.89615607e-02 +6.14221916e-02 -4.31318879e-02 -4.08424363e-02 +1.50875822e-02 -4.98721227e-02 +3.21675614e-02 +6.45820424e-02 +1.01597153e-01 +7.47631565e-02 -2.69942731e-03 -8.73630196e-02 +2.49816403e-02 -5.57389855e-03 -2.33571082e-02 +4.82565537e-02 +2.05917582e-02 +8.52781013e-02 +9.61130485e-02 +3.35592031e-03 -6.20807223e-02 +5.93120083e-02 +2.85825208e-02 +1.01409532e-01 -4.52385843e-02 +1.20458156e-02 +4.11801264e-02 +7.86468312e-02 +1.88617483e-02 +7.53996447e-02 +7.19108358e-02 +1.02203675e-01 -1.18900239e-02 -4.03178856e-02 -6.09202534e-02 -5.48192821e-02 -7.23480284e-02 +9.35664400e-02 +3.12158242e-02 +9.59802046e-02 +1.14599019e-02 -8.16807896e-02 +9.70015153e-02 -1.44555271e-02 -4.11805362e-02 +8.72507915e-02 -8.52524787e-02 -5.24720065e-02 -1.00199044e-01 -8.89559835e-02 -4.10839841e-02 +5.08068129e-02 -9.39697176e-02 +1.94685832e-02 +3.20661739e-02 -1.06199123e-01 -6.84400648e-02 -3.00920904e-02 -4.68551517e-02 -4.02161404e-02 -2.85249799e-02 +1.05863363e-02 -1.02815203e-01 +4.22952250e-02 +3.34520712e-02 +2.40086541e-02 +7.04581216e-02 -9.96021852e-02 +4.84029874e-02 -5.60540669e-02 +9.06232968e-02 +4.07000259e-02 +8.07300135e-02 +3.02000418e-02 +2.38117799e-02 +6.79738447e-02 +4.08812091e-02 -8.00064281e-02 +2.40616128e-02 -3.93494070e-02 -5.67009337e-02 +4.52604964e-02 -6.90274537e-02 +7.51075223e-02 -4.92920168e-02 -6.72787428e-02 +5.12971058e-02 -6.44224584e-02 -1.09587684e-02 +6.86075166e-02 +2.41050050e-02 -8.08142871e-02 +1.05144300e-01 -1.07340358e-01 -5.60300127e-02 -1.37342066e-02 -2.59011015e-02 +4.82329950e-02 -3.13685760e-02 +5.42719886e-02 +5.59479371e-02 +7.21553639e-02 +8.45952407e-02 +8.72844830e-02 -1.14046037e-02 -6.16948046e-02 -1.02567367e-01 -8.76729339e-02 -9.26121920e-02 +1.47731155e-02 +3.65557298e-02 +7.14267418e-02 -3.57475653e-02 -3.21006700e-02 +7.16474727e-02 -2.28956342e-03 +6.79491088e-02 -5.30042462e-02 -9.72232968e-02 +7.89579824e-02 -7.67143890e-02 -1.68627426e-02 +4.54974994e-02 -5.79806566e-02 -1.92916393e-02 -8.54051709e-02 -3.15976590e-02 +6.56229779e-02 +7.89237544e-02 -9.69619453e-02 -6.62498623e-02 +5.95038608e-02 -8.02680254e-02 +3.79913673e-02 -1.99868456e-02 -6.62873387e-02 -3.38784456e-02 +4.90287691e-03 -8.94856751e-02 -2.86445990e-02 -9.95366201e-02 -4.73033115e-02 -1.03025399e-01 -1.96422189e-02 +1.05922826e-01 +2.07530782e-02 -9.34664011e-02 -5.63849844e-02 +1.00261770e-01 +6.31273463e-02 -2.55164579e-02 -2.68925801e-02 -9.38865691e-02 +7.36096874e-02 -2.37216279e-02 -6.63233995e-02 -5.23356646e-02 -1.02821708e-01 -3.76866981e-02 -3.24623212e-02 -3.27485651e-02 -6.67363480e-02 +6.48971871e-02 -3.00251544e-02 +2.13014111e-02 -5.07528223e-02 -9.26956236e-02 +6.47942796e-02 +9.30744186e-02 +8.92478973e-03 -7.04978555e-02 +1.00614317e-01 -5.69924973e-02 +6.43905625e-02 +8.67131576e-02 -4.69404198e-02 +9.15304646e-02 +8.86620656e-02 -9.85573903e-02 +4.87653390e-02 -5.40591590e-02 -4.21165526e-02 +7.80927017e-02 +2.39615962e-02 +6.93374649e-02 -4.15816978e-02 -9.01075453e-02 -6.88138977e-02 +2.06275657e-02 +9.69573855e-03 +3.10853496e-02 +5.19328341e-02 +6.63542747e-03 -9.61185023e-02 -5.47949672e-02 -8.61481652e-02 +1.00596391e-01 +7.15777278e-05 -9.92903039e-02 -4.62561250e-02 -9.28471610e-02 +6.68983236e-02 -4.91722673e-03 -7.92200714e-02 -9.94154811e-02 -7.29251206e-02 +7.48270079e-02 -8.93483162e-02 +1.04305170e-01 -9.85881835e-02 -2.76524797e-02 +3.89741436e-02 +1.07373692e-01 -6.03151694e-02 +5.11382595e-02 +8.06042776e-02 -1.32995620e-02 -9.27273557e-02 +5.24817035e-02 +4.82873842e-02 -1.00459367e-01 -6.25274628e-02 +1.65330544e-02 +2.69342139e-02 +4.08426896e-02 +5.83226457e-02 -2.44358778e-02 +2.23793611e-02 +8.60179886e-02 -5.71226478e-02 +4.52791899e-03 -5.93110062e-02 -4.05011401e-02 +9.85830277e-03 -7.28803724e-02 +6.23640940e-02 +7.76633620e-04 +2.03185752e-02 +2.63258144e-02 +1.02279373e-01 +5.69341853e-02 +6.50595948e-02 -1.22131854e-02 -2.87127569e-02 +6.54950514e-02 -7.83593059e-02 +5.82829788e-02 +9.19160768e-02 +8.93937796e-03 +1.86689124e-02 -9.40798968e-03 -5.67477196e-02 +7.25802258e-02 -4.50506769e-02 +8.09493139e-02 -2.32092142e-02 -4.67958041e-02 -5.45847900e-02 +3.48341838e-02 +5.27036116e-02 +7.48027116e-03 +8.58451650e-02 +9.35413167e-02 -9.82357264e-02 -6.95021152e-02 -7.00630397e-02 -7.02726617e-02 -5.64949811e-02 +4.76459339e-02 +7.71003738e-02 -3.72906178e-02 +4.94523123e-02 -1.03062749e-01 +1.01274468e-01 -5.84629811e-02 +7.14839026e-02 +7.12876841e-02 -5.77756949e-02 -4.12072092e-02 -4.91339453e-02 +4.96961698e-02 -8.40884373e-02 -1.06818385e-01 +8.23310018e-03 +1.03346817e-01 -9.25630406e-02 +1.07256331e-01 +1.85737386e-02 -9.08443257e-02 +2.40803733e-02 +5.73108718e-02 -9.83653665e-02 +6.41201362e-02 -1.07175857e-03 -9.77338031e-02 -6.86424673e-02 -9.41825137e-02 -3.28229368e-02 -1.63605064e-03 +5.46909049e-02 +1.13660023e-02 -2.76843458e-03 -9.27093998e-02 -6.01900518e-02 +8.63100365e-02 +3.30757275e-02 -3.50002497e-02 +5.22421300e-03 -3.64376977e-02 -1.45630389e-02 +2.52329484e-02 -8.01289827e-03 +9.47697386e-02 -8.64262357e-02 +4.40187007e-03 -4.82574478e-02 -9.79738832e-02 +8.87046382e-02 -9.21265334e-02 +2.33363137e-02 -7.12281242e-02 +1.54807866e-02 +8.88998285e-02 -6.51220083e-02 -2.04660967e-02 -2.94655561e-04 -1.91457793e-02 -3.63799036e-02 -4.80530746e-02 -5.84681518e-02 -2.46617943e-03 +4.51497212e-02 +7.17349872e-02 -1.55855715e-02 +5.18149510e-02 +4.88574728e-02 +7.06923082e-02 -3.17631662e-02 -5.01084663e-02 +1.82915851e-02 -3.49068567e-02 -6.79490268e-02 +6.86646029e-02 -4.20808271e-02 -1.03944607e-01 -1.26398206e-02 +1.87893212e-03 -1.99823007e-02 -3.00705060e-02 +9.12667885e-02 -4.88766655e-02 -2.26262659e-02 -4.96699922e-02 -4.15097922e-03 -1.00738555e-02 +6.26653656e-02 -7.75260553e-02 -7.76287094e-02 -1.26463994e-02 -1.01026185e-01 -2.93805897e-02 +1.69112757e-02 +6.65463284e-02 -6.31223470e-02 -2.84815356e-02 +4.14326414e-02 -2.12606043e-03 -7.08063096e-02 +9.93904844e-02 +2.55353078e-02 -5.47975376e-02 +7.48701021e-02 -8.99604559e-02 +2.68513039e-02 +3.77550945e-02 -6.00393303e-02 +9.48758796e-02 -1.04839355e-02 +5.07477298e-02 +3.98102179e-02 +5.40830940e-03 -4.42693010e-02 -8.62372443e-02 -1.04826346e-01 -1.79113448e-02 +7.97565058e-02 +1.89790502e-02 +8.72434601e-02 -1.98081806e-02 -6.90640956e-02 +6.96762577e-02 +4.51871529e-02 -7.49575421e-02 -5.90870827e-02 -1.61425024e-03 -5.48875034e-02 +1.87789649e-03 -6.55638874e-02 +5.59084043e-02 -8.88466686e-02 -4.24276888e-02 +8.26747790e-02 -6.49206340e-02 -1.42491609e-03 -2.58183256e-02 -2.67157927e-02 +7.35661387e-03 +2.50926837e-02 +9.02168974e-02 -6.81189895e-02 -7.69377723e-02 +7.49261156e-02 +4.54731956e-02 -8.82285461e-02 -2.50043720e-02 +4.62244377e-02 +6.60474971e-02 +2.79891118e-02 +1.14891231e-02 -4.01750207e-02 +5.04905656e-02 +1.55861527e-02 +9.83752534e-02 -1.06862463e-01 -9.59330797e-02 +7.97845349e-02 +3.56617197e-02 +1.02054328e-03 -4.64373827e-02 +6.33304343e-02 -1.01095639e-01 -5.00967130e-02 -2.65827253e-02 +5.68453446e-02 -4.89241257e-02 +8.44722018e-02 +6.50009736e-02 +9.20124128e-02 -7.52311647e-02 +6.28855154e-02 -4.43056226e-04 +2.77798548e-02 +9.58023965e-03 -1.06789671e-01 +8.41166899e-02 -9.46815759e-02 -9.37354043e-02 -4.34571356e-02 +5.30830547e-02 +2.37048492e-02 +3.29130664e-02 +1.02895595e-01 +8.29213485e-02 -1.06702782e-01 +1.03630997e-01 +2.88584158e-02 -3.48776355e-02 +5.59812114e-02 +5.93349561e-02 -6.21650666e-02 -2.45411545e-02 +1.96317062e-02 +7.01691285e-02 -6.53640330e-02 -6.24853522e-02 -1.00073859e-01 -1.82077587e-02 -3.11045274e-02 +5.04246131e-02 -5.17984815e-02 +5.98366335e-02 +5.92551306e-02 -5.69994636e-02 -4.19593081e-02 -8.02878141e-02 +1.04205303e-01 -1.79897770e-02 -3.95300016e-02 -1.99137107e-02 -7.06464276e-02 +1.91029683e-02 -4.61785346e-02 -5.83804585e-02 -9.78285745e-02 +8.25844780e-02 -3.07347327e-02 +4.74471524e-02 +3.83988246e-02 +2.08036080e-02 +5.67965731e-02 -6.88223541e-03 -1.00475512e-01 -2.07882449e-02 +8.48068073e-02 +1.04586653e-01 +8.37441608e-02 -4.70749624e-02 +9.34976712e-02 +1.39750317e-02 +3.28225568e-02 -2.64626741e-02 +5.16596809e-02 -4.15494069e-02 +9.79072228e-02 -3.29915658e-02 +4.34560403e-02 +5.11423722e-02 -6.49989843e-02 -1.47187710e-03 +6.74402043e-02 -2.26217359e-02 +8.98638442e-02 -2.36727893e-02 +6.98097274e-02 +3.67500111e-02 +3.12225297e-02 +1.04327746e-01 -8.24217796e-02 -5.56999184e-02 -5.34435585e-02 +7.60627910e-02 -2.75539085e-02 -7.30684400e-03 +5.87542430e-02 +1.76109597e-02 +7.40769431e-02 -5.60418516e-03 +1.03455819e-01 -6.43667579e-02 +1.93619654e-02 -1.89976841e-02 +9.49166641e-02 -3.11495364e-03 +5.79603836e-02 +1.20319426e-02 -1.04571879e-01 -1.54882222e-02 +9.98281017e-02 +3.32617089e-02 +7.32242838e-02 -5.92589900e-02 +2.37572119e-02 +7.02474937e-02 +6.48785755e-02 -8.57736245e-02 +1.05841197e-01 -3.64444330e-02 -6.81961030e-02 +6.74895421e-02 +9.99718159e-03 +3.65625992e-02 -1.05003655e-01 +6.57944009e-02 +8.17371905e-03 -6.99105561e-02 +9.33838636e-03 -1.68211162e-02 -9.85200480e-02 +3.12409922e-02 -8.19234625e-02 -7.18489736e-02 -5.45825176e-02 -1.43780261e-02 -4.73352447e-02 -7.38408566e-02 -3.42475474e-02 +6.07788637e-02 +8.90900865e-02 -1.27023980e-02 +8.43331590e-02 -6.17253967e-02 +1.75827146e-02 -2.41843686e-02 -2.04251558e-02 +5.67528531e-02 +3.12022865e-03 +7.78285787e-02 -6.14996254e-03 +4.20857891e-02 -8.73877406e-02 +8.74826089e-02 -2.63256580e-03 +7.34681860e-02 -8.13864693e-02 +4.26842496e-02 +7.39042833e-02 -6.86161816e-02 +8.71554539e-02 +6.89882860e-02 -1.00237563e-01 -4.48897332e-02 +9.23122391e-02 +6.44551888e-02 -4.11540568e-02 -6.40686005e-02 -2.03418136e-02 +3.69380638e-02 -4.08495218e-02 +3.97547111e-02 +3.20740268e-02 -8.03446919e-02 +4.17464450e-02 -8.23634267e-02 +5.55801019e-02 -7.13442415e-02 -5.72209060e-02 +2.85459235e-02 -1.47086903e-02 -1.02996878e-01 -8.14918950e-02 -8.83023813e-02 -1.05855823e-01 -5.95033914e-03 +3.51860300e-02 +5.29270098e-02 -8.69934261e-02 +5.15886471e-02 -8.92649889e-02 -1.82179287e-02 -5.90113625e-02 -1.06933579e-01 -1.38421580e-02 +2.00594291e-02 -3.84809300e-02 -8.47635493e-02 +7.55846873e-02 +6.28951937e-03 +7.61836022e-03 -9.44469124e-03 +9.30007547e-03 -6.18727952e-02 +5.26927784e-02 -1.06180847e-01 -7.85645843e-03 +7.92746246e-03 -6.12169616e-02 +1.76442638e-02 -5.49189895e-02 +2.98157558e-02 -4.90641519e-02 -2.23725140e-02 -8.99004191e-02 -4.25489545e-02 +4.94007692e-02 -4.90041822e-02 +3.93752083e-02 +9.79694203e-02 +2.35112682e-02 -5.11932969e-02 +3.87458429e-02 -1.03138685e-02 +9.03838500e-02 +9.80041921e-03 +9.64245424e-02 +2.93637142e-02 +6.18072376e-02 +1.94540247e-02 +1.59249082e-02 -2.92855874e-02 -1.40019581e-02 -4.34336215e-02 +5.48268929e-02 +7.61691853e-02 -1.06926568e-01 -5.84459417e-02 -6.31301478e-02 -1.11462921e-03 -9.43879187e-02 -9.45509747e-02 +5.86499944e-02 +3.47665697e-03 -2.21458450e-02 +7.00270608e-02 +4.89558801e-02 +8.23656246e-02 -4.34254557e-02 +1.00208893e-02 +3.86322066e-02 +1.01647370e-01 +4.38981280e-02 -6.97386935e-02 +2.59086415e-02 +6.37052879e-02 +5.90377972e-02 +6.05675504e-02 -1.05127424e-01 -5.20639271e-02 -2.23475769e-02 +7.85941258e-02 +4.43670526e-02 -1.82166547e-02 +3.53853479e-02 -8.77698660e-02 +2.71133110e-02 -6.47774339e-02 +2.97952816e-02 +6.22855946e-02 -7.53228664e-02 +5.49682230e-03 -3.75059918e-02 -8.80536586e-02 -5.83998375e-02 -1.01252571e-01 -3.83054316e-02 +5.00348955e-03 -1.02563053e-01 -1.48989856e-02 +4.14040163e-02 -1.06989086e-01 -1.69807673e-02 +9.29711238e-02 -7.27460086e-02 -5.59815466e-02 +3.84075567e-02 +5.21470979e-02 -3.90224680e-02 +6.86763152e-02 -2.30469555e-02 +4.32141647e-02 +3.04349586e-02 +6.31322339e-02 -3.22550833e-02 +4.00696024e-02 -1.36122629e-02 -1.33546218e-02 +2.42510214e-02 -3.50034833e-02 -6.39467537e-02 -1.02401793e-01 -4.00891080e-02 +7.91157708e-02 +1.12268105e-02 +9.09826383e-02 +3.96456197e-02 +8.73941109e-02 -6.07413426e-02 -4.61083613e-02 -8.87826681e-02 +2.25654915e-02 +9.98577103e-02 -7.36745372e-02 +3.66676599e-03 +3.30739841e-02 +1.05132513e-01 +1.03985511e-01 -7.95335770e-02 -1.06441587e-01 +6.92153499e-02 +2.92330608e-02 -7.23141208e-02 -1.00945920e-01 +5.90703636e-03 +4.32553217e-02 -2.83353329e-02 -6.72337711e-02 +3.65255028e-03 +2.33135298e-02 -6.14688881e-02 -1.05448574e-01 +3.22392508e-02 +9.81946960e-02 +1.69027969e-02 -6.49491549e-02 -5.31723313e-02 -5.31200618e-02 +7.38617033e-03 -1.67108923e-02 -1.34249255e-02 -1.02420360e-01 +1.48022622e-02 -8.80854875e-02 -7.27187842e-02 -3.51146385e-02 -1.02935635e-01 -8.27180296e-02 -1.60060227e-02 -1.03523873e-01 -5.67978062e-02 -1.24505907e-02 +1.39918253e-02 -8.38786811e-02 -5.02211638e-02 +5.92073575e-02 +4.51829359e-02 +5.29875681e-02 +2.45369002e-02 +5.91774210e-02 +9.95778069e-02 +6.96555451e-02 +7.55649433e-02 -1.68371946e-03 +7.92246535e-02 -4.41864133e-04 +2.62443945e-02 -3.37532163e-02 -6.58931285e-02 -9.83452424e-02 +3.78349498e-02 +1.49270967e-02 +5.06941900e-02 -8.94080251e-02 +3.38351950e-02 -3.24590281e-02 -3.94986495e-02 -4.11685705e-02 -1.01383969e-01 +4.79067191e-02 +9.08001140e-02 +1.78145841e-02 +8.90876427e-02 -2.10191607e-02 +8.49198923e-02 +5.43419644e-02 -3.83594856e-02 -1.00023776e-01 -8.87007415e-02 +4.03948650e-02 +5.21341190e-02 +9.64720547e-03 -8.95049274e-02 -9.38571170e-02 +4.03720662e-02 +8.14538822e-02 -7.07178712e-02 +5.49019799e-02 +1.52663812e-02 -8.76371562e-03 +5.72495684e-02 -4.60169204e-02 +3.33376899e-02 +3.79293188e-02 +5.58653995e-02 -9.23825502e-02 +1.06416568e-02 -6.14313371e-02 +8.63441601e-02 +9.36680287e-03 +9.61147025e-02 +8.74357000e-02 -7.75985420e-02 -4.96706963e-02 +1.73861161e-02 +1.03437677e-02 +8.58161673e-02 +8.45827535e-02 -2.28403509e-03 +7.66958296e-03 -2.13346407e-02 +3.44246700e-02 -6.41789362e-02 +3.77973914e-03 -9.02848318e-02 +9.57454965e-02 +7.88063779e-02 +4.44631204e-02 -1.06682450e-01 +2.45515034e-02 -6.52456507e-02 -6.26880601e-02 +4.56057265e-02 -2.41912305e-02 +5.36953583e-02 +1.02703951e-01 +7.69748613e-02 -4.54950146e-02 -2.82838196e-03 -6.52822852e-02 -7.20683187e-02 -9.60404426e-02 +7.13532940e-02 -2.91654319e-02 +9.33678374e-02 -9.05630514e-02 +3.42471227e-02 +1.00557856e-01 +3.24730054e-02 +7.24664256e-02 -3.23852450e-02 -3.91203538e-02 -3.28868851e-02 +4.80521545e-02 -8.49660188e-02 +9.06692669e-02 -8.02772492e-02 -1.56551078e-02 -9.17901099e-02 +1.03707381e-01 -6.14035390e-02 -7.83075988e-02 +9.25228968e-02 -9.25273746e-02 -2.51692086e-02 -1.00354336e-01 -7.92842880e-02 -3.70021313e-02 +9.74554941e-02 +2.85401121e-02 -9.19992551e-02 -5.29570207e-02 -3.85434180e-03 +9.90097970e-03 -1.04310535e-01 +1.00074925e-01 +4.56113890e-02 -9.16072279e-02 -4.51550446e-02 -9.82768089e-02 -8.07504356e-02 -8.06052089e-02 +7.66070411e-02 +3.51465270e-02 +4.29232195e-02 +8.61657783e-02 +7.89518878e-02 -9.46844965e-02 -5.78887686e-02 +4.50529531e-02 +1.00131653e-01 -1.03673235e-01 +7.32143745e-02 -9.99049470e-02 +5.91191873e-02 +9.53037515e-02 -5.78563772e-02 +5.87141588e-02 +7.03376606e-02 +1.90749541e-02 -6.85836673e-02 +1.46859139e-02 -4.74214815e-02 -2.75322348e-02 +6.44556507e-02 -9.23963785e-02 -4.67623509e-02 +4.76223230e-03 +1.96216330e-02 +5.09270281e-03 +2.38076523e-02 +6.58025220e-02 +5.49953952e-02 -4.88250963e-02 +7.64256939e-02 +1.91290304e-02 -6.02430850e-03 +1.04081728e-01 +3.81743908e-03 -5.95881566e-02 -6.73660263e-02 -1.04456656e-01 -5.71872331e-02 -6.27956316e-02 +3.93021926e-02 -6.00582361e-02 +3.65419760e-02 -8.68315846e-02 -3.79078463e-02 -4.82205227e-02 +8.03277120e-02 +1.01375751e-01 -3.43153030e-02 -9.26046073e-03 +9.38872620e-02 +3.08208168e-03 +6.60860762e-02 -7.76941180e-02 +9.46546867e-02 +9.73049477e-02 +8.66061077e-02 -7.16952085e-02 +8.34146217e-02 -6.23110496e-02 +8.30963254e-03 -8.10056925e-04 -2.42020190e-03 -1.12488195e-02 -9.98597443e-02 +7.23533407e-02 -7.43348002e-02 -1.02821365e-02 -2.62339860e-02 -1.06836185e-02 -9.10845399e-03 -2.27119178e-02 +7.49002025e-02 +1.04395002e-02 +4.38485071e-02 +4.11292836e-02 -1.71046630e-02 -2.66624540e-02 -9.02658403e-02 +2.43485942e-02 -1.66493580e-02 -7.61570781e-02 -7.46680945e-02 -3.39817777e-02 -2.84755751e-02 -3.58515605e-02 -4.45996225e-03 +2.72743478e-02 +4.28552106e-02 -9.27505791e-02 -3.16765010e-02 +4.82636318e-02 +1.46396831e-02 +5.73016033e-02 +5.85933998e-02 -3.20553929e-02 -8.35823789e-02 -3.54003161e-03 +1.01721175e-01 +6.09577522e-02 +6.61561638e-03 -2.62236595e-03 -2.42068991e-02 +8.54980424e-02 -4.11371738e-02 +3.81034240e-02 -2.29257867e-02 +5.13009205e-02 +6.28831163e-02 +8.02697614e-02 +4.62572202e-02 +9.48026776e-03 +8.11999366e-02 -7.25203007e-02 +7.35998675e-02 +8.95391032e-02 +3.93864140e-02 -9.06900167e-02 +2.70350650e-02 -8.59534070e-02 -4.53727059e-02 -9.02351141e-02 +6.67792559e-03 -9.07218456e-02 +3.09683010e-02 +1.49495155e-02 -2.26094350e-02 +6.49478808e-02 +4.56232354e-02 -4.53175604e-03 -1.29296407e-02 +9.34514925e-02 +7.05957487e-02 +3.17218378e-02 -1.62031204e-02 -7.73192346e-02 +7.04781935e-02 +6.62994310e-02 -2.94314697e-02 +3.83076817e-03 +3.61036286e-02 +3.69396284e-02 +4.07502726e-02 -8.39553252e-02 +2.01603100e-02 -8.53466392e-02 -9.82508212e-02 +7.12594166e-02 +9.12189111e-02 -9.69111547e-02 +5.39016724e-03 +2.05344036e-02 -6.45308942e-02 -2.29662657e-02 -9.47283134e-02 +2.57043168e-02 +6.31929114e-02 -4.70194966e-02 +7.24090114e-02 -4.59075384e-02 -1.37798041e-02 +1.02812797e-02 -6.06488846e-02 -1.62666738e-02 +9.54347923e-02 -5.72320595e-02 -6.09615743e-02 +8.69575515e-02 +6.28638491e-02 +8.74900445e-02 +4.29807678e-02 -5.45075871e-02 +6.76623359e-02 +1.82448104e-02 +2.15774104e-02 +1.00613974e-01 +1.78932324e-02 +4.62156758e-02 -2.01733559e-02 +2.13749707e-03 -4.07381803e-02 +1.03310488e-01 -3.53529304e-03 +9.11479220e-02 +4.96416315e-02 -7.61948079e-02 -9.83986855e-02 -8.56751278e-02 +5.65039366e-03 -3.52904648e-02 +2.24719271e-02 +5.37577793e-02 +4.08118591e-02 -1.99132785e-02 -1.02462843e-01 +9.07984152e-02 +8.29000100e-02 -4.92485501e-02 +5.26127443e-02 -1.03853896e-01 +4.66844663e-02 -6.46498054e-03 +6.39074966e-02 +9.98426750e-02 -1.93979815e-02 -4.42314595e-02 +5.91357574e-02 -4.69255261e-02 -6.71591163e-02 -2.16238052e-02 -7.85973296e-02 -1.40964240e-02 +2.95495018e-02 +7.62508288e-02 -7.91731924e-02 -6.28260821e-02 +1.63539574e-02 -6.04311675e-02 -5.14720902e-02 +8.03482011e-02 +4.40208986e-02 +6.88151345e-02 +2.65859812e-03 +7.17751682e-03 -9.89053100e-02 +6.40663281e-02 +5.65346703e-02 -9.48483497e-03 +2.86185220e-02 +2.33460292e-02 -4.85986397e-02 -8.92039984e-02 -9.98988748e-02 +1.94089934e-02 +3.30324098e-02 -7.17193782e-02 -1.05258502e-01 +1.86144784e-02 +1.01930730e-01 -4.96178940e-02 +4.01381031e-02 -1.97720975e-02 +7.09657446e-02 +2.90861949e-02 -4.90706824e-02 +9.92215797e-02 +9.31533426e-03 -1.41507760e-02 -9.53037292e-03 -9.25401896e-02 -2.25593969e-02 -2.84050256e-02 +4.64696363e-02 +8.41779634e-02 -9.73365232e-02 +1.36233196e-02 +3.41867432e-02 -9.26297903e-03 +7.34676197e-02 +6.51834384e-02 -6.66870326e-02 -8.29904079e-02 -4.55385000e-02 -3.13596949e-02 -5.60972020e-02 -7.13076293e-02 +7.62259737e-02 -8.50513428e-02 -3.63726988e-02 +5.62824681e-02 +2.10757032e-02 +4.32324335e-02 -4.60408665e-02 -1.06972948e-01 +3.89217809e-02 +2.60989368e-03 -9.74432006e-02 +2.66719833e-02 -3.14429030e-02 -9.00545716e-03 -9.19455290e-02 +2.74161771e-02 -1.67308003e-02 -4.58036102e-02 -6.48465902e-02 +6.08150288e-02 +5.20284995e-02 -1.06888652e-01 -8.01943243e-04 +5.09425178e-02 +2.75529996e-02 +1.00251757e-01 -4.63730805e-02 -2.00950056e-02 +2.53007635e-02 +4.69223484e-02 +4.15571108e-02 +9.61924121e-02 +2.79456377e-03 +3.18164453e-02 -8.92940909e-03 +1.35973245e-02 -6.90470710e-02 -1.00632973e-01 +9.49284658e-02 -1.50477141e-03 +4.53180075e-03 -7.27674365e-03 -7.76744485e-02 -2.33335793e-02 -4.62503247e-02 -1.01371430e-01 +9.57958922e-02 -1.00075938e-01 -6.19731843e-04 -4.19715792e-02 -9.09161642e-02 -9.99604985e-02 +6.39069900e-02 +5.44157252e-02 -2.43910998e-02 +1.05010234e-01 +3.31587717e-02 +2.08152458e-02 +6.02495596e-02 -8.64866227e-02 -1.03555180e-01 +1.02886118e-01 -1.01943240e-02 -2.13499293e-02 -6.11944385e-02 -2.40970179e-02 -6.12263381e-03 +3.57023552e-02 +5.69775701e-04 +7.46239200e-02 -6.93104118e-02 -5.98354638e-03 +7.49393329e-02 -6.97195306e-02 -6.63726777e-03 +1.79952011e-02 -3.90407890e-02 -9.72725749e-02 +5.27248606e-02 -1.01796262e-01 +1.04643174e-01 -7.99208581e-02 -8.87376517e-02 -3.82318050e-02 -5.40227443e-02 +3.50734815e-02 -9.04233307e-02 -4.82650101e-03 -7.98496008e-02 -4.07684594e-03 +5.54285273e-02 +7.64435157e-02 +5.83864674e-02 -7.83085823e-04 +8.20397809e-02 +5.34150228e-02 +6.63179830e-02 -8.45829099e-02 -9.54787433e-03 +9.25794467e-02 -5.96611537e-02 -3.79989445e-02 -8.65329802e-03 +5.80001995e-02 -1.02443486e-01 +2.76399478e-02 -5.92844673e-02 -1.02844983e-01 -2.23072544e-02 -7.51711875e-02 +9.02477577e-02 -5.38880639e-02 +8.58941302e-02 +4.55027744e-02 -6.92983791e-02 +1.48703158e-03 +7.93939754e-02 -3.91803905e-02 +4.58294153e-03 +7.63234720e-02 +4.88976315e-02 -2.67462507e-02 +7.32813701e-02 +3.36271003e-02 -1.15425661e-02 +8.39198604e-02 -9.59843323e-02 -5.05195037e-02 -8.19415748e-02 -6.93205968e-02 -5.33089787e-03 -1.75915733e-02 +4.54063639e-02 +8.47029462e-02 -8.05376321e-02 +5.64474538e-02 +8.35693851e-02 +9.60773155e-02 -5.16428724e-02 -4.38596383e-02 -2.83761993e-02 +1.49153173e-04 +8.58388171e-02 +7.46111497e-02 -9.32066143e-02 +4.11708876e-02 -9.39127877e-02 -7.40389079e-02 +2.60411128e-02 -9.06309932e-02 -8.86296481e-02 -1.60674155e-02 +2.38179192e-02 +3.72570977e-02 +7.45390728e-02 -3.36140245e-02 -5.20079359e-02 -3.37761194e-02 +5.42998239e-02 +6.18554652e-03 +9.70241055e-02 -5.22896014e-02 -9.67958197e-02 +6.22249916e-02 -3.53236124e-02 -8.41138735e-02 +3.74387428e-02 -1.00079179e-02 +3.77124324e-02 -1.21855587e-02 -2.33916566e-02 -1.05763219e-01 -5.77697977e-02 -6.76544905e-02 -9.93469134e-02 -1.30671188e-02 +4.82915714e-02 +2.25845948e-02 +6.56873062e-02 +6.59704953e-03 +2.23510787e-02 -9.48006585e-02 -7.78340399e-02 +5.07031307e-02 +9.43557918e-03 -2.20852867e-02 -9.40533206e-02 +7.00270012e-02 -2.86416858e-02 +3.40116546e-02 +2.22541615e-02 -1.62385404e-03 -7.17522874e-02 +6.68679699e-02 +3.49412933e-02 -6.86990619e-02 +4.80945930e-02 -7.91974664e-02 +2.42753252e-02 +3.18227485e-02 -7.89283961e-02 +5.15786782e-02 -2.06468999e-02 +7.93634877e-02 -3.63905877e-02 +1.95581466e-03 -3.29284593e-02 +1.29636079e-02 -6.66943192e-03 +8.52231160e-02 -5.30190393e-02 +7.40552768e-02 +1.32995099e-03 -2.74004787e-03 -2.34922767e-03 -9.23667103e-03 -6.53998703e-02 -5.23402356e-02 -4.26064134e-02 +9.97117981e-02 -1.04750171e-01 +9.61605087e-02 -7.06339851e-02 +6.84559122e-02 -2.36222595e-02 +5.85722998e-02 +1.00633316e-01 +9.75964293e-02 +6.11235201e-03 +1.01980634e-01 +4.49213311e-02 +2.02850774e-02 -8.73052925e-02 -4.12364677e-02 +6.56166747e-02 +3.90748009e-02 -7.72107095e-02 -4.39833254e-02 -7.91061819e-02 +6.42294660e-02 +1.03012174e-02 -1.04492672e-01 +3.07429954e-02 -5.59352338e-04 -1.88363716e-02 +9.76320282e-02 +7.59507939e-02 -3.28239724e-02 +5.99206239e-03 +9.94526520e-02 +6.91521540e-02 +1.53390318e-03 +2.95298323e-02 +1.01081803e-02 +4.87135351e-03 -9.82844681e-02 +7.51667395e-02 +2.03429684e-02 -1.03485912e-01 +6.46498874e-02 -3.72986794e-02 +3.02464440e-02 -5.81508242e-02 +6.69516400e-02 +7.50746205e-02 +9.54666808e-02 -2.55029947e-02 -3.37064341e-02 -1.40219852e-02 -6.43570423e-02 +3.01568881e-02 -1.62305534e-02 +4.39340696e-02 -1.13088042e-02 -8.48011971e-02 -2.75923386e-02 +7.08853528e-02 +1.39978528e-02 -6.29399121e-02 -5.43249771e-02 +5.45975193e-02 +4.27810028e-02 +5.53966239e-02 -4.84251976e-03 -2.27155909e-02 -4.53235470e-02 -3.03231701e-02 +2.98249945e-02 -5.08853793e-02 +5.47224954e-02 +3.33149210e-02 +7.24983737e-02 -7.66967088e-02 +9.75726321e-02 -9.39924568e-02 -8.12347606e-02 +6.44273087e-02 -3.72299403e-02 -2.19896883e-02 -3.92840356e-02 +8.68081674e-02 -8.14395547e-02 +7.50266984e-02 -4.77386080e-02 +5.48574701e-02 -7.53923431e-02 -5.37838452e-02 +5.30284420e-02 -9.69342664e-02 -2.91617662e-02 -5.89121021e-02 +6.21270016e-02 -8.90581012e-02 +2.96518132e-02 +2.97841355e-02 +1.36279389e-02 -8.06851014e-02 -5.84499873e-02 +4.49795052e-02 -6.26281798e-02 -8.30920339e-02 -3.68827730e-02 -4.16861549e-02 -9.88514870e-02 -9.56003666e-02 +6.16885722e-04 -5.80515899e-02 -7.42414296e-02 +5.55093065e-02 +5.82739636e-02 +5.74842468e-02 +8.68325010e-02 +8.49352404e-02 -3.29591036e-02 +6.53034821e-02 -6.78328946e-02 -3.66115198e-02 -7.70552829e-02 +7.42277578e-02 -4.24310938e-02 +7.85697028e-02 -3.98180857e-02 -9.65698510e-02 +8.58162120e-02 -8.74253958e-02 +6.88692406e-02 -5.15118651e-02 +6.16598874e-03 -1.07098185e-01 +1.20583400e-02 -9.06721577e-02 -8.97795409e-02 +6.88774511e-02 -3.75262722e-02 +7.22293183e-02 -3.20051908e-02 +8.55928436e-02 -1.00977346e-02 -6.26434758e-02 +9.39172134e-02 -7.59462044e-02 -3.07224095e-02 +7.37018958e-02 +7.51789659e-03 -9.07224268e-02 -7.13080466e-02 -3.82178500e-02 +7.53662661e-02 -1.14134997e-02 -6.79893196e-02 +1.07636452e-02 -2.22986713e-02 -1.03515439e-01 +6.72576651e-02 -2.92226672e-04 -2.84217224e-02 +4.09928188e-02 -3.82166132e-02 -1.09634399e-02 +5.14907762e-02 +4.95605990e-02 -4.05039713e-02 -2.37621814e-02 -3.39626446e-02 -1.33961812e-02 -9.42590460e-02 +1.44721940e-02 +8.18895474e-02 +7.77040645e-02 -8.69768262e-02 +9.85974446e-02 -4.89645973e-02 +3.39603052e-02 +5.65780774e-02 -8.64556506e-02 -1.63313746e-02 -1.89240351e-02 +2.75474861e-02 -9.02920142e-02 +7.51386508e-02 -5.44474609e-02 +7.15713874e-02 -2.22646669e-02 -4.46376354e-02 +4.32613716e-02 +6.35138229e-02 +8.28816965e-02 +2.33922973e-02 +4.80309129e-04 -3.24300230e-02 -4.93100919e-02 +2.02874616e-02 +8.54546204e-02 -1.04977489e-01 +1.81703269e-03 +9.06469747e-02 +4.20881584e-02 -3.14050317e-02 +8.99946913e-02 +2.49739960e-02 -8.04850832e-02 -9.84299481e-02 +9.10336301e-02 -4.64000925e-02 -7.49332160e-02 -5.00764027e-02 +8.95255134e-02 +2.35535875e-02 -1.05410658e-01 +1.14267617e-02 -4.10031900e-02 +7.76231289e-04 -4.39125374e-02 -1.91617161e-02 +4.51916978e-02 -1.33966282e-02 -1.05461128e-01 +7.00818822e-02 -5.00689745e-02 +1.31768882e-02 +6.16121218e-02 -1.54656842e-02 +2.66535506e-02 +2.65200362e-02 -8.83276239e-02 +8.51118490e-02 +8.95319134e-03 +9.25044045e-02 +2.51907036e-02 +9.91568491e-02 +1.01207338e-01 +3.29290852e-02 -7.28917569e-02 +2.06461921e-02 +5.19919917e-02 +3.21534500e-02 +5.78808114e-02 -7.32582510e-02 +2.49001458e-02 +2.98168510e-03 -1.06550507e-01 +7.42708519e-02 +9.36695412e-02 -6.61858916e-03 +4.73924801e-02 +8.19851235e-02 -8.09094980e-02 -7.33417943e-02 +9.55672339e-02 -5.53309470e-02 +1.06210433e-01 +4.52558920e-02 +6.06004968e-02 +8.31274688e-03 -1.54043660e-02 -8.90485421e-02 -2.41559595e-02 +4.12921235e-02 -5.06328158e-02 +1.06598884e-02 -2.31788382e-02 +8.85997489e-02 -8.68330076e-02 +2.62684450e-02 -1.04271397e-01 -3.00660729e-02 +1.09018534e-02 -6.53093755e-02 -1.00060552e-03 -6.89204335e-02 -7.74081498e-02 +6.64408579e-02 +1.03976049e-01 -1.01844579e-01 +7.12861866e-03 +7.92794600e-02 -2.15402246e-03 -5.43067120e-02 -3.53874564e-02 -5.62128834e-02 +2.80400440e-02 +3.34359035e-02 +9.22278389e-02 -4.73087132e-02 -3.63950431e-03 -6.27403110e-02 +4.35469821e-02 +4.27366570e-02 -2.51069665e-04 +7.99090788e-02 +2.24844292e-02 -3.25034559e-03 +8.61359015e-02 -8.36863443e-02 +1.65605694e-02 -8.56488198e-02 +1.52722746e-02 +2.42523775e-02 -1.94943175e-02 -1.04062632e-01 +2.91121528e-02 +7.63503388e-02 +6.81132600e-02 +7.86435232e-02 -8.64674523e-02 -1.62860602e-02 -5.06759137e-02 -9.31597948e-02 -4.75538224e-02 +8.86036232e-02 -9.45887640e-02 +7.49649480e-02 +9.63548794e-02 +3.18276957e-02 -1.98533237e-02 +5.56839034e-02 +2.07427666e-02 -6.98826462e-02 +9.65866446e-03 -7.71096349e-02 +1.24737620e-04 +5.52609935e-02 +3.17497626e-02 +9.67317149e-02 +5.75430021e-02 -5.02641648e-02 +4.60140333e-02 -8.54677483e-02 +5.21417335e-02 -3.83290276e-02 +1.01780929e-01 +1.67706236e-02 +6.71926960e-02 -1.39034763e-02 +7.55605921e-02 -1.01343393e-02 +8.41583237e-02 +1.06065430e-01 -2.42260844e-02 +7.78726414e-02 +4.41890284e-02 +1.74547285e-02 +1.07361697e-01 -3.54948193e-02 -4.77240793e-02 +4.57898602e-02 -1.78712606e-03 +7.65802190e-02 -9.46277380e-02 -1.14803463e-02 +1.57062858e-02 +1.18624419e-03 -6.55121803e-02 -4.76196222e-02 -6.64953142e-03 +9.35880169e-02 +1.48352087e-02 -1.06907904e-01 +1.07239924e-01 +4.78425398e-02 -4.44523767e-02 -7.27907866e-02 -5.99147528e-02 -8.60671848e-02 -8.96631926e-02 +1.05194353e-01 +5.97515628e-02 -1.03158236e-01 -7.33271539e-02 +6.69848099e-02 +8.18832293e-02 -4.86322530e-02 -8.55957121e-02 -4.08470109e-02 +3.33458260e-02 -1.40199736e-02 +9.47853997e-02 -1.03213452e-01 -7.59459436e-02 +1.01452507e-01 -1.03701510e-01 -1.08103827e-02 +3.02050039e-02 +4.66189459e-02 -1.00806616e-01 +2.90103331e-02 +2.93026194e-02 +8.53071734e-02 +9.13476273e-02 -4.52534072e-02 -5.03335558e-02 +8.36241767e-02 +1.06312029e-01 +1.00143082e-01 -1.01617582e-01 -8.33906978e-02 -3.88712734e-02 -7.78333098e-03 -2.56895050e-02 +2.66103521e-02 -6.16311729e-02 +6.97528645e-02 -2.54165381e-03 +6.00214824e-02 -1.13137662e-02 -6.68958873e-02 -2.32882202e-02 -1.70064941e-02 +2.07444653e-02 -2.00201124e-02 -6.10362366e-02 -7.40147531e-02 -9.11739022e-02 +6.60516545e-02 +4.31782678e-02 -2.88152322e-02 +8.07591900e-02 -7.34761506e-02 -7.73431063e-02 +5.07122502e-02 +6.87338412e-04 -7.02186972e-02 +5.50459549e-02 -9.37815011e-03 -6.58109784e-02 +4.27282527e-02 +5.28750494e-02 -4.32467163e-02 -2.79106200e-03 -8.42559785e-02 -4.12453264e-02 -9.09327194e-02 -8.23432207e-03 +4.57921699e-02 +8.54827091e-02 -2.38502845e-02 +9.99385864e-03 -2.42859125e-04 +9.60827619e-03 -1.02073513e-01 -9.10446867e-02 -8.51936340e-02 -1.03968292e-01 -9.69271511e-02 +9.63013098e-02 +2.63636187e-02 +1.79963782e-02 +3.21905985e-02 -8.48315060e-02 +9.61244330e-02 +8.16375390e-02 +2.74994969e-03 +4.52604517e-02 -5.77094071e-02 -6.26737475e-02 +4.64823768e-02 -8.02873448e-02 +6.13996759e-02 -3.14540267e-02 +9.05944929e-02 -4.67247553e-02 +2.99636647e-02 +6.68413863e-02 +9.24851671e-02 -8.22427794e-02 +9.09228697e-02 -9.00432914e-02 -6.31657541e-02 -5.05620129e-02 -2.83174142e-02 +8.54356214e-02 +8.55009332e-02 -2.58080885e-02 +9.40500125e-02 +5.56710884e-02 +8.26548710e-02 -3.29657421e-02 -5.60090728e-02 -1.55942142e-02 +1.05607651e-01 -8.34208205e-02 +1.88632831e-02 +6.87673464e-02 -6.34228736e-02 +9.52201858e-02 -1.00456640e-01 -1.03633575e-01 +7.71843120e-02 +3.59648541e-02 -3.92981172e-02 +6.32459447e-02 +6.41977787e-03 +2.01284811e-02 +5.20643815e-02 +8.02816674e-02 +5.09974882e-02 +8.77807215e-02 -1.55908763e-02 -1.03563525e-01 +2.16096267e-02 -6.80017993e-02 -8.77326578e-02 -3.82822007e-02 +3.72489020e-02 +4.93694618e-02 +3.47605124e-02 -1.05762862e-01 +6.41915724e-02 -8.79445449e-02 +5.77002540e-02 +9.20340493e-02 -9.50576216e-02 +9.90224257e-02 +4.19053659e-02 +1.63185671e-02 +1.04460560e-01 -2.68691927e-02 -8.64522457e-02 -7.61339292e-02 +5.95182404e-02 +3.98993269e-02 -1.01716742e-01 +6.02390096e-02 +2.62044370e-04 -1.06516249e-01 -3.64936441e-02 -1.83898434e-02 +1.05579652e-01 -6.22455887e-02 +3.40370461e-02 +9.03241560e-02 -6.94629923e-02 -2.62984410e-02 +9.82515439e-02 -1.40346363e-02 -7.57361650e-02 -2.67136768e-02 -7.48297200e-02 +7.22977296e-02 -1.90597847e-02 +3.29703316e-02 +9.64284763e-02 +5.86946085e-02 -4.64917608e-02 +6.82340488e-02 +1.27323493e-02 -9.60526094e-02 -9.62654501e-02 +4.20480892e-02 -3.76727581e-02 +7.06702247e-02 +6.19710907e-02 +5.58025166e-02 +6.96138516e-02 +1.50201619e-02 +8.21314380e-02 -8.96952972e-02 -6.04815073e-02 +7.33784810e-02 -2.91792005e-02 -9.47763771e-03 -6.14006147e-02 +5.39145246e-02 -6.29941970e-02 +6.61254749e-02 -7.09921569e-02 +3.27355191e-02 +2.60385647e-02 -3.19798142e-02 +8.10046494e-03 +7.35984072e-02 -8.97136107e-02 -1.25061870e-02 +7.01772496e-02 -3.37241590e-03 +1.29356980e-04 +5.06322458e-02 +2.87487581e-02 +6.11689910e-02 +1.23082846e-03 -5.70464879e-02 +4.65910807e-02 +7.69331381e-02 +3.84007916e-02 +1.56685114e-02 -2.99400464e-02 +1.05460681e-01 +9.02706906e-02 +9.40324590e-02 +4.30009142e-02 +5.89072779e-02 -6.53371066e-02 +9.51833278e-03 -8.40256214e-02 +7.66952112e-02 +9.14072469e-02 +1.05880894e-01 +6.57047555e-02 -6.13915659e-02 -4.24638912e-02 -6.13843650e-03 +9.42013040e-02 +4.83307019e-02 -7.55653530e-03 -7.52947479e-02 +3.94274220e-02 +3.11126634e-02 +7.68596455e-02 -9.30019245e-02 -5.54151721e-02 +2.43754908e-02 -9.74681228e-03 -8.67621750e-02 -4.36531678e-02 +3.53526101e-02 +9.42988619e-02 -8.93483311e-03 -1.01008981e-01 -8.75536799e-02 +2.50786766e-02 -1.06137767e-01 -3.14695314e-02 +6.82215765e-02 +7.24033639e-02 -9.83136296e-02 -4.71775495e-02 +1.41141489e-02 -1.03992134e-01 -8.51885229e-02 -6.60270825e-02 -7.69724473e-02 +3.51429209e-02 -4.67709489e-02 -2.40075365e-02 -8.62673670e-02 -2.96254754e-02 +8.27734694e-02 +3.18605080e-02 -4.73762751e-02 -3.07733193e-02 -1.03413761e-01 +1.06301598e-01 -9.76155251e-02 +5.58154508e-02 +3.53002474e-02 -4.84377146e-04 +5.48913255e-02 -1.00219361e-01 -8.96125510e-02 +5.27654812e-02 +1.00672849e-01 +9.31046978e-02 +2.39017084e-02 +4.58197966e-02 +5.11100516e-02 +8.68493095e-02 -7.19486624e-02 -1.33872330e-02 +8.62477943e-02 -1.72232091e-03 +3.00106779e-02 +6.25745878e-02 -3.52248922e-02 +7.35561624e-02 +8.77421126e-02 +2.64542475e-02 +8.81135538e-02 +5.57973012e-02 -4.69556451e-02 -7.12639987e-02 -4.76848446e-02 +8.67209807e-02 +3.53280976e-02 -4.43976671e-02 +2.32061818e-02 -3.94838825e-02 -1.02402642e-01 -2.85583660e-02 +4.17535529e-02 -7.47057348e-02 +1.03437789e-01 +3.87678072e-02 +7.97729865e-02 +4.91041169e-02 -6.16910160e-02 -7.37099200e-02 -3.48978341e-02 -6.68384731e-02 -8.30593556e-02 -6.40009046e-02 +6.86931238e-02 -3.00033540e-02 +6.83368221e-02 +4.76533100e-02 +6.17999360e-02 -1.09143928e-02 +7.89978877e-02 -7.94238150e-02 +7.81603828e-02 -2.47935504e-02 +9.42195207e-03 -3.40956599e-02 +2.24029794e-02 -3.34312022e-03 -2.70125270e-03 +7.64400885e-02 -6.76138103e-02 -9.63310748e-02 +2.62216255e-02 -5.16461320e-02 -1.03759095e-02 +5.05185351e-02 +8.62452611e-02 +2.20172927e-02 -9.95082259e-02 +2.83817872e-02 +3.92954871e-02 +6.81395754e-02 +9.18239728e-02 +7.34187886e-02 -4.33046222e-02 -9.34256613e-02 -6.86379150e-02 -2.06834227e-02 -4.55131792e-02 -4.16010544e-02 +8.25477913e-02 -3.64854485e-02 -4.38501388e-02 -7.66126662e-02 +5.35149798e-02 +4.25123498e-02 +9.04916599e-02 -3.70112658e-02 +7.85238668e-02 +2.65123472e-02 -8.68873373e-02 -4.16257232e-02 -3.98196727e-02 -1.13416463e-03 -1.61355436e-02 +4.17749360e-02 -2.69587785e-02 +4.28056344e-02 -6.80789351e-04 -6.98723942e-02 -3.53194177e-02 -1.04285248e-01 +5.85630015e-02 -3.73022556e-02 -1.86498761e-02 -3.87049392e-02 -8.43545124e-02 -6.63059652e-02 -5.02691381e-02 +2.03027353e-02 -9.43090990e-02 +2.99035236e-02 +8.42725858e-02 +3.52970734e-02 -4.75095809e-02 +3.70054170e-02 +2.08787099e-02 -1.65071338e-02 -4.36728150e-02 -1.04224011e-02 +7.02165738e-02 +6.90575466e-02 -9.16390717e-02 +9.40445885e-02 -4.08215299e-02 -1.84306875e-02 +8.41754898e-02 -1.04375839e-01 -1.60441548e-03 -8.80533084e-02 +8.79613385e-02 -2.79309303e-02 -8.28397200e-02 +6.81628957e-02 -4.38337773e-02 +3.27979699e-02 -1.00578956e-01 -8.65261927e-02 -8.63000602e-02 -3.23986709e-02 +9.93044749e-02 +9.99186411e-02 -5.07039167e-02 +4.36656177e-04 +9.09165218e-02 -7.36906379e-03 +9.73372087e-02 +1.16195828e-02 -2.37038955e-02 -8.74842703e-03 -3.32916826e-02 -9.94418785e-02 -1.31150261e-02 +2.03291550e-02 +2.01683864e-02 -6.64009154e-02 +2.03870013e-02 +5.84167168e-02 +1.27347931e-02 -1.51488185e-03 +5.37420139e-02 -1.05869465e-01 -2.34721825e-02 +7.19736442e-02 -6.78238422e-02 +9.58172232e-03 -9.14152414e-02 +5.35548255e-02 -2.84742117e-02 -3.04472670e-02 -4.29847836e-02 -8.42213780e-02 +6.35961518e-02 -5.11364825e-02 +1.85151175e-02 +1.35564059e-02 -3.05211619e-02 -1.14827603e-03 -8.38814005e-02 +6.49207905e-02 +5.10472581e-02 +3.97644565e-02 -5.51046543e-02 +8.97569880e-02 -2.20243633e-02 +9.39048827e-04 +8.37433711e-02 +8.36872384e-02 +4.23426554e-02 -1.06323317e-01 -1.61010474e-02 +8.63205716e-02 +2.84768716e-02 +7.46921822e-02 -1.64179131e-02 +9.81471315e-02 +9.61649641e-02 +3.76288369e-02 +2.46223584e-02 -2.19912603e-02 -8.90516713e-02 +9.26910564e-02 +8.80430117e-02 -4.75680418e-02 +5.74240461e-02 -6.79912865e-02 -6.50297180e-02 +1.79560706e-02 +2.08628699e-02 +1.05327599e-01 +9.34153423e-02 +8.96314010e-02 -4.17044386e-02 -1.37886256e-02 -1.04392834e-01 -3.07188556e-02 -2.30870992e-02 -9.53600705e-02 -1.52298138e-02 +1.24891400e-02 +6.10524416e-03 -4.89389896e-03 +6.14032820e-02 -1.03016570e-02 +7.32657984e-02 +6.12510815e-02 -9.14433897e-02 +7.95119777e-02 +1.01691432e-01 -2.43487135e-02 -8.16416591e-02 +9.90930721e-02 -8.41486678e-02 -5.87522462e-02 -1.03896007e-01 +7.43488446e-02 -2.59503573e-02 +4.97786179e-02 -1.80095509e-02 -1.01724960e-01 +6.19785860e-02 -6.42262101e-02 -5.25306165e-03 +8.53315219e-02 +6.83078095e-02 +3.88376415e-04 -9.29947048e-02 -3.20264399e-02 +3.59875932e-02 +5.04995361e-02 -9.22241658e-02 +3.12176272e-02 -8.53045061e-02 -6.66486472e-03 -3.69145647e-02 -9.98886749e-02 +1.58723593e-02 -9.31164697e-02 -4.80216667e-02 -1.42943040e-02 +8.82158652e-02 -2.52505392e-03 +3.57616022e-02 -5.24497367e-02 -7.37261623e-02 -6.50507659e-02 -2.53834575e-02 +6.27763346e-02 -5.44828549e-02 -8.02863091e-02 +9.13822427e-02 -3.81509736e-02 -5.99256754e-02 +3.42643932e-02 +3.38393822e-02 +1.05746679e-01 -4.79120873e-02 +2.17909291e-02 -3.41096967e-02 -6.33621290e-02 -2.09603161e-02 -9.62394997e-02 -9.20192972e-02 -4.05099839e-02 -4.20403108e-02 +8.16489831e-02 -7.49868155e-03 +1.00766234e-01 -4.65877801e-02 -4.89798076e-02 -7.28976876e-02 +7.25643411e-02 -1.04117751e-01 -5.01457825e-02 +8.46711621e-02 -3.00940052e-02 +4.05694023e-02 -6.82637095e-03 -6.16128482e-02 -8.82633775e-02 -9.11924839e-02 -2.70382538e-02 +3.17478552e-02 +2.45852992e-02 +7.57977292e-02 +7.88212940e-02 -5.32628000e-02 -6.65966570e-02 +4.73980084e-02 -4.56657596e-02 -9.84995812e-02 -8.25085714e-02 -7.91062340e-02 -4.70157117e-02 +7.85456225e-02 -4.10146788e-02 +1.97891966e-02 -4.01978344e-02 +5.24101183e-02 -7.51939043e-02 -6.02831058e-02 -4.99040782e-02 +9.39759240e-02 +7.37088844e-02 -9.15787593e-02 -4.05777767e-02 +5.08984104e-02 +8.26634541e-02 +6.17695525e-02 +8.43316540e-02 +1.02267094e-01 +1.06061645e-01 -9.13049430e-02 -8.67695287e-02 +6.74105808e-02 +8.23278651e-02 -7.69265369e-02 +5.90574518e-02 +7.99746886e-02 +9.03047994e-02 -2.94035003e-02 +7.44403377e-02 +1.72241852e-02 -3.25277075e-02 -3.57361734e-02 -4.54954430e-02 +1.06363423e-01 -8.61152261e-02 +1.01974763e-01 -8.00808370e-02 -7.36316293e-02 +1.36837363e-04 -3.60897630e-02 +4.01050821e-02 +1.69033483e-02 -1.01831481e-01 -3.54928225e-02 +7.30720907e-03 -2.22740769e-02 +4.38382402e-02 +1.68707520e-02 +4.27070931e-02 -2.90451348e-02 +9.48002264e-02 -3.21510732e-02 +2.78252289e-02 +6.89615384e-02 -3.72905955e-02 -7.67271742e-02 -9.13717300e-02 -2.08378583e-02 -5.19656129e-02 -8.64408165e-03 -1.26130506e-02 -1.91709772e-02 +7.57643953e-02 +2.39279941e-02 -9.55298394e-02 +4.41616029e-03 -6.92796111e-02 -9.88766775e-02 +1.92847773e-02 -7.29113221e-02 -4.88813333e-02 -9.26201493e-02 +7.03808665e-03 -8.91739354e-02 +3.32172737e-02 +1.94553211e-02 +2.50244662e-02 +4.61110100e-02 +1.04069807e-01 -6.09186254e-02 -2.55281851e-02 +1.07134603e-01 -1.32517591e-02 -1.02388605e-01 +4.71500978e-02 +6.71112463e-02 +4.89534512e-02 +1.17974207e-02 +5.72214946e-02 -1.03719987e-01 -9.09387320e-03 -6.03585802e-02 -6.60775602e-02 +9.70011726e-02 -8.77737105e-02 +2.28840932e-02 -2.37336233e-02 +8.61001834e-02 +5.38333580e-02 +2.40848586e-02 -6.75638765e-03 +1.06463574e-01 +4.12279367e-03 +5.14218286e-02 -6.88663870e-02 +4.00590897e-03 +9.41520706e-02 +3.42686698e-02 -2.26946473e-02 +1.02248333e-01 +5.36894277e-02 +7.14081302e-02 +3.40636745e-02 -1.75341964e-03 +2.47588977e-02 +4.42228690e-02 -8.97374749e-02 +4.54235151e-02 -8.04312080e-02 +7.90685341e-02 +1.41847581e-02 -9.27134901e-02 -8.96600112e-02 +6.51920214e-02 +4.09924462e-02 +9.74981561e-02 +7.25891963e-02 -8.51143152e-03 +6.43146411e-02 +4.41160277e-02 +5.16623929e-02 +7.18447939e-02 -9.77949575e-02 -2.77476013e-02 +1.03049986e-01 -5.36963344e-03 +2.02938095e-02 -1.64718181e-02 -7.03771561e-02 -9.50779170e-02 -4.97084484e-02 +3.74853387e-02 -1.49041414e-02 +2.70390287e-02 -5.35207316e-02 +7.49818012e-02 -6.72522336e-02 -8.64018202e-02 +4.77130488e-02 +9.03451666e-02 +1.00467376e-01 -7.59609044e-04 +6.69763014e-02 +7.57913068e-02 -2.14470923e-02 -7.67009482e-02 -8.48329365e-02 +7.41371885e-02 +1.01648420e-02 -5.22598624e-03 +3.16882133e-03 -3.94928828e-02 -5.26185483e-02 -9.79929417e-03 -1.60657242e-02 -7.07314909e-03 -3.85735631e-02 +6.55833855e-02 -9.58076715e-02 +4.79054973e-02 -6.28651083e-02 +6.25343993e-02 +5.37903681e-02 +5.85882142e-02 +1.66316405e-02 +7.88659230e-02 +9.30885002e-02 +5.41301295e-02 +6.33166805e-02 -3.30558121e-02 +6.29006848e-02 +8.09691772e-02 -1.06309123e-01 -4.27714288e-02 -9.24634263e-02 +1.02633886e-01 -4.68200631e-02 -6.99480549e-02 -1.68263689e-02 +1.05662428e-01 +5.07190824e-03 -9.03939903e-02 -9.35606882e-02 -2.17467695e-02 -4.12845090e-02 +7.94630423e-02 +7.86226168e-02 +6.15776256e-02 -1.53511092e-02 -7.42477924e-02 +1.05256811e-02 +6.27159700e-02 +7.71673843e-02 +4.90650535e-03 -6.47997782e-02 +2.14576945e-02 +2.80369893e-02 +5.02358153e-02 -9.70509648e-03 +2.88518146e-02 -1.58181787e-02 -8.49959552e-02 +2.91071311e-02 +5.82609326e-03 -1.16019472e-02 +1.66495815e-02 -7.99980909e-02 -8.68674070e-02 -7.78248310e-02 +6.66385517e-02 -5.32468073e-02 -2.55033225e-02 -8.12109560e-02 +9.84263197e-02 -3.86250317e-02 -1.99920833e-02 +9.13215652e-02 -2.22476721e-02 -4.90482002e-02 +4.08336744e-02 +5.82596585e-02 -4.37803119e-02 +7.42718205e-02 +4.87104058e-04 +2.71941498e-02 +1.05480500e-01 -6.19117543e-02 -5.68966791e-02 -1.38493627e-03 -8.15840364e-02 -6.34681135e-02 +7.68471882e-02 +7.40088299e-02 +7.73191676e-02 +1.11154690e-02 -7.07872286e-02 +1.00378543e-02 -4.83744591e-03 +9.62500200e-02 -3.17350775e-03 +7.22773373e-04 +3.64739373e-02 -4.78829928e-02 +7.87429884e-02 +4.86964360e-02 +1.06888853e-01 -1.91694200e-02 -4.38051671e-02 +1.18879005e-02 +7.43154809e-02 +8.29904526e-03 -7.07718655e-02 +3.71784195e-02 +6.22370020e-02 -1.85684115e-02 +8.45592245e-02 +5.31608835e-02 +2.95692012e-02 +4.73982096e-03 +4.62446585e-02 -9.79442149e-02 -9.93614867e-02 -8.36562067e-02 +7.65205398e-02 +3.50675657e-02 -3.14779580e-02 -3.30582261e-02 +2.58533284e-02 +1.02385201e-01 -9.71938744e-02 +6.63837418e-02 +1.92008913e-03 +1.06729642e-02 -1.07382342e-01 +3.61632556e-03 +5.61714694e-02 -6.83133602e-02 -7.54380524e-02 -2.55974606e-02 -2.74347365e-02 +9.59315524e-02 +9.50924382e-02 -3.40258256e-02 -4.69415709e-02 +1.22829750e-02 -5.24128973e-03 +6.16095588e-02 -1.53638422e-04 +7.54366741e-02 +5.44270873e-03 -2.38070935e-02 +2.64260843e-02 +5.90666607e-02 -8.37965012e-02 +3.95059511e-02 -4.16826680e-02 +1.01156525e-01 +1.92566887e-02 +5.43891564e-02 -1.24162957e-02 -8.80495608e-02 +2.62061581e-02 -8.07791874e-02 +4.86783311e-02 -1.48642808e-02 +2.91257277e-02 +1.01774551e-01 -7.57542253e-02 +8.62538069e-03 +4.24229577e-02 +5.19021526e-02 -8.78860950e-02 -2.91422978e-02 -4.63965647e-02 -4.60551940e-02 -9.81905386e-02 +4.19165418e-02 +3.16070542e-02 +9.06003639e-02 +9.38350037e-02 +1.90604478e-03 +3.29459980e-02 -9.12141502e-02 -5.31995855e-02 -2.71376371e-02 -3.87618691e-02 -8.58208165e-02 +2.98208520e-02 +1.02326803e-01 -4.71063554e-02 +4.19216827e-02 +5.04299626e-02 -1.55746341e-02 +3.23021933e-02 +4.42391261e-02 +3.98055464e-03 -2.62768492e-02 +5.54053411e-02 +9.34749618e-02 +1.05186127e-01 +3.27589139e-02 -9.23363492e-02 -2.21482888e-02 -2.38194317e-02 -3.74234468e-03 -2.65828893e-02 +3.57018337e-02 +1.19774044e-03 -1.16253719e-02 +3.49420533e-02 -1.54446512e-02 +8.58504847e-02 -7.57571906e-02 +8.25133845e-02 -8.24486315e-02 +1.67776197e-02 -2.59362161e-04 +2.52957717e-02 +2.87442431e-02 +7.78643563e-02 +6.92145303e-02 -2.34762877e-02 -4.94041406e-02 -3.11488733e-02 +8.09501112e-03 +2.81318277e-03 +4.09627035e-02 +6.37445971e-02 -9.09470022e-02 +4.36327234e-02 +3.90410945e-02 -3.19817513e-02 -6.27813637e-02 +7.66300187e-02 -4.58364636e-02 +5.97655773e-04 +6.44883439e-02 -1.68997645e-02 -2.00436786e-02 -2.39202604e-02 +2.90133804e-03 -6.96401298e-03 +4.72344384e-02 +1.00241058e-01 +1.67222470e-02 -1.01091191e-01 +7.58040771e-02 +1.05490796e-01 -1.77016556e-02 -8.61874372e-02 +5.21178916e-02 +7.82685727e-03 -1.06094867e-01 +5.73205724e-02 +8.98133740e-02 -9.28655043e-02 +3.28897759e-02 -1.02581978e-01 -3.76163423e-03 -3.94371003e-02 -1.06847286e-01 -8.08280259e-02 -1.95249096e-02 +8.05645809e-02 -7.51780421e-02 +6.58518150e-02 +6.38115183e-02 -8.36456046e-02 +8.02645087e-03 -6.38013706e-02 +9.59529728e-03 -3.28400061e-02 +9.79795828e-02 +7.17777833e-02 +1.50828287e-02 +8.61431733e-02 +9.51160565e-02 +6.50253370e-02 -3.81609127e-02 -4.55764756e-02 -5.07514179e-02 +1.07116543e-01 +1.02561764e-01 -4.37816754e-02 -5.20590208e-02 -1.05234832e-02 +1.34500340e-02 -1.80100426e-02 -4.78959829e-02 -7.77633563e-02 -8.83634314e-02 -9.88997519e-04 +7.09684566e-02 +8.47868398e-02 -4.19496223e-02 +8.67436454e-02 -1.00974567e-01 -8.92509520e-03 +9.88196358e-02 +7.93121979e-02 -5.57369627e-02 +5.76094911e-02 +8.85696039e-02 +3.20791975e-02 -6.09381534e-02 -7.31311738e-02 -4.15261760e-02 -6.76770508e-03 -8.53839815e-02 +1.05023734e-01 -5.41673079e-02 -1.73791349e-02 +4.56866622e-03 -5.83417714e-04 +3.74063179e-02 -7.90014863e-03 +4.97468635e-02 -3.81345376e-02 +1.48223639e-02 +8.87872204e-02 +9.74515453e-02 +9.97832417e-03 +4.80890349e-02 -9.16376263e-02 -8.87349397e-02 +3.04133818e-02 -5.42091578e-03 -1.01869248e-01 +8.68308917e-02 +7.42199644e-02 +3.70009467e-02 -5.54186366e-02 +3.07932124e-02 +1.12327412e-02 +1.24506205e-02 +6.96103647e-02 -6.22344278e-02 +8.73254612e-02 +4.15174887e-02 -8.50952640e-02 +5.08089885e-02 +3.23337689e-02 +8.60230550e-02 +6.47970662e-02 -2.92667150e-02 -8.52920488e-02 -6.98933825e-02 -4.28803787e-02 +6.18552193e-02 +8.51336122e-03 +1.18426457e-02 +2.49410942e-02 -9.53411907e-02 +6.85038418e-03 +2.10192725e-02 -2.59635225e-02 -7.49929845e-02 -8.31955001e-02 +3.78634259e-02 -1.01901367e-02 +7.88257495e-02 +7.23946020e-02 +9.79129001e-02 +3.41272876e-02 +3.23586687e-02 +3.90514955e-02 +5.89747354e-02 -1.07301570e-01 +5.39486483e-02 -8.87703672e-02 -8.16046447e-03 -6.12162873e-02 +6.05115667e-02 -7.47578293e-02 -1.44686773e-02 -2.81596854e-02 +3.54587361e-02 +7.33078644e-02 -4.96516377e-02 +7.54595026e-02 +9.64764431e-02 +1.54506564e-02 -4.00639027e-02 +3.81733999e-02 -1.05839148e-01 -1.07102022e-01 -5.02377711e-02 -8.71800557e-02 +8.37225392e-02 +2.66158953e-02 +7.65598342e-02 +7.70697817e-02 -3.71085107e-03 -8.72953236e-03 +5.67345843e-02 -3.97080556e-02 +4.87625599e-03 +2.22964361e-02 -6.68527931e-03 -4.62160334e-02 +3.85433510e-02 -9.89909619e-02 +2.80091688e-02 -5.15821017e-02 +6.21663257e-02 -7.64117092e-02 +2.36305073e-02 -2.07395777e-02 +1.02788232e-01 +5.95691875e-02 -7.83668309e-02 +3.93943861e-02 +7.19163492e-02 -4.51620929e-02 -5.19357622e-03 +4.49901149e-02 -1.06011555e-02 +2.58908197e-02 -4.58835997e-02 -1.01610310e-01 +6.99506924e-02 -1.01865463e-01 -2.71599218e-02 -7.75474906e-02 +3.71647403e-02 +6.45330325e-02 +7.70526305e-02 +4.45624962e-02 +1.03396334e-01 +1.01556472e-01 +2.28952542e-02 +2.22699717e-02 -1.01986431e-01 +8.74281451e-02 -3.96971852e-02 -2.47071683e-02 +9.19654593e-02 +7.34409317e-02 +3.79176959e-02 +3.46973613e-02 -5.77771999e-02 +2.07328722e-02 +2.89880559e-02 +4.34630290e-02 -2.47471035e-04 -6.97358549e-02 -8.94798785e-02 -5.41095473e-02 -9.57992673e-03 +6.45285770e-02 +6.41438738e-02 -7.41496533e-02 +8.79933760e-02 +5.52465394e-02 +2.68393829e-02 -7.03073144e-02 -3.95161062e-02 -8.57707113e-03 +4.38428149e-02 -8.58330727e-02 +4.38810810e-02 +9.55903307e-02 +7.93785974e-02 +1.05208926e-01 +8.37502405e-02 -5.49081713e-03 -4.25353423e-02 +6.87343553e-02 +9.80820879e-02 -5.95566742e-02 -4.40472886e-02 +5.84820285e-02 +5.32929376e-02 +1.37395337e-02 -7.56919086e-02 +6.92459717e-02 +2.93692872e-02 +1.23315379e-02 -3.95854786e-02 -3.90580669e-02 -5.98698184e-02 -2.16820389e-02 +8.37901458e-02 -4.44476604e-02 -8.61589015e-02 -1.68773010e-02 +1.09759718e-02 +6.15903512e-02 +1.18713304e-02 +8.97690877e-02 +1.00528590e-01 -9.75611731e-02 -9.03619081e-02 +2.38351747e-02 -6.98654205e-02 -3.78761515e-02 -7.93268904e-02 +7.14501739e-03 +9.03738365e-02 -8.80124867e-02 +8.31238553e-02 -7.94200525e-02 +3.71846631e-02 +1.78766027e-02 +6.94382936e-03 +8.95219073e-02 -9.51466337e-02 +8.83806869e-02 -1.29980817e-02 +7.23103061e-02 -3.17052230e-02 -5.10256737e-02 +7.37167820e-02 +2.29923949e-02 +4.04467359e-02 -8.42035636e-02 -5.71604595e-02 -5.39980568e-02 -2.90053710e-02 +3.65734473e-02 -5.52424043e-02 +5.61633930e-02 -2.58171558e-03 +4.88502905e-02 +7.75334612e-02 -4.08282056e-02 -3.93017903e-02 +1.94203332e-02 +4.15895805e-02 -1.78652629e-02 -8.38986188e-02 +1.06169023e-01 -1.02171466e-01 +1.02986805e-01 -4.01205719e-02 +8.68053958e-02 -8.94149691e-02 +8.47870931e-02 +1.99805424e-02 +3.93549278e-02 -9.87828374e-02 +5.21703437e-02 -7.18513280e-02 -7.33396262e-02 -3.66949216e-02 +7.14462325e-02 +9.03538838e-02 +1.00791685e-01 +3.10368314e-02 -1.05399191e-02 +2.86466107e-02 -4.88234125e-02 -7.80652463e-02 +1.05966456e-01 -2.14924887e-02 -3.80051211e-02 -1.50062591e-02 +1.07370935e-01 -8.05741176e-02 +3.88709828e-02 -3.22377682e-02 -4.32628393e-02 -5.90658598e-02 -4.92998660e-02 +7.63021782e-02 +7.83111379e-02 -3.75742987e-02 +1.44736692e-02 -7.04015195e-02 -7.24752918e-02 -3.39324176e-02 +2.13838369e-03 +6.89761862e-02 +3.74746323e-03 -6.97992742e-03 -8.36506486e-03 -5.81177883e-02 +2.33095959e-02 +3.37882563e-02 -6.40908629e-02 -9.56112444e-02 -4.30561528e-02 -9.86006632e-02 +1.34926811e-02 +4.30871621e-02 -9.57054868e-02 +1.98008791e-02 -3.29161808e-02 -1.64889321e-02 +6.77618161e-02 +5.95320761e-03 +6.38608262e-02 +8.79348814e-03 +8.74341801e-02 -4.60068546e-02 -2.99658179e-02 -5.63593879e-02 -1.00090563e-01 -1.06741950e-01 +5.54863587e-02 +1.01396360e-01 -5.76011389e-02 +1.04429059e-01 +8.18191394e-02 +2.71254033e-03 -5.48180938e-03 +8.59604999e-02 -4.90698926e-02 +1.41252652e-02 -4.96535525e-02 +1.03841551e-01 -3.85993719e-03 -2.56005153e-02 -5.66215813e-02 -6.92725331e-02 +7.32756779e-02 -8.92750174e-03 -2.56109461e-02 -6.10520765e-02 +5.49199507e-02 +5.76065108e-02 -5.79258800e-03 -2.19329968e-02 -9.05195028e-02 +7.80075267e-02 +7.15159699e-02 -1.46705359e-02 +3.61892954e-02 +1.38764083e-03 +2.99369320e-02 +1.05423681e-01 +4.73617017e-03 -1.03460141e-01 -1.00556187e-01 -1.01065114e-01 -8.94564465e-02 -3.27441171e-02 +7.21146688e-02 +7.25223869e-03 +8.88069347e-02 -3.01885456e-02 -4.14303094e-02 +5.20172045e-02 +7.20448121e-02 +5.11262342e-02 -4.34377789e-03 +8.36270079e-02 +7.54769221e-02 +8.00623819e-02 -2.00516582e-02 +7.84422830e-02 -6.61420524e-02 -1.05812624e-01 +8.48689675e-03 +4.18564603e-02 -4.61667962e-02 -8.50666463e-02 +1.06345065e-01 +3.26169506e-02 -6.52934313e-02 +7.19482973e-02 -3.23601365e-02 +1.26682818e-02 -1.90302283e-02 -9.02356133e-02 -4.44531664e-02 +3.26433405e-02 +3.59333828e-02 -9.08044577e-02 +6.75928071e-02 -8.35605487e-02 -1.67913735e-03 +7.91992620e-02 -1.01332784e-01 +3.28387320e-03 +8.31916705e-02 -1.77145079e-02 -3.34691703e-02 -5.38391955e-02 +5.97456619e-02 +1.49413347e-02 +5.42691872e-02 +9.50395688e-02 +4.47582081e-02 +8.58619437e-02 +6.89684823e-02 -6.57548755e-03 +1.72389075e-02 -3.79737839e-02 +8.31573233e-02 +1.07199274e-01 +2.51748785e-02 +7.44825676e-02 -5.75833060e-02 -4.93756421e-02 -4.12091315e-02 -8.09379965e-02 -9.52225924e-03 +9.78535190e-02 +7.72021785e-02 +1.96687654e-02 +1.04340412e-01 -8.37126225e-02 +1.88937262e-02 -6.99057430e-02 -1.00790933e-01 +2.79001817e-02 +9.93736759e-02 +2.48850510e-02 +8.57490376e-02 +1.03961281e-01 +3.32029834e-02 +5.91113642e-02 +2.36370489e-02 -8.54858756e-02 +3.29946950e-02 -2.21318379e-02 -1.06525503e-01 +5.03760800e-02 -8.84972513e-04 -3.11656967e-02 +4.31367680e-02 +6.20665178e-02 -3.40613201e-02 +2.68243030e-02 -4.01146263e-02 +5.56622818e-02 -8.68592262e-02 +4.30407152e-02 -6.04909696e-02 +3.03073153e-02 -2.59861425e-02 +6.19081929e-02 +1.97113305e-03 -4.42779064e-02 +1.18160397e-02 -6.55493438e-02 -9.05442238e-03 -5.71114905e-02 -2.96986252e-02 -3.06111276e-02 -1.68926269e-03 +4.84655872e-02 -8.89104605e-03 -4.41352129e-02 -6.18560277e-02 -7.45595247e-02 +5.50132766e-02 -7.16819167e-02 +3.39304283e-02 -4.01462242e-02 +7.37656727e-02 +8.16989616e-02 -2.06305534e-02 -5.02114855e-02 +1.93200335e-02 +4.99798357e-03 +4.02111486e-02 +8.63500759e-02 -7.90923983e-02 -8.44387114e-02 +2.05400959e-02 -4.90222089e-02 -6.94122240e-02 -6.40717894e-03 -5.74668758e-02 +1.93175748e-02 +4.67095152e-02 -2.80734003e-02 -7.25567639e-02 +8.26875865e-03 +9.04176161e-02 -9.96913761e-02 -6.63656294e-02 +1.05723672e-01 +5.54848239e-02 -1.49547309e-02 -3.09617296e-02 +7.20237121e-02 +9.00391266e-02 -5.18508814e-02 +7.01854452e-02 +5.18985465e-02 +9.98675004e-02 +5.32574877e-02 -1.02789827e-01 -5.36647066e-02 -1.06319770e-01 -1.42186359e-02 +7.90029690e-02 -5.24164774e-02 +8.78943428e-02 +7.46693686e-02 +8.70433971e-02 +1.00885294e-01 -3.89687344e-02 +7.31685087e-02 +9.96241048e-02 +1.03791170e-01 +2.98138037e-02 -1.06461942e-01 -6.22032806e-02 -9.01762843e-02 +9.22733173e-02 -3.89750153e-02 +8.90282020e-02 -6.03397489e-02 +2.16118768e-02 -1.62946135e-02 +7.49441981e-03 +5.31424955e-02 -4.81197983e-02 +2.67260149e-02 -1.94833800e-02 +1.01365305e-01 -9.34964865e-02 +2.82778367e-02 -4.56719175e-02 +6.15827739e-04 +1.08327940e-02 -8.99208561e-02 +3.13521102e-02 +2.70618275e-02 -9.29458737e-02 +4.31836024e-02 +8.03603977e-03 -9.79388803e-02 +3.63858417e-02 -6.48394451e-02 -8.40269029e-02 +2.83284262e-02 +2.97735408e-02 -7.00813532e-02 -7.07855150e-02 +1.91185847e-02 -8.22415501e-02 +1.56879425e-03 -4.25333828e-02 -1.05486497e-01 +7.20694140e-02 -6.45148754e-02 +4.69490513e-02 -9.83872265e-03 -2.23749727e-02 +7.14592263e-02 -7.08558410e-02 +1.03197582e-01 +6.78436458e-03 -5.96050881e-02 +7.91264251e-02 +1.37503445e-02 -5.08425198e-02 +9.12462398e-02 -2.30699331e-02 +7.15033785e-02 +7.74957314e-02 +4.34503034e-02 +3.86560485e-02 -5.06354235e-02 +7.94723108e-02 +7.76136145e-02 -7.00802505e-02 -1.03633299e-01 -9.01827663e-02 +2.95578018e-02 -9.28973556e-02 +3.72078046e-02 -6.95564821e-02 +3.30668017e-02 +9.49860290e-02 -1.58114806e-02 +8.39556530e-02 +1.06679104e-01 +9.42127034e-02 -1.05472639e-01 -7.40028247e-02 +4.77268323e-02 +2.66987458e-02 -7.94886798e-02 -3.28943208e-02 -8.49561542e-02 +4.00419757e-02 -7.38629997e-02 +5.89285418e-02 +7.63689056e-02 -1.06071554e-01 +2.41661295e-02 -8.10175538e-02 -1.63518786e-02 +1.26503929e-02 -9.18254480e-02 -2.69909799e-02 +9.05635729e-02 -7.77902007e-02 +1.05628945e-01 -5.51284291e-02 -3.55000496e-02 -1.01712599e-01 -1.68457180e-02 +9.28794220e-02 -4.91788797e-02 +4.59102020e-02 -7.40068704e-02 -8.04844648e-02 -9.54260826e-02 -2.24216357e-02 +1.66324973e-02 +1.01886682e-01 -9.99259874e-02 +6.20257482e-02 +5.95009252e-02 -1.76948458e-02 +3.98814753e-02 -2.47852057e-02 +1.41786337e-02 -2.47291699e-02 -9.37684402e-02 -6.14420474e-02 +5.13025001e-02 -2.83702835e-02 -7.42401481e-02 +7.70554766e-02 -2.86303461e-03 +5.90785593e-03 +3.81579176e-02 -5.14117926e-02 +4.66489866e-02 +1.06563419e-02 -9.38944146e-02 -7.65191466e-02 +5.78663573e-02 -7.49623030e-03 -7.53093436e-02 +4.86177728e-02 +9.25183296e-03 +8.69304016e-02 +3.99732813e-02 +4.39287797e-02 -9.00391713e-02 -1.94619596e-03 +6.87207952e-02 -9.40661728e-02 +1.01287812e-02 -6.02578670e-02 +2.30381712e-02 +9.94258896e-02 -8.84619355e-03 -1.35427937e-02 -7.47888461e-02 -7.72367641e-02 +7.27313235e-02 +3.90601531e-02 -1.02314577e-02 +4.05453965e-02 -9.27087218e-02 -8.11851621e-02 -4.36102822e-02 +9.11195651e-02 +6.96457550e-02 -2.12338716e-02 -9.99711454e-04 +7.76239485e-03 -2.20191106e-02 +5.13363406e-02 -4.07666415e-02 +3.47980857e-03 +7.12379590e-02 -3.21286693e-02 +6.70717880e-02 -2.54857987e-02 +4.61648181e-02 -3.17026228e-02 +8.71699825e-02 +7.93429241e-02 +1.04374252e-01 -5.66219278e-02 -7.32855797e-02 -7.03590512e-02 -1.02243058e-01 -1.07315741e-01 +7.14350715e-02 +5.17880842e-02 +4.39466611e-02 +5.10845706e-02 -2.07525417e-02 -1.56631544e-02 -4.78091203e-02 +9.49632749e-02 -4.91796546e-02 +6.69825897e-02 +2.76483223e-02 +2.54473314e-02 +4.45693061e-02 +2.53510699e-02 +9.95710865e-02 -8.04654509e-02 +7.69760981e-02 -5.06156981e-02 -4.24998328e-02 -2.50815079e-02 -1.52793974e-02 +5.32707572e-03 -8.12638700e-02 -3.45382020e-02 -8.09820965e-02 +1.01974271e-01 -1.50450990e-02 -4.29986045e-02 -7.86085427e-03 +1.24148428e-02 -9.36489627e-02 -8.86841491e-02 -5.86164519e-02 +9.32362154e-02 +9.04573873e-02 -6.81273714e-02 -2.59460881e-02 -3.63513455e-02 -7.29041323e-02 -5.77665903e-02 -2.58656591e-02 -6.58512414e-02 +7.63273314e-02 -4.19169217e-02 +8.09252039e-02 +4.60229889e-02 +4.43193689e-02 +5.86276427e-02 +4.09209728e-03 +7.83525482e-02 -7.90937617e-02 +1.01737611e-01 +5.34526780e-02 -6.41675070e-02 -7.11035132e-02 +2.08365098e-02 +1.05706178e-01 +2.20344886e-02 -2.00206116e-02 +7.91836157e-02 +4.48595658e-02 +1.24905109e-02 +8.48548636e-02 +5.55198714e-02 +5.33551052e-02 +9.78541449e-02 -8.22566450e-02 -9.47169513e-02 +2.10374519e-02 +1.14891455e-02 -5.38495742e-02 -2.16612965e-02 -4.90283407e-02 -1.04970522e-01 +5.83757833e-02 +3.68589088e-02 -5.93230426e-02 -4.01678681e-02 +8.45907852e-02 -2.79040113e-02 -1.05095856e-01 +7.37682357e-02 -6.51071370e-02 -4.69216593e-02 -5.22370003e-02 +7.67117962e-02 -1.01362951e-01 +9.89155248e-02 +2.71703303e-03 -5.70852049e-02 +3.50540131e-03 -4.52993587e-02 -7.07773119e-02 -5.47881275e-02 -1.10113472e-02 +9.46454331e-02 +8.50502476e-02 -6.20369688e-02 +1.00104846e-01 +1.01520054e-01 -5.62331863e-02 +3.50365117e-02 -2.79286280e-02 -7.89394528e-02 -9.72729027e-02 +7.95598105e-02 +3.14665064e-02 -7.84014016e-02 -9.75425243e-02 -6.32252693e-02 -4.46352363e-02 +9.79515538e-02 +1.68656260e-02 -7.11283833e-03 -4.43652272e-02 +9.64873284e-03 -3.19973454e-02 +2.62435749e-02 +4.32151631e-02 -9.12180543e-02 +4.38713953e-02 +8.85435268e-02 -7.26993978e-02 +8.13327730e-04 +2.02491134e-03 -6.86951578e-02 +3.03188339e-02 +1.06010430e-01 +5.64706251e-02 -3.14335898e-02 -7.17645958e-02 +5.47810271e-02 +4.03111205e-02 -4.53592725e-02 +4.50078174e-02 -7.29293898e-02 -8.07937533e-02 +1.21511519e-02 +6.59653619e-02 -6.36273846e-02 -9.39952061e-02 -5.90952635e-02 +3.77879366e-02 +3.89971659e-02 +2.30906680e-02 +2.52446011e-02 -3.74637544e-03 +9.99924913e-02 +5.05503491e-02 -2.82042548e-02 +3.44311967e-02 +8.88716057e-02 +4.18730080e-03 +3.07646468e-02 +5.99825382e-03 +6.09294549e-02 +1.05644472e-01 -1.96945593e-02 -5.34434728e-02 -6.81903362e-02 -2.44924501e-02 -5.65245487e-02 +3.47808227e-02 -7.88295716e-02 -3.48525420e-02 -1.06667638e-01 +1.53169706e-02 -2.97468677e-02 -6.01744205e-02 +6.31963983e-02 +6.64069131e-02 -4.72527444e-02 +1.94389373e-03 +7.11762533e-02 +8.19821581e-02 +3.00829634e-02 +2.73551270e-02 +7.67151192e-02 +1.96545497e-02 -6.27220422e-02 +1.05893128e-01 +3.77313271e-02 -1.23669952e-02 +9.43526402e-02 -1.84615701e-03 +9.65246037e-02 +9.75529179e-02 -6.34101555e-02 +8.13847557e-02 -9.68867317e-02 +9.37087312e-02 -6.08813465e-02 -6.49814159e-02 +7.39607587e-02 +7.36215934e-02 +5.22667170e-03 -7.14160949e-02 +9.60527286e-02 +7.37862289e-03 -7.95477778e-02 -8.14045519e-02 -6.33349046e-02 -2.39449143e-02 -4.44678962e-03 +1.43228844e-02 -4.04260382e-02 -4.32586074e-02 -4.33475077e-02 +2.16586813e-02 +6.23307452e-02 +4.57438603e-02 -1.47684962e-02 +4.50016633e-02 +7.98693225e-02 +9.11620483e-02 -9.44482088e-02 -5.45794964e-02 -1.01343706e-01 -9.86030474e-02 -5.54875806e-02 -3.16796601e-02 +9.59100202e-02 +2.21808925e-02 -8.14444795e-02 -3.98997143e-02 -6.82622269e-02 +6.68113604e-02 -2.66376808e-02 -1.06936656e-01 +8.85685012e-02 +3.73741314e-02 +1.48400962e-02 -7.62280822e-02 +2.05249339e-03 +6.46890178e-02 -3.95087376e-02 -6.03080653e-02 +4.58099619e-02 +8.69843364e-03 +5.40614128e-05 -5.59798665e-02 -9.25407559e-02 +1.83070228e-02 +7.82190934e-02 +5.82421795e-02 +5.56920692e-02 +2.40311101e-02 +2.39126906e-02 -1.40635893e-02 -5.76459616e-02 -1.02441072e-01 -7.24784210e-02 -8.71878862e-03 -1.01509079e-01 +2.43303403e-02 +7.74789602e-03 +8.52844045e-02 -8.44259411e-02 -4.61327918e-02 -5.96668571e-03 -7.19880313e-03 -7.81058818e-02 +6.36608973e-02 -6.07930124e-03 +7.07028806e-03 -2.59557366e-02 +8.25356171e-02 -1.00626566e-01 -4.32226285e-02 -6.89985827e-02 -5.31565100e-02 -5.38248308e-02 -1.01371743e-01 -5.45730516e-02 -2.54411772e-02 -8.81376937e-02 -1.01222083e-01 -8.27834606e-02 +1.11866146e-02 +9.71132591e-02 +6.95159212e-02 -6.38536140e-02 +1.27713159e-02 +1.09273717e-02 +3.16170976e-02 -4.00116518e-02 +3.80965248e-02 +2.97511294e-02 +7.85072073e-02 +5.76801226e-02 +4.86167893e-02 -5.42385802e-02 -9.53600779e-02 +1.66272596e-02 +5.30090854e-02 -3.59882712e-02 -8.44404474e-02 +1.21629387e-02 -9.46180671e-02 +3.72325107e-02 +4.84051183e-02 +3.46647426e-02 +1.01134665e-01 +4.09768894e-02 -9.92978513e-02 +9.40226987e-02 -3.70885879e-02 +8.81333128e-02 -6.50115609e-02 +4.95356694e-02 +1.02828838e-01 -4.06025201e-02 +6.99856356e-02 +6.28957525e-02 +7.61125013e-02 -4.09321189e-02 +4.46115211e-02 +2.79769972e-02 +6.91532865e-02 +1.06853224e-01 -9.64993536e-02 -8.28164369e-02 +6.65492490e-02 -1.40776336e-02 +6.45354912e-02 +7.83010200e-02 -3.48638445e-02 -4.54582945e-02 +1.03803873e-02 -6.75573498e-02 +2.37240717e-02 +7.74507225e-03 -2.26897299e-02 +1.06961317e-01 -4.62476984e-02 -9.09231752e-02 +6.68983832e-02 +6.78660944e-02 +7.22283199e-02 -8.81349742e-02 +4.24068049e-02 -3.17566991e-02 -7.95462951e-02 +1.84561312e-03 +4.90386784e-03 -2.66908929e-02 +6.11509308e-02 -2.16677338e-02 -8.00563470e-02 -5.93690239e-02 -7.35305548e-02 -1.58975795e-02 -1.25910267e-02 +9.67596099e-02 -6.71762377e-02 +3.18141952e-02 +6.45714775e-02 -8.77411738e-02 +7.93360844e-02 -6.19218424e-02 +5.72711304e-02 -7.22668171e-02 +1.74712092e-02 -8.15016031e-02 -1.01841837e-01 -1.61489844e-02 -6.97553977e-02 -8.02976191e-02 +8.96479264e-02 +5.58614805e-02 -4.26078364e-02 +4.35921475e-02 +4.65936884e-02 -7.72207156e-02 +2.87645534e-02 +1.11702383e-02 -3.34807262e-02 -2.82687917e-02 +3.17216888e-02 -2.79178917e-02 -7.78017491e-02 -9.00626481e-02 -6.50933534e-02 +6.72799274e-02 -9.38379839e-02 +4.78206500e-02 +1.84312388e-02 -3.33566740e-02 -4.69398946e-02 +8.03246871e-02 +2.01150402e-02 -9.63286459e-02 -1.16775110e-02 +9.49402228e-02 +1.03131138e-01 -5.39574698e-02 -1.81734040e-02 +2.61989906e-02 +9.25994888e-02 +2.77901217e-02 +4.41388860e-02 +7.94000849e-02 +8.45739245e-03 -2.30500102e-02 +9.04104188e-02 +3.42770666e-03 -1.27073228e-02 -8.32108632e-02 -1.95097700e-02 +4.52023521e-02 -4.78714406e-02 -4.60533127e-02 +4.11996916e-02 -5.35853878e-02 -5.78489304e-02 +3.39087620e-02 +5.57842627e-02 -6.33561164e-02 +3.29953432e-03 -6.13959283e-02 -1.03301115e-01 -8.83803815e-02 -9.47129428e-02 +5.65004349e-03 +1.50157809e-02 -2.00693160e-02 +3.14755365e-02 +4.88541275e-03 -1.00522079e-01 +2.13474035e-04 -4.00261655e-02 -9.14131552e-02 +9.64447334e-02 -9.04178768e-02 -4.84019779e-02 -7.01709539e-02 +7.20533505e-02 -1.00026794e-01 -3.44236419e-02 +8.58232155e-02 +3.87653485e-02 +5.61509356e-02 -2.60914862e-02 -1.43686682e-02 -2.43731663e-02 +9.35723111e-02 -2.01613754e-02 -9.62153301e-02 +7.96043798e-02 +5.99530265e-02 -4.86102998e-02 -4.78373021e-02 -9.06261504e-02 +4.97827008e-02 -4.77966331e-02 -2.44053230e-02 +6.71484247e-02 +9.95092615e-02 +2.11906955e-02 -6.68330565e-02 +5.10182902e-02 +6.81910142e-02 -4.36947346e-02 -1.06440119e-01 -7.05257207e-02 -6.29803389e-02 +4.96088043e-02 -8.35056230e-02 +9.88740996e-02 -9.71516296e-02 +1.71732605e-02 +2.43449435e-02 +6.17269650e-02 +4.40168306e-02 +9.66147557e-02 +2.35501006e-02 +5.48982844e-02 -5.66726178e-03 -6.44723177e-02 +5.82255796e-02 +5.60614541e-02 -5.95415235e-02 +3.19732502e-02 +3.13192979e-02 +1.44331008e-02 -6.04338050e-02 -3.76809910e-02 -5.89456633e-02 -3.22699621e-02 -8.50933120e-02 +5.30961677e-02 -1.20351762e-02 -7.80166611e-02 -7.44060874e-02 +4.05296311e-02 -9.76518542e-03 +8.64286795e-02 +5.87966368e-02 +1.01447009e-01 +1.18780807e-02 -1.90000460e-02 -7.82832205e-02 -3.86811569e-02 -2.01083124e-02 -1.04080811e-01 +4.13220897e-02 +2.33611092e-02 -3.91362756e-02 +8.23940411e-02 +3.08034942e-02 +4.21838686e-02 -2.07832754e-02 +2.07713619e-02 -3.06912586e-02 -4.57513221e-02 +8.74308124e-02 -8.65500122e-02 -3.34703103e-02 +8.42655227e-02 -5.58002889e-02 +3.01735327e-02 -2.03855336e-04 -7.05622211e-02 -3.38531882e-02 +6.38150498e-02 -2.76588649e-02 +4.70037535e-02 -3.01278457e-02 +5.31148389e-02 -9.09335166e-02 -7.09015131e-03 -5.66548370e-02 +1.02441929e-01 +3.71115878e-02 -3.02376375e-02 +9.00344327e-02 -9.60239545e-02 +1.91290155e-02 -2.93244421e-02 +7.38227591e-02 +8.61873999e-02 -7.48806894e-02 +3.36370394e-02 -1.01712875e-01 +8.85891244e-02 +9.84576419e-02 +2.48882845e-02 -1.45754516e-02 +3.25967148e-02 +6.42737523e-02 -4.96603511e-02 +9.50979441e-03 +3.50049511e-02 +8.82516578e-02 -9.82172787e-03 -9.30103213e-02 -1.94275081e-02 +5.81063256e-02 -1.01725318e-01 +8.98908451e-02 -8.42170119e-02 +5.63683882e-02 +6.46661296e-02 -1.60062835e-02 -8.43423083e-02 +7.20640495e-02 -7.33566731e-02 -6.71593845e-02 -6.89438432e-02 -3.43639404e-03 +2.86033675e-02 -2.48200223e-02 -6.43459707e-02 +7.42153004e-02 -3.61780971e-02 +6.01114109e-02 -7.71346539e-02 +1.86074302e-02 +1.34004280e-02 +9.02939066e-02 +3.50796804e-02 +7.23441914e-02 +6.71868771e-03 -7.27859139e-03 -2.87775174e-02 +8.61784294e-02 +5.54472730e-02 +3.64967510e-02 -7.62963593e-02 +4.13541570e-02 -1.51178986e-03 -4.59040552e-02 +5.00500277e-02 +9.59104076e-02 +6.96471855e-02 -9.84449610e-02 +7.58206919e-02 +4.01207581e-02 -1.00319602e-01 -4.59708013e-02 +4.40096781e-02 -1.37007982e-03 +5.19976020e-04 +2.88594738e-02 +1.02779865e-02 +5.18656597e-02 +5.50724342e-02 +7.93538019e-02 +8.36990252e-02 -3.33705544e-02 -5.66005930e-02 -8.60076398e-02 +2.11880729e-02 -3.15868035e-02 -4.82909903e-02 +6.86789528e-02 +2.87775025e-02 -8.66339430e-02 +1.05543323e-01 -6.83245212e-02 -4.36438024e-02 +8.28775540e-02 +8.13265517e-02 -8.00741166e-02 -5.67891635e-02 +8.78921822e-02 -8.81262794e-02 -7.80874491e-03 -2.04448402e-02 +4.45104167e-02 +1.04873501e-01 +4.76902798e-02 -5.16616553e-03 -5.94003089e-02 +3.92636880e-02 -4.42238152e-03 +7.44163021e-02 +4.11792621e-02 +1.52682513e-02 -2.23494619e-02 +3.77174392e-02 +3.41009349e-03 -9.87606570e-02 +5.23786619e-02 +6.43365756e-02 -9.62908044e-02 -8.96484852e-02 -7.23372921e-02 -4.60362285e-02 -5.12690470e-02 +6.49441853e-02 +4.72432449e-02 +9.29451957e-02 +2.87195668e-02 -1.95062160e-03 +6.39708862e-02 -4.07880843e-02 -1.35666057e-02 -3.12618017e-02 +7.83054903e-02 -6.16292581e-02 -2.28500217e-02 +1.78312883e-02 -7.47103244e-03 -7.40793347e-02 -6.41371459e-02 +8.90118256e-02 -5.69504760e-02 -1.02032498e-01 +1.00892104e-01 +2.48259380e-02 +7.44745657e-02 +4.95159253e-02 -6.19545169e-02 -9.67487395e-02 +6.35193214e-02 +9.68705937e-02 +2.17577070e-03 -7.28107244e-03 -9.98603478e-02 +4.76251766e-02 -1.42597407e-02 -1.06458083e-01 +1.69419423e-02 -9.84732807e-02 +9.88344029e-02 -2.27143839e-02 +5.16498163e-02 +8.44760612e-02 -6.46211877e-02 +1.74319968e-02 -3.15673426e-02 -8.58103484e-03 -4.14854363e-02 +5.23100719e-02 -6.27271235e-02 -5.85063472e-02 +7.30345473e-02 +2.73906663e-02 +3.14893574e-03 -1.00452065e-01 +9.30823460e-02 -1.00444376e-01 +6.88823089e-02 +7.96261057e-02 +1.63853467e-02 -6.89620376e-02 +2.64202133e-02 -1.24473870e-03 +8.31558332e-02 -2.29023919e-02 -4.59486693e-02 +9.45805088e-02 +3.47070619e-02 +2.90235355e-02 +2.84393057e-02 +7.74707869e-02 +5.25581837e-03 -9.32236761e-02 -7.29608983e-02 -1.81076452e-02 -2.60364339e-02 -5.57334982e-02 +5.48801646e-02 +1.00344159e-01 -7.83383548e-02 -3.40728834e-02 -2.17174068e-02 -9.30322111e-02 +2.30317190e-02 +1.01798318e-01 -8.77393782e-02 +1.05791427e-01 +2.20772848e-02 -7.56916925e-02 +7.88570940e-03 +1.62043348e-02 +9.16011259e-02 -2.78950334e-02 -9.45866853e-02 -5.46948053e-02 +9.63790342e-02 +8.25837478e-02 +3.74783352e-02 +6.67568818e-02 +5.90042695e-02 +6.76160976e-02 -4.10450250e-03 +8.61318633e-02 +6.30578026e-02 -9.58575830e-02 +3.12156156e-02 +4.71313819e-02 -1.31787360e-02 -8.11542422e-02 +7.06204996e-02 -3.68919596e-02 -5.65984696e-02 +6.40955195e-02 -1.03102185e-01 +2.41401568e-02 +5.13047799e-02 +5.95669076e-02 +4.31809351e-02 +6.57332316e-02 -8.75868797e-02 +8.89780745e-02 -9.66049433e-02 +4.61368188e-02 -7.71083683e-03 +1.09763816e-02 +4.53316644e-02 -3.18046883e-02 +4.36759740e-03 -6.67908117e-02 -2.83810496e-03 +4.58142087e-02 -2.12885141e-02 +3.88299301e-02 +2.43574306e-02 +1.82650611e-02 -7.53973350e-02 -4.81823832e-03 -3.52936238e-02 +1.88554600e-02 -7.60629028e-02 +4.87647280e-02 -4.73055243e-03 -4.58733402e-02 +9.84672979e-02 +6.36638477e-02 +5.40832058e-02 -1.69561356e-02 -3.86193991e-02 +9.49997678e-02 -8.67366791e-03 -2.89328918e-02 +3.32909748e-02 -3.04945707e-02 -3.23483571e-02 -7.94886053e-02 -1.02406815e-01 -4.85286117e-04 +1.14873797e-02 +1.72569379e-02 -2.07212791e-02 +3.41910869e-03 +2.75711343e-02 +4.48871329e-02 +7.75340572e-02 +5.96931055e-02 +4.88279536e-02 -7.33604431e-02 +5.66900745e-02 -2.18141750e-02 -9.12513062e-02 +8.05473700e-02 +3.57063487e-02 +8.16907957e-02 +6.13533705e-03 -6.16395958e-02 +6.90053925e-02 -4.18194085e-02 -2.63996124e-02 -1.06047899e-01 -5.27329557e-02 +5.16792908e-02 -1.75035745e-02 +8.10385272e-02 +1.03027634e-01 -6.80272132e-02 +9.19746533e-02 -7.11530522e-02 -2.62188017e-02 -2.01296359e-02 +4.72506955e-02 -2.10709125e-02 +7.06364587e-02 -3.29854414e-02 -9.51458216e-02 -4.69373204e-02 -1.00536741e-01 -9.00468826e-02 +5.00252917e-02 -4.67097908e-02 +9.03407708e-02 -4.77664545e-02 +1.98529437e-02 -9.50281918e-02 -3.90704721e-03 +9.68204066e-02 +5.82254902e-02 -4.76820357e-02 +8.06532875e-02 +4.24919054e-02 -6.47918805e-02 -1.41629353e-02 -5.22187650e-02 +1.77538469e-02 -2.66074985e-02 -7.17234612e-02 -1.87242180e-02 -1.42733157e-02 -4.53845970e-02 -2.61453614e-02 +5.35894409e-02 -7.82197714e-03 -6.27744719e-02 -6.10584356e-02 -9.85243246e-02 +1.06225610e-02 +7.83655867e-02 -5.33173867e-02 -7.18055665e-02 +1.54389143e-02 -5.80280423e-02 -9.15310830e-02 -5.57079278e-02 -1.06598757e-01 -2.73484066e-02 -5.06975800e-02 -3.86283845e-02 +5.50466701e-02 -2.40295827e-02 -6.76502883e-02 -6.93054497e-02 -6.51986375e-02 -2.54067704e-02 +5.75952604e-02 -7.29029998e-02 +5.57832643e-02 -3.49653959e-02 -8.82956088e-02 -6.84793890e-02 -8.64889994e-02 -2.35040784e-02 +7.80252367e-03 +9.90009978e-02 -2.54334360e-02 +5.16201183e-02 -6.66485727e-03 +9.54842940e-02 +5.80284670e-02 +4.04064357e-03 +1.99100897e-02 -1.07081376e-01 -9.08141956e-02 +7.52115026e-02 -9.16027948e-02 -4.03551012e-03 +1.80062130e-02 -1.37921944e-02 +8.97756219e-03 +3.99953052e-02 +9.53105316e-02 +7.38247558e-02 -4.20491472e-02 +2.93510929e-02 +9.49834362e-02 -5.90280108e-02 -2.21489519e-02 -7.32673705e-03 -9.71033052e-02 +2.14114115e-02 +3.40659991e-02 -1.37880892e-02 +1.07042737e-01 -6.28414154e-02 +6.76762387e-02 +3.05960998e-02 -7.41563514e-02 -2.24012136e-03 +4.56786901e-03 -5.51634096e-02 +7.09297583e-02 -8.29432458e-02 -9.12887901e-02 -2.86079198e-03 -6.89881817e-02 +3.39293554e-02 -8.87812153e-02 -9.21040773e-03 +2.27493867e-02 +5.53961471e-02 -2.60060728e-02 -2.78360769e-02 +9.90748629e-02 -1.20924637e-02 +5.12334034e-02 +9.92542282e-02 -1.70192346e-02 -7.32732713e-02 +2.90936157e-02 -8.21218863e-02 +1.04017787e-01 +8.94764736e-02 -8.09567571e-02 +4.73424122e-02 +1.04943685e-01 +4.07146886e-02 -9.62044522e-02 +9.23564956e-02 +1.06120385e-01 -1.17052421e-02 -5.00556193e-02 -4.99493629e-03 +4.20397446e-02 -6.00049794e-02 -3.01203206e-02 +5.82847670e-02 -1.01464696e-01 -4.75947149e-02 -9.36807394e-02 +2.29519233e-02 +1.96122453e-02 +4.29308191e-02 -6.71296567e-02 +5.51285595e-03 -1.00835808e-01 -2.08873525e-02 -2.64712200e-02 +1.54762715e-02 -2.03404576e-02 -9.71240550e-03 -7.34994411e-02 -8.92828926e-02 +1.00292079e-01 +1.83094367e-02 +9.68362913e-02 +1.22153014e-02 -9.57769305e-02 +4.84560952e-02 +9.60508212e-02 +3.72865871e-02 -5.41288927e-02 +5.23543134e-02 -4.47415337e-02 -1.39096305e-02 +3.78537253e-02 +5.49488291e-02 +4.96313497e-02 -5.22498302e-02 +1.02060847e-01 +1.00585200e-01 +1.02683477e-01 +9.91339609e-02 +3.52382734e-02 +6.77892789e-02 -3.99768576e-02 -4.50934693e-02 -1.06560789e-01 +1.89259574e-02 +4.05678824e-02 +8.07969347e-02 +7.40226880e-02 +6.95161298e-02 -9.31869373e-02 -2.74592936e-02 +7.16392919e-02 -9.35264304e-02 +8.13294575e-02 +9.37363431e-02 +2.16862038e-02 +9.99805704e-02 +2.38072947e-02 -6.50471598e-02 +4.79763523e-02 +7.58722052e-02 -3.01190913e-02 -6.75111264e-02 -8.52249265e-02 -9.10805613e-02 +9.99987200e-02 -7.90324435e-02 +1.06721900e-01 -2.00541914e-02 -8.80544707e-02 -8.71898979e-02 +7.57181272e-02 +6.73854128e-02 -9.98748615e-02 -9.76807028e-02 +2.26164088e-02 -5.44664562e-02 +4.53658029e-02 -2.31313631e-02 -2.26741657e-02 +2.05522254e-02 -3.50172818e-02 +3.71666178e-02 +5.39917573e-02 +3.91727015e-02 -1.31832063e-02 +1.02275364e-01 +7.75049254e-02 